tree
version=v4
num_class=1
num_tree_per_iteration=1
label_index=0
max_feature_idx=60
objective=lambdarank
feature_names=ret_1d ret_2d ret_3d ret_5d ret_10d ret_21d ret_42d ret_63d rsi_2 rsi_14 zscore_10 zscore_20 dist_sma_5 dist_sma_10 dist_sma_20 dist_ema_9 boll_pos_20 pullback_from_high_21 bounce_from_low_21 close_pos_21 gap_open gap_abs_mean_5 range_pct_1d close_pos_1d sma_5_20_align sma20_slope_10 ema_9_21_spread adx_14 macd_hist_norm realized_vol_5 realized_vol_10 realized_vol_21 vol_ratio_5_21 parkinson_vol_10 atr_pct_14 rel_volume_5 rel_volume_21 vol_zscore_10 up_vol_ratio_10 obv_slope_10 volume_breakout vol_adj_mom_21 mom_consistency_10 rs_index_5 rs_index_10 rs_index_21 rs_index_slope_5 beta_index_63 corr_index_63 xs_rank_ret_5 xs_rank_ret_10 xs_rank_ret_21 xs_rank_zscore_20 xs_rank_vol_adj_mom_21 xs_rank_rs_index_10 tsfm_fwd_ret tsfm_uncert kronos_fwd_ret chronos_fwd_ret chronos_uncert ens_fwd_ret
feature_infos=[-0.76134681000629145:0.31716862484184771] [-0.75403583869902424:0.43264826100845455] [-0.75236756872964505:0.71020656817766303] [-0.77526375368075418:0.70090644470368457] [-0.78405850552156675:0.98508020402639307] [-0.78846152951662085:1.7828745528084164] [-0.79747931960564822:2.7916666666666665] [-0.80378103018007829:3.7377049487882079] [0.00033404086394739352:99.997552889415189] [8.6982541369508937:95.090428931863528] [-2.8390189630361116:2.8379589042320981] [-4.2113409872413978:4.0630861972763315] [-0.71159006070701447:0.34792183232995666] [-0.73648372807716533:0.50607243612415798] [-0.74070178052039126:0.64389738616952186] [-0.711726714392516:0.38534153210751443] [-2.1056704936259258:2.031543098680082] [-0.79316723278656942:0] [0:1.6513759916025328] [0:0.99999999999903466] [-0.77269362457802471:0.2222223487219237] [0:0.1702094337100061] [0:0.35780701598800835] [0:0.99999999999701661] [0:1] [-0.59841504972357051:0.51398118451079378] [-1.0211432861493841:0.15214957840441787] [6.0142827953546485:82.169489587683557] [-0.43234026888912219:0.12276930021721109] [1.2205860735455186e-05:0.34185311129192852] [0.00043683171907907167:0.24496035899218199] [0.0034072591190670203:0.16991647424952577] [0.00017768466083123099:2.2012638053236593] [0.004693662803870415:0.17776995030097803] [0.0084107804722402934:0.41196672216549995] [0:4.9999999999999902] [0:19.473581144311094] [-2.7036255253180128:2.8460361625878039] [0:1] [-21.423197322133404:6.5942259672297476] [0:1] [-4.9911695620250223:14.077361907278032] [0:1] [-0.78156250042117026:0.67750386297212328] [-0.7948953899112301:0.99888982002993332] [-0.82866030687936343:1.7768160405834288] [-0.82856136397823288:0.9110817975335006] [-2.474184000958128:5.1558305568169702] [-0.415809782406586:0.91243765261005283] [0.0032258064516129032:1] [0.0032258064516129032:1] [0.0032258064516129032:1] [0.0032258064516129032:1] [0.0032258064516129032:1] [0.0032258064516129032:1] [-0.48771527612805499:3.2075937042057099] none [-1.0537498639247211:3.3171076403365296] [-0.7098726138663134:0.35109812835604082] [0.014198639377741332:3.0997123206071548] [-0.41569043052990501:1.8262800709601053]
tree_sizes=6749 6694 6745 6715 6693 6721 6709 6720 6717 6723 6703 6717 6707 6730 6701 6728 6740 6735 6727 6738 6721 6718 6686 6718 6745 6738 6704 6729 6768 6744 6731 6734 6719 6736 6741 6757 6773 6732 6751 6769 6745 6758 6712 6785 6720 6709 6713 6718 6712 6747 6707 6751 6680 6731 6700 6707 6772 6751 6762 6704 6752 6775 6719 6714 6731 6726 6713 6771 6755 6709 6786 6796 6731 6736 6767 6737 6732 6775 6759 6760 6703 6775 6777 6694 6773 6703 6760 6758 6713 6729 6733 6771 6731 6695 6745 6755 6731 6752 6702 6719 6731 6725 6747 6782 6740 6698 6682 6729 6771 6759 6718 6765 6741 6719 6726 6750 6728 6772 6769 6784 6720 6762 6805 6729 6802 6798 6784 6774 6747 6763 6767 6753 6799 6753 6778 6762 6781 6763 6794 6718 6747 6753 6763 6790 6755 6733 6749 6733 6725 6724 6733 6733 6734 6761 6746 6767 6738 6739 6723 6707 6745 6790 6789 6751 6713 6719 6734 6691 6733 6713 6760 6757 6689 6780 6801 6756 6725 6741 6734 6714 6704 6729 6742 6779 6776 6753 6735 6717 6765 6769 6760 6746 6774 6742 6729 6704 6762 6687 6764 6768 6751 6773 6747 6770 6724 6763 6715 6751 6741 6740 6734 6731 6764 6736 6737 6731 6750 6766 6712 6812 6800 6773 6737 6741 6719 6726 6737 6730 6721 6808 6738 6746 6816 6736 6758 6768 6765 6767 6717 6755 6787 6762 6814 6718 6776 6757 6682 6711 6737 6710 6735 6738 6790 6777 6814 6732 6734 6773 6699 6731 6706 6712 6806 6782 6806 6754 6755 6807 6739 6731 6762 6750 6780 6732 6735 6758 6757 6788 6754 6793 6781 6808 6797 6793 6814 6742 6790 6750 6729 6793 6758 6780 6776 6761 6729 6791 6770 6788 6747 6744 6811 6753 6750 6792 6788 6738 6778 6814 6776 6751 6757 6824 6781 6738 6747 6743 6751 6803 6761 6811 6808 6774 6810 6789 6766 6742 6784 6784 6776 6781 6805 6779 6788 6816 6722 6828 6747 6762 6770 6740 6742 6782 6777 6733 6770 6766 6786 6795 6741 6794 6756 6756 6734 6742 6731 6811 6807 6750 6815 6771 6729 6740 6749 6769 6810 6736 6793 6733 6804 6795 6767 6753 6873 6740 6753 6729 6781 6767 6823 6777 6739 6735 6743 6748 6745 6802 6814 6765 6794 6811 6817 6799 6788 6774 6763 6841 6813 6756 6773 6755

Tree=0
num_leaves=60
num_cat=0
split_feature=31 31 57 27 31 31 22 21 34 30 19 48 55 48 57 45 19 15 50 58 46 7 31 51 9 48 7 57 34 27 31 15 60 21 26 51 34 47 31 35 34 12 38 19 14 57 9 30 3 58 3 34 55 19 55 48 48 48 26
split_gain=89.2708 17.9873 14.6216 10.8778 9.36068 6.52716 6.09414 5.70999 5.11527 4.7938 4.40851 4.22944 3.95159 3.62865 3.20976 3.19168 4.23289 3.86308 3.07717 3.15792 2.93591 2.95756 2.92326 3.54993 2.8131 3.87473 2.75426 2.67057 2.99727 2.62064 2.97042 4.01184 2.73824 2.76589 2.60787 3.34638 2.59275 2.55509 2.56067 2.5528 2.5415 2.94085 2.98177 2.53137 2.97974 2.5243 2.51281 2.43357 2.41412 2.57221 2.40986 2.39985 2.39825 2.3333 2.29877 2.26854 2.23776 2.43314 2.44643
threshold=0.016951352793470893 0.036686106602113293 -0.16258970113484258 13.601075823152742 0.00967466634590162 0.022797754769151971 0.035311235730640579 0.0025765931092482379 0.039325934790128254 0.02653858884095996 0.49540619590277929 0.67810045957775 -0.074175320666043029 0.58780792350012157 -0.29633652886487782 -0.11692279426208406 0.2288784497297128 -0.014025447183632687 0.14380177935165148 -0.0061556459384531905 0.10541413572267934 0.59710670283392131 0.011807329315911587 0.70327956989247331 69.126621971360635 0.43769000979392897 -0.24404562132745081 -0.13348440041410395 0.02611344824204077 12.937476084224409 0.021176843474925034 0.040082724677578681 -0.11659358090309063 0.0075161813296588014 0.0022063485509291273 0.40650449497620311 0.03213628061238278 0.9973133956330027 0.014055139428059795 1.3313435481173885 0.023393001178863834 -0.013388854278240546 0.47982092483254934 0.23700348178719996 -0.037862153739449948 -0.013343322017264179 28.610890651236584 0.015049230826065166 0.12008089892801523 -0.0031414295360474571 -0.025998064582572197 0.031160879829492644 -0.028169576870205767 0.43433839264647994 0.00044927701383123969 0.20734432564738842 0.64024945035574221 0.25043831345636353 0.016694314468925279
decision_type=2 2 2 2 2 2 2 2 2 2 2 2 2 2 2 2 2 2 2 2 2 2 2 2 2 2 2 2 2 2 2 2 2 2 2 2 2 2 2 2 2 2 2 2 2 2 2 2 2 2 2 2 2 2 2 2 2 2 2
left_child=4 2 9 40 56 6 -5 22 -7 11 43 29 48 14 -9 -16 17 18 19 -17 21 -11 -6 -24 25 34 50 28 -27 36 47 32 33 -32 -18 45 -2 -15 -39 -19 -4 -42 55 -8 -45 -36 -20 -31 49 -3 -10 -49 -13 -46 -41 -43 57 -1 -59
right_child=1 12 3 5 7 8 10 13 26 20 -12 52 -14 37 15 16 24 39 46 -21 -22 -23 23 -25 -26 27 -28 -29 -30 30 31 -33 -34 -35 35 -37 -38 38 -40 54 41 42 -44 44 53 -47 -48 51 -50 -51 -52 -53 -54 -55 -56 -57 -58 58 -60
leaf_value=0.014520508225679536 -0.0031629479650000136 -0.03601968391415674 -0.025902421388146749 -0.013453732225293134 0.010995883319756516 -0.026996213680084265 0.00013307165483334848 0.027206907868893928 0.019576795951477741 -0.013253441675022987 -0.010516724360567406 0.015874512551753619 -0.034251233317688194 0.016451999636881067 0.030890387433075008 0.019945623189521602 0.0051830304386569865 -0.016635990286934015 -0.013033297492177234 -0.016365921575280881 0.010203029603274469 0.016434629605156657 -0.0066405435607720864 0.011890116647612392 0.00025329905995362682 -0.0058182123168002576 -0.015331149237187936 0.026803316622040562 0.028529525561349044 0.020051972435512381 -0.0033253555104589805 0.01874949557035311 -0.010782900876234914 0.023070600116635368 0.035534241181201499 0.011108961335536887 0.039816293446765398 0.006527804956719045 -0.014480461065964994 0.031014751299142503 -0.0098998901774732563 -0.010474331713964873 0.0072426554021189863 0.046588909410736942 -0.002436632049302031 -0.001079159192589201 0.01931376929708245 -0.0036444878024573073 0.0204980667526161 0.0073635941987699512 -0.014568623013546866 0.011548239190555655 -0.035993697324806534 0.030032480054035828 -0.018134537520564698 0.041605964554110988 -0.002178654903659428 0.033676614944524959 -0.0029109836962830028
leaf_weight=56.515345823252574 7.4930896555306417 8.4192656907835079 4.2353747827000907 389.96803571417695 90.820716698421165 189.02713805879466 52.30769176868489 56.462350860470906 15.34359305968974 154.72035471280105 72.736746183945797 2.3833106078673145 119.07730828603962 27.513425225624815 30.581210712960456 10.069434818578882 157.29350655752933 44.659620176826138 8.1418304973631148 26.309488985745702 26.369529529998545 11.149445563438347 154.69496691058157 48.799477100954391 53.777460101468023 23.73614806990372 173.27199823869159 130.87890235125087 12.100595620053353 50.863482854736503 47.557753545697778 28.174368670792319 112.72474905388663 18.351507135550492 40.209166091517545 160.32817469281144 12.004222279880194 40.422226539056282 41.454620036820415 6.6486364202573878 15.72359133948339 2.4001994628924903 39.973706753924489 8.8793479804880899 22.23311459494289 8.2883087238878925 70.19693226570962 69.457463736005593 6.446008439990691 7.729327005217784 10.616095675970426 83.779571515100542 12.001934039930346 9.8737433034111728 3.1405445381533355 19.101378078514244 10.703773900051599 106.30990758119151 6.8565312209539107
leaf_count=5608 876 1116 539 43544 9146 22541 5310 5226 1514 17565 7567 214 15076 2771 2732 941 16205 5231 832 3079 2497 1124 17276 5220 5795 2529 19284 12180 1136 4922 5292 2684 12918 1881 3482 16289 1001 4544 4616 510 1729 267 3890 666 2367 948 6736 7698 624 742 1231 8510 1716 781 357 1564 1208 9981 767
internal_value=-2.92363e-10 -0.00907522 -0.00725063 -0.0117803 0.0114708 -0.0136392 -0.00928466 0.00953186 -0.0197513 6.46034e-05 0.000575144 0.00356731 -0.0298712 0.0118379 0.0131999 0.0120905 0.0112058 0.00258446 0.00891634 -0.00553289 -0.00796722 -0.010991 0.00202516 -0.00208421 0.0136652 0.0150094 -0.012567 0.0227848 0.00713679 0.0047398 0.00358937 -0.001598 -0.00507424 0.00473541 0.0113061 0.0157738 0.0251424 0.001269 -0.00425 -0.0105162 0.009482 0.0123549 0.0182504 0.00928347 0.0201253 0.0295902 0.0155811 0.00879044 -0.00543169 -0.0174264 0.00554822 0.00472661 -0.0261016 0.00932556 0.0146744 0.0352012 0.0244791 0.0261697 0.0314412
internal_weight=3231.31 1804.39 1662.72 1025.69 1426.91 944.258 555.999 1246.53 388.259 637.031 166.031 444.791 141.672 952.213 842.822 786.36 755.779 169.166 114.718 36.3789 192.239 165.87 294.315 203.494 586.612 532.835 199.232 166.716 35.8367 430.406 410.909 206.808 178.634 65.9093 366.119 208.826 19.4973 109.39 81.8768 54.4488 81.4343 77.1989 61.4753 93.2939 40.9862 48.4975 78.3388 204.101 22.5946 16.1486 25.9597 153.237 14.3852 32.1069 9.78918 21.5016 180.386 169.682 113.166
internal_count=344595 199250 181692 112794 145345 104805 60235 127781 44570 68898 16691 47712 17558 96139 84208 78982 76250 17686 11588 4020 21186 18689 31642 22496 58564 52769 22029 15845 3665 45782 43905 22775 20091 7173 36924 20719 1877 11931 9160 6098 7989 7450 5721 9124 3814 4430 7568 21130 2482 1858 2745 16208 1930 3148 867 1831 17564 16356 10748
is_linear=0
shrinkage=0.0614439


Tree=1
num_leaves=60
num_cat=0
split_feature=31 31 27 34 47 31 34 31 59 59 59 25 34 32 18 30 47 31 53 28 9 34 47 58 0 31 34 59 25 30 59 6 34 44 53 34 47 5 35 27 6 47 47 38 25 58 34 58 42 54 39 44 25 32 58 32 58 27 27
split_gain=212.707 46.6416 37.1671 31.5575 17.9362 15.9585 23.0886 14.9116 18.2398 13.8994 13.6887 25.1267 13.1261 14.6899 13.1606 12.7273 12.639 12.4902 11.8785 11.7167 11.1032 10.8316 10.6652 11.778 10.5856 10.5357 10.5006 10.0857 9.96277 9.76918 17.1966 12.641 9.51555 9.50058 9.49875 9.22033 10.2595 8.27787 8.14373 8.05137 10.7356 12.826 9.97736 8.31555 7.90036 7.77525 7.50499 7.49578 7.46621 7.19132 8.45967 7.06018 6.98756 6.92949 6.82201 6.80853 6.7017 6.67877 6.64044
threshold=0.018069382583022573 0.010171523668586964 12.79601165602883 0.031593259102682396 0.88662932987339504 0.024241941090968149 0.035976258861595771 0.015731108327347355 0.099729018594097232 0.14465047919366281 0.08988937738879009 -0.010991972349056965 0.032700370532515642 0.48166857687588704 0.10780379845741929 0.01412763301868426 0.82843828939073927 0.0082485831701614217 0.58901892982222825 -0.00057481421429360303 45.849767145591379 0.015025736328033877 0.23410002365667412 -0.012841534771672046 -0.0080847203048058352 0.028148548161930461 0.046938867826961654 0.11660773004557663 -0.015493985886308846 0.018431987226392527 0.2525456259719257 0.014771720099131637 0.023186752780415733 0.0087919394264982537 0.24202037351443126 0.025529938882596186 0.8578192001028605 0.0598732696576263 1.2293758799199666 12.65297575334314 -0.020672421485732558 0.91027910406656409 1.0020847347433832 0.47303967912037392 -0.017682100418804022 -0.0032410811458019047 0.034735359731418704 0.012904740089204838 0.35000000000000003 0.35274526754444302 -0.013225023602004274 -0.042571581913005689 -0.059934814757765513 1.6124486083662477 -0.0036891695294717915 1.1610978390277154 -0.029777899871736398 29.49611419002796 11.759041743363953
decision_type=2 2 2 2 2 2 2 2 2 2 2 2 2 2 2 2 2 2 2 2 2 2 2 2 2 2 2 2 2 2 2 2 2 2 2 2 2 2 2 2 2 2 2 2 2 2 2 2 2 2 2 2 2 2 2 2 2 2 2
left_child=1 10 4 7 9 6 56 8 15 35 17 33 49 24 29 48 18 -1 -5 -19 52 -21 -11 -24 -14 47 -7 37 34 31 -31 -15 -22 -12 51 -2 -37 53 -8 40 42 -42 -9 -43 -44 -27 -26 -25 -3 -6 -51 -18 -10 -13 -20 -50 -4 -29 -32
right_child=2 3 5 16 12 26 38 39 20 22 11 27 13 14 -16 -17 28 19 54 21 32 -23 23 25 46 45 -28 57 -30 30 58 -33 -34 -35 -36 36 -38 -39 -40 -41 41 43 44 -45 -46 -47 -48 -49 55 50 -52 -53 -54 -55 -56 -57 -58 -59 -60
leaf_value=0.022586333023566052 0.042214642664540905 -0.022277619605142355 0.019194079702214446 0.035040969112089135 -0.043714922605595841 -0.031496301183713042 -0.0076992297637797002 -0.019707766690883855 -0.031734799088053191 -0.041016082020362513 0.0015094577008044471 0.045303026509840132 -0.034149091358015173 0.038025594398855611 0.039471671577004423 -0.024267790136536498 0.020204828099188187 -0.010392147073383536 -0.03162192861484401 0.035692980719000032 0.0044908355396706999 0.0035738618090950902 -0.028128363812933314 0.062548355672511893 -0.0047506813245769596 0.043236540766430152 -0.016052386460903362 0.0014477485508501123 -0.0086190037362581205 -0.034590354636528778 0.060956716298627547 -0.028080047575924704 0.01726604071199659 0.038066068590742907 0.048655435248751974 -0.038580976839314836 0.036274677112196008 0.0084506681740385038 0.011620364825110625 -0.0089324613465955917 0.030216640207753654 -0.059912074470444408 -0.024535615104925232 0.012075440958154269 0.069566629575287947 -0.046818173066377658 0.057935218322450646 -0.0068025071696241396 -0.0016038219473023263 0.037742902629318981 -0.02172934269358047 -0.025879642047670706 0.0018560737038055366 -0.019572568662977574 0.014432827237237267 0.020518591465446104 -0.021594319283559132 0.049624557292613065 -0.018964725059518704
leaf_weight=248.62009138963185 7.7838807848747811 46.800512630841695 13.270121968816964 203.07271811994724 41.933172748889774 462.86668037925847 283.51960036950186 6.6232981915818554 21.692809906322509 4.0906042410060754 156.12327446835116 260.35101845976897 5.3983731926418832 23.432478570146486 17.053163137985393 107.31020911247469 33.335082284640521 123.55264162947424 12.026462467387317 55.582035910570994 380.23249171138741 124.56809379765764 6.5973732119891784 57.283885349519551 8.744246773188932 3.1515040430240333 276.85000136797316 49.381537864217535 84.638124388176948 81.699903499335051 8.5014416452031565 15.677913124673067 529.10828469519038 29.361422546906397 27.018524458399042 26.764617390464991 6.3100322496611616 29.218513057567179 112.54406648606528 555.19206141040195 16.303608637535945 14.472957235760989 2.349729428766298 7.8588177207857361 19.702559314202517 5.6713203499093634 28.682307015871629 5.8784676725044838 231.54940159909893 8.8120075461920333 34.891456423792988 16.083605298539624 400.94905631861184 4.7359428410418323 59.230587041238323 64.664979878580198 684.98896279663313 10.877981084398924 4.1189891612157217
leaf_count=4665 182 2731 763 5834 835 52110 20128 380 672 57 3331 4558 136 198 310 5679 1163 3110 624 1083 22171 2990 120 594 76 24 29789 1257 3983 1392 69 133 21355 518 717 548 62 1070 5964 33832 474 271 74 525 298 98 269 81 12121 58 1345 754 24906 122 2673 2888 62117 240 68
internal_value=1.61969e-10 0.00860233 -0.0151168 0.00444255 0.00178107 -0.0188218 -0.0140394 0.00167604 0.00453447 0.0209775 0.0193744 0.026333 -0.00685825 0.00209079 -0.00706071 -0.00612551 0.0196017 0.0124607 0.0275585 0.00402597 0.00814436 0.013923 0.0350527 0.0404288 0.0325428 0.0476203 -0.025808 0.0358593 0.00578386 -0.0137745 -0.0242481 0.0114094 0.0119579 0.00783067 0.0214443 -0.00796904 -0.0224025 0.040533 -0.00216148 -0.00648979 0.0131606 -0.00801256 0.039673 -0.0362053 0.05774 -0.011757 0.0440515 0.0560775 -0.000282071 -0.0264219 -0.00802049 0.00455963 -8.81535e-05 0.0439296 0.0056586 0.00338928 -0.0207371 0.0121611 0.0362846
internal_weight=6169.11 3932.59 2236.52 2840.22 402.477 1834.04 1094.32 2404.81 1782.31 123.532 1092.37 540.05 278.945 193.309 150.484 450.325 435.405 552.323 274.33 303.703 1331.98 180.15 82.6732 78.5826 42.8249 71.9852 739.717 354.565 161.075 133.431 94.3203 39.1104 909.341 185.485 76.4372 40.8585 33.0746 294.305 396.064 622.503 67.311 38.6354 28.6756 22.3318 22.0523 8.82282 37.4266 63.1624 343.015 85.6366 43.7035 49.4187 422.642 265.087 71.257 296.214 698.259 60.2595 12.6204
internal_count=344595 167069 177526 144125 6655 170871 88972 128377 92523 1766 22944 11096 4889 2651 2170 23419 15748 11848 9131 7183 69104 4073 974 917 481 797 81899 7247 6617 1860 1529 331 43526 3849 2634 792 610 5750 26092 35854 2022 1270 752 796 372 122 345 675 17740 2238 1403 1917 25578 4680 3297 15009 62880 1497 137
is_linear=0
shrinkage=0.0614439


Tree=2
num_leaves=60
num_cat=0
split_feature=30 30 18 21 47 25 25 34 25 47 30 34 47 58 7 36 34 34 6 45 58 58 45 25 54 60 39 34 21 28 25 28 47 7 54 46 19 22 30 57 11 29 34 58 53 7 4 43 53 30 34 26 30 34 39 58 53 22 7
split_gain=178.159 81.0238 32.8928 25.0867 24.147 17.8655 26.6605 16.025 18.1232 14.1156 13.9997 14.0125 12.7541 15.0842 11.9829 10.8916 10.5308 10.2133 16.1914 12.3246 9.76454 9.43774 9.40855 9.86707 11.2179 9.0894 8.74244 8.73132 8.51431 9.79171 8.22952 10.6682 8.19789 8.17408 8.10255 8.47787 8.06846 8.01248 7.98196 7.87537 7.97295 7.73179 7.51387 7.25889 7.24498 7.10808 6.96475 8.11026 6.96401 6.8391 6.83283 6.80135 6.40699 6.76869 6.3411 6.06952 8.4206 6.05958 6.04554
threshold=0.021947895901385774 0.011488964953516508 0.092689975229326108 0.0026283532017022386 1.3197297023470018 -0.011774749768154012 0.007118947552760547 0.031593259102682396 -0.013814677506766957 0.38211586117257978 0.032165987310055245 0.033811082603027121 1.1154147434349762 -0.0031414295360474571 0.0656280915691171 0.54981352129222549 0.032821256767644337 0.01829825444392523 -0.012266058196843342 0.030710574238066338 -0.026173551117985191 -0.0066032624299516831 0.0051625190807703678 0.030228176040144387 0.83843590544621482 0.022047627304951044 0.026258878120076136 0.041152835061267073 0.011246122849865715 -0.0029970914922529666 -0.029658243658871482 -0.0032761707177350699 1.0447952866647077 0.13615559203006203 0.82038075913105757 -0.040759536470758688 0.2288784497297128 0.012272445164126145 0.005865756514365471 -0.095563961983324772 1.6101679875718002 0.0058183184568455625 0.01708919911555604 -0.018029416408275375 0.53675438596491232 -0.155283457611915 -0.018617419665539644 -0.00064050446358632207 0.43044214406652526 0.015335754631786798 0.015379464595227708 -0.020393893505985857 0.013253983373080125 0.02288990899274462 0.018018219416414807 0.00093036483118080781 0.084718158228896376 0.019185638427039606 -0.1289581040131246
decision_type=2 2 2 2 2 2 2 2 2 2 2 2 2 2 2 2 2 2 2 2 2 2 2 2 2 2 2 2 2 2 2 2 2 2 2 2 2 2 2 2 2 2 2 2 2 2 2 2 2 2 2 2 2 2 2 2 2 2 2
left_child=1 4 3 42 5 16 9 8 -5 14 11 -2 15 57 37 49 30 41 19 38 51 -8 44 24 25 46 28 -4 -13 -30 -1 -32 55 -22 35 -35 45 -7 -19 -40 -41 48 -3 -28 -23 -10 -24 -48 -11 -9 -50 -17 -38 -54 -29 56 -33 -14 -58
right_child=10 2 27 7 -6 6 21 12 36 17 -12 26 13 -15 -16 20 -18 18 -20 -21 33 22 23 -25 -26 -27 43 54 29 -31 31 32 -34 34 -36 -37 52 -39 39 40 -42 -43 -44 -45 -46 -47 47 -49 50 -51 -52 -53 53 -55 -56 -57 58 -59 -60
leaf_value=-0.01240135641773296 -0.034767610447262821 0.022604443266614122 -0.018517763145367981 -0.012674979643955394 -0.016219656718088483 -0.035076152392802463 -0.022623170596381796 0.016810134368197598 0.030995034438055766 0.032569355432056663 -0.037490867094320646 -0.014675278067943219 0.047424783426647965 -0.02360247914754408 0.034967540013518317 0.05612610684599293 0.037358024840056667 0.046935262938210966 0.033098811032683952 0.044283945802100405 0.011376971530944632 0.012483057557696804 -0.028505072974347401 -0.0080079713667228873 0.040964088940119728 0.048206763103357871 0.012385107692786107 -0.014121155548985293 -0.016435098106609643 0.025562055811861963 -0.020108191902538691 0.030888267174937041 -0.021159524309782893 -0.002590632601694056 -0.028843261702203249 0.044821279552997285 0.014387012832193126 0.0059342099161145681 0.020186051749244521 -0.03206022531601644 0.034868016896545839 0.041941308452971983 -0.017871795040449355 -0.034323428479540334 0.032745911973370727 -0.018273295062216626 0.022289427735935952 -0.0029567646960568881 0.019953042137013342 -0.0085223020303018451 -0.031456426982295713 -0.01946974644183859 -0.012836386675941416 0.0053108386602765496 0.032596928762725574 0.02879691055893005 0.029128921872754381 0.0050065282939336618 -0.0088399624925643867
leaf_weight=109.59655028488487 178.55682352709118 15.832911075791342 461.51127730554435 351.28536278801039 91.624114668229595 20.970086107263342 28.597950744908303 58.695217736065388 9.7135889464989287 60.398933224612847 234.75093725428451 327.29372856253758 12.697303288849069 81.30135741783306 39.337035959586501 33.067055365070701 30.85501418588683 5.6789454151876262 147.81376614049077 17.033414003904909 373.66989873722196 186.86297507816926 20.300996255595237 131.99719201237895 40.395004115533084 15.365856478922067 12.59353217622265 18.046471985988319 34.239628925221041 45.118859412381425 42.884303333004937 38.538680603029206 22.446351842721924 17.103567753685638 5.5989769217558196 73.115313323913142 231.79994016641285 68.418063593097031 16.305075854761526 55.154983142158017 5.0094614061526945 291.68408152833581 280.41170906869229 106.93228446540888 106.88034808356315 88.077397989109159 75.655848516849801 121.52639141818509 20.118268899619579 112.12135910813231 13.714940103935076 3.5738193963188669 90.542634886223823 450.76596562354825 20.376664923271164 82.03483838471584 16.264921872178093 69.761201722314581 83.440045209834352
leaf_count=6533 21540 652 39285 24740 5937 598 1346 1970 513 881 32464 31220 513 6936 1059 573 683 89 4360 309 11008 5269 1048 8107 904 393 1025 1655 3273 2798 2634 1075 1350 844 262 1857 9502 2048 613 2351 110 4345 24307 12182 2364 7103 2156 4026 291 5410 295 174 6813 22707 1312 2556 624 4291 3312
internal_value=1.30958e-10 0.00473339 -0.00191048 0.00112974 0.0141866 0.0156652 0.018835 0.00353702 -0.000957098 0.0268588 -0.0244506 -0.0199606 0.0100498 -0.00525793 0.00807118 0.01376 0.00452949 0.0306216 0.0204258 0.00110497 0.0182635 0.0103567 0.0118007 0.0056606 0.0122794 0.0068269 -0.0147604 -0.0161749 -0.0103224 0.00750596 0.00169367 0.00717797 0.012193 0.0156575 0.0314646 0.036047 0.00379782 -0.00454593 -0.00914206 -0.0149847 -0.025042 0.0369308 -0.0154953 -0.0292121 0.0201227 -0.0125717 0.00326226 0.0069263 0.0205736 0.000327839 -0.00178389 0.0478028 0.00591066 0.0022192 0.0112424 0.0158399 0.00768488 0.0130304 -0.00194955
internal_weight=5805.46 4865.97 2859.07 2359.13 2006.9 1915.28 1489.22 2062.89 1222.18 761.637 939.486 704.735 840.705 163.76 128.725 676.945 426.061 632.912 246.996 99.1819 506.129 727.583 698.985 405.241 273.244 232.849 526.178 499.934 406.652 79.3585 395.206 285.609 242.725 469.488 95.8179 90.2189 870.9 89.3881 82.1485 76.4695 60.1644 385.916 296.245 119.526 293.743 97.791 217.483 197.182 94.2321 170.817 33.8332 36.6409 773.109 541.309 38.4231 220.278 138.244 82.4585 99.705
internal_count=344595 240093 172427 130175 67666 61729 42962 105216 71378 17349 104502 72038 33838 11740 3705 22098 18767 13644 7832 3472 14718 25613 24267 16634 8527 7623 50498 42252 37291 6071 18084 11551 8917 13971 2963 2701 46638 2646 3163 3074 2461 5812 24959 13207 7633 7616 7230 6182 1467 7380 586 747 39022 29520 2967 7567 5011 4804 3936
is_linear=0
shrinkage=0.0614439


Tree=3
num_leaves=60
num_cat=0
split_feature=18 34 27 47 27 58 27 48 34 34 29 34 34 48 60 48 58 25 57 21 57 41 26 18 47 39 11 41 53 45 57 36 48 55 55 35 47 34 55 25 53 27 57 57 60 60 60 25 58 11 60 60 47 57 28 29 58 25 25
split_gain=170.206 90.9287 65.4355 61.2407 48.4218 23.2664 28.9158 22.6347 21.8507 20.6758 20.1047 19.293 17.0645 15.7999 18.0731 15.2133 16.4482 14.7437 14.5325 14.3616 14.0022 14.6303 12.1025 11.9386 11.8852 13.4409 11.332 11.0512 10.9228 10.887 10.853 10.6256 10.4587 10.2183 12.061 9.23944 9.0434 9.18653 9.4271 8.90483 8.61302 8.52595 8.3803 8.33292 8.1024 8.08175 16.0501 11.4356 8.33838 8.29306 8.07898 8.03329 8.02159 7.54752 7.52888 7.52168 7.23765 7.14131 13.1565
threshold=0.079490758836503264 0.016217085793115871 12.485535580879567 0.9009492465905603 12.79601165602883 -0.026173551117985191 15.958540268430449 0.62682237976102539 0.020382353525348181 0.019480527277459199 0.01242699402553769 0.035417854495116814 0.026305353382081811 0.42595914057589596 -0.068981881378228901 0.42027623290761956 -0.005066608811007677 0.023183933621546363 0.13579715708329645 0.0044593351986611301 0.16906851127846437 -0.85281319035248315 0.0026070356946084022 0.092689975229326108 0.41488681896643359 0.019704486176444869 1.2072137850292513 -0.98167321688421938 0.84474389019082696 -0.053519119775456196 -0.027005726007624294 0.70810135705880572 0.5910855845471662 0.013731274312948185 0.010543035460465868 0.53873811432058716 0.44500041182570776 0.03213628061238278 -0.0064361712159098907 -0.092261432759105741 0.64500116730219792 9.2010470734301943 -0.061357581369333884 0.15107491495813721 -0.026851821753936887 0.0031491222233180909 -0.0038001118070910924 0.0048335955915329585 0.012416584794565201 -0.092811236180740095 -0.027333739146812083 0.060491171715513686 0.68377915907857878 -0.13531179124735468 -0.0060976229938587935 0.0046542664236372041 0.0057768519415969397 0.01020057021021137 -0.010991972349056965
decision_type=2 2 2 2 2 2 2 2 2 2 2 2 2 2 2 2 2 2 2 2 2 2 2 2 2 2 2 2 2 2 2 2 2 2 2 2 2 2 2 2 2 2 2 2 2 2 2 2 2 2 2 2 2 2 2 2 2 2 2
left_child=1 7 11 5 12 20 15 24 -6 -4 31 -2 -5 14 -12 19 -17 18 -15 30 21 39 -14 26 25 42 -11 -26 -25 -29 56 35 44 34 45 -8 37 -16 -39 -3 43 -21 -1 -10 -18 46 48 -48 -31 -47 -36 -45 -51 -13 -43 -32 -7 58 -33
right_child=2 3 9 4 8 6 10 -9 40 23 13 53 22 17 36 16 32 -19 -20 41 -22 -23 -24 28 27 -27 -28 29 -30 33 55 57 -34 -35 50 -37 -38 38 -40 -41 -42 54 -44 51 -46 49 47 -49 -50 52 -52 -53 -54 -55 -56 -57 -58 -59 -60
leaf_value=0.02177147079776464 -0.004735953533287921 -0.0241048968136507 0.0041674021347866729 -0.0030126457893868462 0.0061852098843187594 0.01836822448588192 0.015834232228718451 -0.016248861849707464 -0.02201545353950762 -0.026998022030637715 0.0087026118130008236 0.075150487992904524 0.042049817101859864 -0.0062183340805991088 -0.016601547006255286 -0.033507810004712216 0.017900707457260193 0.047813312762145066 0.053370518663743885 0.070513130506148741 -0.014165439758647872 -0.0098499300487652399 -0.01016748387864579 -0.038247315504300022 0.002016313736984094 0.037322588311224952 0.0010512788411284571 0.0691653426307174 -0.022849041908060603 0.027265624101446954 0.028949029951015233 0.0056711107477871638 -0.01106426674037897 0.059417200683422065 0.03890626807537291 -0.0052056877526766255 -0.021102840820787512 -0.016870314875085338 0.023199457630743412 0.063435396697218052 -0.0047640113633638601 -0.024828861460484273 -0.020427403912696072 0.023751051511730389 0.052813156036994727 0.065804768226641386 -0.040180021348858917 0.031317960972375748 0.076161890989685857 0.051270617355001179 -0.049024023997549973 -0.016078424827992682 0.0018987908338608354 0.016537729967093122 0.0226014015876649 -0.020966780460057736 -0.012146650874844313 0.002830788142321385 0.028692425572595333
leaf_weight=24.807130791712552 29.02723991451785 3.1347054513171306 82.182057651923969 78.614843326620758 175.12233803910203 123.21679354005028 105.67520260834135 41.804166589863598 719.17983767320402 121.78878466156311 164.25901078921743 29.409671485191211 98.782410817453638 103.26310032512993 102.59910758584738 10.533858327311462 38.909318812889978 32.205967135494575 14.961418982362373 10.882644218392668 15.566100934287531 13.331156991422175 18.771805457072333 413.97446096804924 39.029702564468607 42.066173543455079 95.899626412894577 34.590896090259776 335.56957248446997 227.83113686088473 10.36532379942946 171.31603167159483 13.302056490443645 49.02807594765909 2.993782768957316 282.67902826541103 309.58978487900458 30.978930047014728 61.679329894250259 62.901494436664507 172.60738495690748 10.989022693829609 46.072181442053989 28.541518205776811 100.14877393236384 44.889040707144886 20.243701322004203 10.424013591837136 12.214758352376519 21.701311177108437 9.8244635800365341 45.127910210983828 25.37240834068507 14.007196014514191 193.46642880793661 82.786238858709112 35.827783846529201 157.02305245981552 208.9480355050182
leaf_count=578 1318 177 5099 4036 9046 4639 4011 1380 69902 12133 8942 360 3229 4816 6818 372 991 976 433 128 481 832 1070 55879 938 752 5983 412 38325 3420 321 8075 319 550 50 14035 21020 1777 2116 842 13800 520 1318 1601 1825 407 349 163 88 191 188 4327 402 334 5982 4231 1549 5837 4902
internal_value=-1.58977e-10 0.00538358 -0.0213591 0.00174169 -0.00883967 0.00747093 0.00625121 0.0265116 -0.0136926 -0.0252765 0.00216532 0.0340872 0.019149 -0.004834 -0.00888023 0.0174955 0.0335338 0.012978 0.0025021 0.0117222 0.0368221 0.0469798 0.0336641 -0.0277836 0.0295045 0.0111117 -0.0148012 0.0335795 -0.0314769 0.036231 0.0017106 0.00835774 0.0387488 0.033062 0.0291591 0.000600133 -0.0146194 -0.00416917 0.00968946 0.0583791 -0.0173065 0.0232553 -0.00536268 -0.0200077 0.0436522 0.0312655 0.0253824 -0.0152294 0.0306999 0.0471814 -0.0248888 -0.00030907 0.0264332 0.0586193 0.019717 -0.0146536 0.0113926 0.0139291 0.0184516
internal_weight=5582.04 4460.18 1121.86 3807.29 1336.75 2470.54 2375.61 652.893 1140.58 1049.41 1745.18 72.4441 196.169 819.537 669.106 630.428 162.894 150.43 118.225 467.534 94.9335 79.3674 117.554 967.232 611.089 112.945 217.688 498.143 749.544 459.114 252.196 925.641 152.36 424.523 375.495 388.354 504.847 195.257 92.6583 66.0362 965.457 215.338 70.8793 792.849 139.058 362.676 270.714 30.6677 240.046 91.9628 12.8182 73.6694 47.0737 43.4169 204.455 93.1516 159.045 537.287 380.264
internal_count=344595 225164 119431 213978 107011 106967 104635 11186 98676 117419 83758 2012 8335 46898 40673 20877 3507 6225 5249 17370 2332 1851 4299 112320 9806 2648 18116 7158 94204 6220 10740 36860 3135 5808 5258 18046 31731 10711 3893 1019 89630 6630 1896 75830 2816 5020 4020 512 3508 1000 238 5928 593 694 6502 4552 6188 18814 12977
is_linear=0
shrinkage=0.0614439


Tree=4
num_leaves=60
num_cat=0
split_feature=31 31 27 34 59 27 58 31 31 48 55 26 31 34 48 34 45 59 47 48 48 28 49 34 47 48 48 7 31 27 34 31 31 31 59 47 27 7 60 51 21 51 18 51 7 26 31 60 58 51 58 47 45 27 48 55 33 58 55
split_gain=367.806 146.41 152.484 76.9717 34.4049 33.0499 26.3254 25.6757 22.4653 22.2647 17.7706 16.5329 15.296 20.935 13.2349 13.1647 13.0367 12.927 12.2097 12.1356 14.6171 12.072 11.9468 11.0673 11.7747 10.4997 10.2631 12.5397 10.247 17.1528 10.0132 9.63166 9.52666 9.28704 9.40389 9.00206 8.69663 10.0189 12.3707 11.8062 8.61679 8.59181 8.15806 8.0248 7.79847 7.75372 9.29042 7.22973 7.1652 8.35839 7.20936 7.13988 7.10266 10.5049 9.80628 7.03524 8.29636 6.97552 11.701
threshold=0.010171523668586964 0.018217100910841093 12.79601165602883 0.031593259102682396 0.091488914506419841 15.773341894588208 -0.026173551117985191 0.0151176299323237 0.0076304603318452149 0.62682237976102539 -0.0057981357794763535 -0.00761188609935154 0.024241941090968149 0.036584545562589076 0.63087736098950165 0.023186752780415733 -0.045517434616386181 0.10985815998615873 0.45938023720382898 0.58780792350012157 0.41638271929803189 -0.00057481421429360303 0.15486043227978716 0.015697897301083553 0.84272022896533572 0.25043831345636353 0.44540266081214175 -0.031043304622860975 0.017231464779540896 12.79601165602883 0.035838847205225684 0.013125055417637907 0.017231464779540896 0.0084874797432767206 0.08988937738879009 0.932352763407302 19.675958533967613 -0.13165316260623536 -0.011559874000207025 0.24300665101721444 0.004354372666282148 0.31947123378782843 0.091830040327245968 0.59861550253904394 0.16791304850047231 -0.000403083082584437 0.025159732171842683 -0.028805304870731682 -0.0013130313651957823 0.29362734040153399 -0.0041487581061461212 0.8578192001028605 -0.11145079740418277 19.262899908780277 0.051682794296071234 -0.024004881671451091 0.026511336609683467 -0.0039102566393038321 -0.021214714016512478
decision_type=2 2 2 2 2 2 2 2 2 2 2 2 2 2 2 2 2 2 2 2 2 2 2 2 2 2 2 2 2 2 2 2 2 2 2 2 2 2 2 2 2 2 2 2 2 2 2 2 2 2 2 2 2 2 2 2 2 2 2
left_child=4 3 9 5 8 19 32 11 16 30 17 -7 13 -4 18 31 -1 22 -12 20 47 33 -6 -20 -25 -23 27 -18 44 -30 43 41 -5 -10 -35 36 -27 -38 -39 -40 -19 -13 -17 -3 52 -32 -47 51 50 -50 -37 -2 54 -54 -8 -46 -57 58 -24
right_child=1 2 12 6 10 7 28 -9 21 -11 14 15 -14 -15 -16 42 26 40 23 -21 -22 25 57 24 -26 35 -28 -29 29 -31 45 -33 -34 34 -36 48 37 38 39 -41 -42 -43 -44 -45 55 46 -48 -49 49 -51 -52 -53 53 -55 -56 56 -58 -59 -60
leaf_value=0.057765207506483542 0.018777640548548635 0.020995988414666919 -0.034144853388293629 0.062147347255172333 -0.026443274929874732 -0.019661615506512155 -0.035054700263606048 -0.024239851514824846 0.012575343882890624 -0.040401061286811958 0.025277595537342993 0.015571074055954971 -0.040536812903540061 -0.012556572798904037 -0.0100691096317273 0.011088805243392653 -0.0062403544999452875 -0.018454022879118695 0.067796368406637317 -0.021164191703904753 0.020163995912582118 -0.0082127997410398387 0.051973654118878436 0.052214780822239661 0.020396763701440578 0.039242739617660054 0.00048507062520644601 0.045947178541655538 0.047466608292440447 -0.012338056772002526 0.018225916904662329 -0.023466192217654367 0.00018151600259887535 -0.028184604743088423 0.026967977485198014 -0.025778058057927201 0.054208942161301246 0.023370250001643174 0.037111383893216533 -0.0441474602957692 0.026129692203717237 -0.0082547016542310423 -0.01858712035593833 -0.016334329714198539 -0.011371226380709103 0.070659945369405591 0.02381966399517536 -0.0084448854014275102 0.027214507091016756 -0.036642929794412075 0.051982807211090075 -0.022502632540483604 0.022243325806894251 -0.0018540852632521546 0.040369271428802131 0.048530601418576208 -0.015697859814513992 0.045821476026727037 -0.018824340464800832
leaf_weight=62.673509074840695 88.982516622869298 72.046844739001244 488.65405059850309 61.518154402263463 9.6989286867901665 241.51885857898742 4.9156347434036425 392.55135294038337 60.741377283353359 18.389128589536995 87.908485731808469 71.08936001395341 533.44741913396865 266.89534330845345 14.785554251866413 301.10901024693158 21.286795422201976 37.940408675232902 124.3336448892951 51.080248632584698 246.13915222103242 49.966157906455919 11.854224941693248 158.56379282847047 68.316657359944656 109.87647694465704 48.541148597374558 77.438348923344165 18.897487056674436 98.816818732302636 56.833936396986246 114.02870554383844 10.975612364709376 63.872253388166428 11.537844742648302 4.3628589895088217 14.691208469215779 42.8921593434643 6.3208463415503529 24.434182500932366 24.091317118378356 246.10046453750692 36.661026523914188 27.930485165445134 9.3729251050390285 36.80052572186105 34.579599720891565 164.78749701392371 8.41259768093005 22.753845983883366 10.85355922905728 16.345033726654947 128.81995122600347 140.6738891582936 55.708882915554568 65.156500224722549 7.0662451745010904 97.334257530514151 18.69805951975286
leaf_count=747 3154 2370 63241 446 210 20132 65 39886 1052 1027 1551 3133 81899 23126 555 13746 512 1216 921 3586 7935 1588 175 2006 1532 1143 795 1062 260 5109 1114 9555 220 2774 165 185 118 850 74 498 525 14707 4019 1075 317 386 529 9084 108 620 169 1299 2955 4613 935 1520 208 1290 503
internal_value=7.27833e-11 -0.00900126 -0.0239938 -3.30286e-05 0.028524 -0.00591098 0.0191397 -0.0109643 0.018264 0.0200787 0.0384474 -0.0057484 -0.0324529 -0.0266019 0.0452078 -0.00131678 0.0346144 0.0226152 0.047127 0.0065779 0.00943357 0.0101026 0.032917 0.0523249 0.043041 0.0170402 0.023767 0.0348484 0.0141968 -0.00175862 0.0254322 -0.00840537 0.0531606 -0.00495243 -0.0190094 0.0222374 0.0278605 0.0128465 0.00272604 -0.0255655 -0.00071652 -0.00281506 0.00772706 0.0103882 0.0187376 0.0366372 0.049918 -0.000463116 -0.00203412 -0.0184975 0.0290942 0.0119081 0.0142883 0.0097875 0.032836 0.0355483 0.0418563 0.0379419 0.0109175
internal_weight=5402.07 4107.89 1535.58 2572.32 1294.18 1970.39 601.922 1403.06 640.655 246.581 653.525 1010.51 1289 755.549 453.908 768.989 209.94 199.617 439.123 567.334 516.254 430.715 137.585 351.214 226.88 294.564 147.266 98.7251 529.428 117.714 228.191 431.219 72.4938 136.151 75.4101 244.598 198.215 88.3384 73.6472 30.755 62.0317 317.19 337.77 99.9773 411.714 128.214 71.3801 270.115 46.3829 31.1664 15.2164 105.328 330.118 269.494 60.6245 81.5957 72.2227 127.887 30.5523
internal_count=344595 321651 174767 146884 22944 130236 16648 105178 12460 6501 10484 65292 168266 86367 6565 45160 3116 3919 6010 25058 21472 9344 2178 4459 3538 5353 2369 1574 15982 5369 5474 27395 666 3991 2939 3765 2683 1540 1422 572 1741 17840 17765 3445 10613 2029 915 13537 1082 728 354 4453 8568 7568 1000 2045 1728 1968 678
is_linear=0
shrinkage=0.0614439


Tree=5
num_leaves=60
num_cat=0
split_feature=31 31 27 34 27 31 48 48 58 26 48 48 17 59 31 34 26 34 48 59 31 34 31 45 48 34 31 27 34 31 27 17 18 50 26 47 42 39 13 21 13 31 27 30 47 39 33 58 59 49 58 48 31 36 34 18 45 48 30
split_gain=368.391 125.007 137.823 72.8202 33.3749 23.4377 21.8119 14.0648 13.8913 13.5144 13.0101 12.0875 11.9196 12.2033 15.3265 14.4458 12.0292 11.4593 9.40558 11.0281 9.38002 14.305 9.22865 8.96382 10.0094 8.53384 16.2622 8.44046 12.1981 8.39987 13.1042 7.89614 7.78407 7.14943 7.30307 7.93683 7.14211 7.12314 9.38796 6.83711 10.6956 6.74089 7.06211 6.71717 6.70447 6.63237 6.64977 10.074 9.22496 6.55452 6.54132 8.07605 6.52349 6.44854 6.42234 6.31157 6.62374 10.9799 6.08016
threshold=0.010171523668586964 0.018069382583022573 12.79601165602883 0.031593259102682396 16.22848867693768 0.0151176299323237 0.23053722367757559 0.64024945035574221 -0.027807930789752074 -0.00761188609935154 0.62682237976102539 0.58780792350012157 -0.053973063094204292 0.088209471318341906 0.0072246489613534684 0.014658680978597885 0.0088018033293247016 0.023186752780415733 0.53651099951130876 0.092253304875948183 0.024241941090968149 0.033811082603027121 0.016404171840595536 -0.045517434616386181 0.38078630849532008 0.021206432424513231 0.0072246489613534684 25.394038918860847 0.037387367566877737 0.016471136806626884 14.927823826390094 -0.070192686200815077 0.0098231293647892421 0.87326355392629762 0.0020135926814879804 0.79948665439514011 0.65000000000000002 0.028674978568582272 0.029930627126530832 0.0044593351986611301 -0.023924623207450976 0.013125055417637907 26.63988237872114 0.013253983373080125 0.48613032556678931 -0.089447905234086453 0.011933163048977269 -0.0052177892737833012 0.11842939655766206 0.26226642210248774 -0.017330803054093954 0.52080547138533351 0.017231464779540896 0.64125000721747416 0.015379464595227708 0.069951501484565762 0.044511435925889638 0.42408762727616017 0.011488964953516508
decision_type=2 2 2 2 2 2 2 2 2 2 2 2 2 2 2 2 2 2 2 2 2 2 2 2 2 2 2 2 2 2 2 2 2 2 2 2 2 2 2 2 2 2 2 2 2 2 2 2 2 2 2 2 2 2 2 2 2 2 2
left_child=6 3 10 4 11 9 25 12 27 -6 37 18 -8 14 23 32 45 41 19 54 21 -4 49 -14 -25 26 -1 28 -5 33 39 -27 -16 34 -10 -36 58 38 -3 -31 -41 42 43 -11 -39 -15 48 -48 -47 -20 51 -23 -32 -21 -2 56 -19 -58 -33
right_child=1 2 20 8 5 -7 7 -9 29 17 -12 -13 13 16 15 -17 -18 55 22 53 -22 50 -24 24 -26 31 -28 -29 -30 30 52 36 -34 -35 35 -37 -38 44 -40 40 -42 -43 -44 -45 -46 46 47 -49 -50 -51 -52 -53 -54 -55 -56 -57 57 -59 -60
leaf_value=0.029341983978838162 0.026763423560846052 0.017315730912262337 -0.036528190139462374 0.037564085534256893 -0.022127351453648178 -0.027595724355053194 0.0096334572011376636 -0.013385564066691146 0.014668274580896382 0.0047374429629241524 -0.041176099464055135 -0.025968730847472213 0.070457942294483655 -0.0098849596965201441 -0.0078317924887934282 0.0069581658814410769 0.022333253564148621 0.0039186092562967416 -0.0091907194501540685 -0.0039048500882092416 -0.039079789796643997 -0.013137588415027719 -0.017579943548414512 0.049920079875769789 0.0019329387377871349 -0.027445953068093835 -0.0082665332172370751 0.054121894773329869 -0.053959185244284273 -0.00706337952706619 0.0052115805100906177 0.05151579138273521 0.040705501984301305 -0.022833276969953072 0.040993736078024728 -0.0058733386872575222 -0.020480549149569514 0.040032513680206445 0.0529080499622449 -0.02524702986887738 0.055903821845744009 -0.026699657877365814 -0.021618449861418889 -0.028315290588011799 -0.02609321172367924 0.052684833352358983 -0.030142875588652772 0.036144866607386937 0.0054418128506890815 0.044930300309277096 -0.021968801541705035 0.038955977152133933 -0.019984968102080058 0.012564018864365279 -0.026268547486452628 -0.0098822870580508159 -0.0035196013774161463 0.053363889161267428 -0.021386812656116059
leaf_weight=62.830156597774476 7.4751419227104625 196.71492536645383 347.3586053031031 11.738150556106122 195.50989376869984 310.21857975109015 80.602296311175451 23.924075345508754 230.71954764518887 158.40606298274361 11.237563047092406 42.140869966126047 36.01505995541811 7.1638884011190376 13.142165402881799 174.72361617139541 121.75092154880986 208.11289195902646 8.8754501515068096 127.41118989372626 498.67209129501134 35.292013279511593 12.442349603632463 37.020263225538656 28.197973015718162 5.5633646291680625 124.25894405157305 52.498341002734378 5.6176399677060536 13.015905904583631 91.724412713432685 44.521156020462513 100.52649801550433 12.087526160525156 91.347015578299761 15.097665842389686 5.1847395822405806 4.6926154554821577 31.136463349917904 5.5531430398114017 31.396335092373192 83.313966563320719 80.03459346643649 23.985732363304123 20.3170704562217 325.13886238122359 7.0888172497507176 105.13640082092024 17.184724584687501 51.294192826608196 311.12822187331039 12.767834924627094 62.896499910624698 291.05349837429821 57.082784479483962 88.970409190282226 22.150617356877774 26.120362816145644 3.0686452500522128
leaf_count=994 184 4397 51565 118 19735 37392 2166 1538 4578 8274 1047 3823 203 114 231 4033 1921 9449 322 6388 81899 2888 460 360 535 209 4024 358 76 344 2822 767 1081 482 1646 791 122 57 444 164 394 9303 6483 2490 710 2654 214 1259 377 1217 33817 702 3975 12379 2683 6492 871 432 142
internal_value=2.49715e-10 -0.00953258 -0.0236471 -0.000937359 -0.00722399 -0.0131346 0.0279669 0.0317312 0.0170975 -0.0079956 0.0164017 0.00461654 0.0327921 0.0346734 0.0258467 0.018281 0.0403986 -0.00391619 0.00706838 0.00388453 -0.0324427 -0.027607 0.0272142 0.0462078 0.0302086 0.0112478 0.00463791 0.0424371 0.0042293 0.0136815 0.00371494 0.031133 0.0350343 0.0194351 0.021146 0.0343684 0.0384966 0.0194316 0.0228291 0.0300767 0.0426906 -0.0117752 -0.00677874 -1.26853e-05 -0.0106194 0.0449803 0.0459066 0.031255 0.0503839 0.0368875 -0.018739 0.00223432 -0.00523057 0.00755791 -0.0191764 0.0039866 0.00886038 0.0286334 0.0457874
internal_weight=5210.65 3887.61 1469.32 2418.29 1794.6 1196.82 1323.04 1077.62 623.692 886.605 264.099 597.775 1053.69 973.089 389.626 288.392 583.464 691.095 555.635 483.023 1205.22 706.547 72.612 101.233 65.2182 245.427 187.089 69.8541 17.3558 553.838 204.586 58.3379 113.669 349.252 337.164 106.445 52.7745 252.861 227.851 49.9654 36.9495 345.74 262.426 182.392 25.0097 461.713 454.549 112.225 342.324 60.1696 359.188 48.0598 154.621 418.465 64.5579 345.354 256.384 48.271 47.5898
internal_count=344595 321651 177526 144125 128377 100921 22944 16686 15748 63529 6655 27456 15148 12982 6443 5345 6539 43794 23633 21634 170871 88972 1999 1098 895 6258 5018 552 194 15196 7699 1240 1312 7497 7015 2437 1031 5608 4841 902 558 26550 17247 10764 767 4618 4504 1473 3031 1539 37407 3590 6797 18767 2867 17244 10752 1303 909
is_linear=0
shrinkage=0.0614439


Tree=6
num_leaves=60
num_cat=0
split_feature=31 31 34 17 48 48 31 34 6 25 5 7 60 60 11 47 34 39 47 48 47 51 46 31 45 5 47 45 45 22 47 34 47 48 45 48 31 26 31 17 25 31 45 47 45 39 31 48 46 7 34 48 17 6 5 48 47 60 60
split_gain=313.997 106.475 57.0952 22.8935 17.6017 19.2599 15.4218 19.693 14.4787 14.3534 18.4947 12.6511 15.8273 12.1012 11.6941 11.5644 13.4445 13.0672 12.4811 12.9617 11.5907 11.34 9.3752 8.9147 8.75475 8.70428 8.32602 8.1167 8.19785 7.83862 7.53772 9.79803 8.65996 8.27556 7.21837 7.07126 6.93316 7.75655 6.85962 6.69389 6.58774 6.57508 7.36163 6.55507 6.42143 6.41051 6.29307 7.21339 6.14743 6.5399 5.94291 5.79798 5.7348 10.5101 9.99738 6.03854 5.82648 8.27082 11.2958
threshold=0.010171523668586964 0.018069382583022573 0.031593259102682396 -0.050645406170985389 0.62293170329355563 0.42027623290761956 0.028148548161930461 0.035838847205225684 0.082129017740280488 0.007118947552760547 -0.033064975445892424 -0.21286478430745734 0.10131850904096325 -0.15286535216303063 -1.0279318581393957 0.38211586117257978 0.02001402762856495 -0.0033284715294918383 0.67832500058202472 0.41829314293412412 0.45938023720382898 0.35324009324009326 -0.016734266317907916 0.016404171840595536 -0.00072867569799067711 0.0598732696576263 0.71510266653067356 -0.015104150352267086 -0.047275365062538703 0.012079182864499554 0.91027910406656409 0.026403962190441704 0.50633680858836716 0.539121547652194 -0.066528869000076304 0.67810045957775 0.00967466634590162 -0.0002037939539895655 0.013201683357578728 -0.034161216585267044 -0.031484821307236004 0.013342673809978682 0.033372553057825445 1.1049379318277863 0.014321897335256352 0.057330461800434454 0.006557222207058822 0.36047941351092805 0.040583536358933477 0.05551531019734058 0.041152835061267073 0.25292221068406068 -0.042697781190112354 -0.021907012374027642 -0.045747797273406381 0.23809694414900026 0.6565768363477843 -0.026851821753936887 -0.066355878652188074
decision_type=2 2 2 2 2 2 2 2 2 2 2 2 2 2 2 2 2 2 2 2 2 2 2 2 2 2 2 2 2 2 2 2 2 2 2 2 2 2 2 2 2 2 2 2 2 2 2 2 2 2 2 2 2 2 2 2 2 2 2
left_child=9 2 3 24 5 21 7 -3 23 10 14 12 34 43 -1 16 48 20 22 29 -17 38 -19 30 -2 35 44 28 -21 -20 32 -32 -7 -33 -4 52 37 -24 -5 -9 -16 -34 -43 -13 -10 50 47 -11 49 -12 -41 -48 54 -54 55 56 57 58 -15
right_child=1 6 11 4 -6 8 -8 39 26 46 15 13 -14 25 40 17 -18 18 19 27 -22 -23 36 -25 -26 -27 -28 -29 -30 -31 31 33 41 -35 -36 -37 -38 -39 -40 45 -42 42 -44 -45 -46 -47 51 -49 -50 -51 -52 -53 53 -55 -56 -57 -58 -59 -60
leaf_value=0.0018258244292740479 -0.023803797620722923 -0.026433444579927384 0.060375119422713584 0.014438819228805282 -0.031720400678398111 -0.029302380474051586 -0.034190796111016275 -0.014467160307029969 -0.030889550674543107 0.057358380308763869 -0.0067320818420538017 0.058781360282982198 -0.034254143774652822 0.026579765495089898 -0.012526502661952583 -0.00056485289838840817 0.044754984869358604 0.0049039833004527892 0.027657463545668042 0.040511450585676831 0.053980909967259273 -0.013093909751441897 0.029227289082527228 -0.013634522469214046 0.00052026167405735198 -0.014555538253522016 -0.018467999911927116 0.038623394421726055 -0.008418354983630378 -0.029657452887098031 -0.0024053935045011098 0.0026817030468618821 0.03409436544691672 0.055914928467401787 0.003295939059059819 -0.044921811384042311 0.013461328745438136 0.06141135401182117 -0.0087172209683069012 -0.0026044826259159944 0.038401983242443441 -0.0038907515620976263 0.038550580535628577 -0.018936306942953781 0.038693870548880988 -0.024294536667413127 -0.0015204449048357199 -0.010567117365116121 -0.044633601708281366 0.033205104308392026 0.024983256506541502 0.017409569206957833 -0.0091863367943713029 0.03003927155062314 -0.0081359758470426081 0.006300807641526544 0.054679429427279574 0.033092107372964565 -0.042110113954674247
leaf_weight=126.76326001877896 330.87101332307793 585.6872645765543 46.948621447430924 109.27409186633304 72.218673212220892 8.6471021925099176 324.53656082239468 348.87052715674508 4.1549082663841572 22.474883978720758 44.691980843897909 25.032519207336012 7.3733283667825154 15.682428427040579 9.5736328265629691 15.746199349872766 35.665536720305681 24.646978654433042 10.01479921559803 15.937797159655018 206.88408171595074 477.70031064166687 52.827956434339285 40.835539674153551 66.925763104576617 49.308560186531395 99.379559962777421 81.39172165421769 37.738782947184518 27.177738002501428 129.65509812696837 21.309070735238492 132.8977965565864 20.481864403467625 10.490947316866366 5.1663830387406042 24.349214680958539 97.285831137094647 81.930470327846706 85.108665646985173 67.601450540358201 46.534720862517133 19.603211099980399 3.2804229226894668 16.249247258529067 27.813071254407987 75.216780800838023 6.5438285479322067 7.0671687514986834 19.944502626778558 41.572120323660783 311.39070422993973 30.646653470117599 126.33753481134772 98.797138115158305 133.05650238273665 19.34553638054058 46.178692603018135 14.395106111187486
leaf_count=3649 34477 76713 487 5550 7627 291 50366 35854 249 175 1237 288 167 196 346 276 512 312 121 184 2277 39761 565 3496 4487 2749 9097 1107 724 521 9327 1005 3312 474 276 284 328 676 6260 7443 1126 1696 618 189 650 3924 2393 98 213 350 3226 5754 768 2513 3096 3487 182 731 335
internal_value=-8.4696e-11 -0.00913022 -0.000997422 -0.00692369 -0.00290525 -0.00110619 -0.0223929 -0.0187895 0.00750445 0.0257029 0.0300624 0.0146991 0.0398671 0.0116208 0.0134939 0.0347989 0.0156139 0.0381669 0.0306138 0.0180013 0.0501685 -0.00805682 0.041079 0.012863 -0.0197393 0.00939819 -0.0111324 0.0267197 0.00753857 -0.0132774 0.0158051 0.00610642 0.0236025 0.0308452 0.0506575 0.0118876 0.0460134 0.0509116 0.0045359 -0.0097872 0.0318428 0.0263181 0.0098598 0.0487901 0.0223052 0.000858123 0.0160538 0.0425025 -0.000143755 0.00655349 0.00683208 0.013744 0.0127772 0.0223518 0.00801937 0.0150152 0.0265608 0.0175569 -0.00716387
internal_weight=5045.23 3724.3 2310.71 1678.67 1280.87 1208.65 1413.59 1089.05 539.748 1320.93 905.309 632.04 64.8129 567.227 203.938 701.37 107.369 594.001 371.371 172.261 222.63 668.905 199.11 419.964 397.797 538.915 119.784 135.068 53.6766 37.1925 379.129 171.446 207.683 41.7909 57.4396 489.606 174.463 150.114 191.205 503.364 77.1751 199.036 66.1379 28.3129 20.4042 154.494 415.626 29.0187 71.7037 64.6365 126.681 386.607 484.44 156.984 327.455 228.658 95.6018 76.2562 30.0775
internal_count=344595 321651 144125 128377 89413 81786 177526 127160 30215 22944 14524 15748 930 14818 5121 9403 2312 7091 4538 2657 2553 51571 1881 20219 38964 14341 9996 2015 908 642 16723 10806 5917 1479 763 11592 1569 1241 11810 50447 1472 5626 2314 477 899 14593 8420 273 1800 1587 10669 8147 11308 3281 8027 4931 1444 1262 531
is_linear=0
shrinkage=0.0614439


Tree=7
num_leaves=60
num_cat=0
split_feature=31 31 27 34 27 31 31 26 60 45 27 47 34 17 60 6 34 55 5 17 55 9 47 27 6 31 58 34 21 6 29 55 47 50 31 60 5 47 38 34 31 27 58 58 34 26 49 50 29 55 60 21 27 34 47 28 31 5 26
split_gain=266.979 105.847 103.642 54.4404 26.5428 17.6792 14.0424 12.0834 11.528 12.4323 10.6533 10.8633 10.6385 9.78243 9.32041 9.3193 8.60378 8.37187 8.63322 8.36501 8.16022 7.96724 7.71531 9.36044 7.5475 7.53582 11.4302 7.88226 7.40405 8.72042 6.57023 6.49955 6.47333 6.29322 6.27914 6.6501 6.27499 6.1914 6.08188 6.06821 6.62692 6.05242 9.67577 10.3181 11.2488 6.04191 5.99469 5.91391 5.85846 5.67639 5.64241 5.54894 7.40926 6.71789 5.47324 5.46651 5.40584 5.35282 5.28296
threshold=0.010414148243543102 0.018069382583022573 12.79601165602883 0.031593259102682396 16.22848867693768 0.0151176299323237 0.0072246489613534684 -0.00761188609935154 -0.09163361899953569 -0.094308852180978717 21.642931286815834 0.38211586117257978 0.034735359731418704 -0.070192686200815077 0.082200071622370433 -0.080502495955157891 0.023587573836279473 -0.012009609569382016 -0.037784064769759089 -0.050645406170985389 -0.031337871485248352 57.262562167906559 0.84272022896533572 13.076754797427631 0.10857438844188784 0.024241941090968149 -0.018029416408275375 0.039325934790128254 0.0046746057028953852 0.047315572404581847 0.01602676585160542 0.03527362964065129 1.1474421650691953 0.76581027667984203 0.021358801494623016 0.048257545850278069 0.0073966234187875521 1.4122323980816001 0.77469946790785449 0.026594619807301913 0.011975947384022955 28.270922524709807 0.0033420482242830789 -0.00033561746443394597 0.015025736328033877 -0.033509894145232637 0.91341407151095744 0.29783991665558368 0.0075097288690290252 -0.031337871485248352 0.048257545850278069 0.0021239321233953229 10.730895898160702 0.016217085793115871 0.8578192001028605 -0.0017084640856783893 0.013125055417637907 -0.04472042353832633 -0.0040873677510169107
decision_type=2 2 2 2 2 2 2 2 2 2 2 2 2 2 2 2 2 2 2 2 2 2 2 2 2 2 2 2 2 2 2 2 2 2 2 2 2 2 2 2 2 2 2 2 2 2 2 2 2 2 2 2 2 2 2 2 2 2 2
left_child=6 3 12 4 19 7 24 -6 32 14 13 57 -3 -8 47 -13 36 49 -19 -2 -21 34 31 -24 41 26 37 -28 29 39 -30 -11 33 -5 -14 -36 56 45 -39 40 -22 42 43 48 -45 -4 51 -10 -1 -17 -25 53 -53 -15 -51 -41 -9 -12 -44
right_child=1 2 25 8 5 -7 10 16 9 22 11 15 21 46 -16 17 -18 18 -20 20 28 -23 23 50 -26 -27 27 -29 30 -31 -32 -33 -34 -35 35 -37 -38 38 -40 55 -42 -43 58 44 -46 -47 -48 -49 -50 54 -52 52 -54 -55 -56 -57 -58 -59 -60
leaf_value=0.042657327671168616 -0.012408407089143512 -0.0024740677320434679 0.013311247181236111 0.042927930890227069 -0.022375111168673526 -0.025761645630677475 -0.034889622502565047 0.0091888589764255093 0.034697564962973278 0.0074987668623429041 -0.045316498831346266 0.035432814488207551 -0.0097849649169017699 0.026345901303192771 -0.028325085562427032 0.032067528195543621 0.0042569169734487221 -0.017677010815281512 0.019381909150338335 -0.036868300895209392 0.017700580741127975 0.051531601508914386 0.024610190846647131 -0.026272644931306908 -0.011122209575809876 -0.03616525025638552 -0.031588809168828183 -0.013030158675887997 0.026177236978396017 -0.019057071477330181 -0.0018570965157104831 0.049264150541017335 -0.013758580450036226 -0.0070205753233617205 0.028384253403842437 -0.039418705330390151 -0.016351311033715812 -0.0033376257544211448 0.062932708218910838 -0.022302128160709481 -0.0069283416337984106 0.061244070438870264 0.0053011919033626054 -0.027068285252771305 0.030777517043805262 -0.030462280123080821 -0.019511891474771351 -0.0045424567571519265 -0.0040573922481056332 -0.036766197804916363 0.026484030391362469 0.052627081003560033 0.026768475904948137 0.0024729382094650981 0.0079922026212844825 0.036870253471198509 -0.024363951237784922 -0.0015438389428208776 0.060730826280318916
leaf_weight=64.078853767365217 90.456857340643182 76.337323430809192 18.150356177473441 83.31199651886709 162.20850261580199 278.28260151529685 7.6899499082937828 81.731738892849535 118.13101142644882 303.27152403257787 9.577343720244242 76.757401445880532 24.0545178365428 105.07726112753153 8.7375461766496283 6.4358824966475359 279.59325043787248 23.879304104251787 239.44987820391543 11.896296878345309 65.843001917935908 32.213649537647143 19.420805212575942 64.921467439737171 10.58736770832911 472.48035858385265 474.88267303525936 113.15178701165132 125.36288000945933 51.856849301839247 41.314882304053754 11.798309994395821 8.6729516709456203 9.7955687174107862 82.567113599507138 3.1647829490248105 214.74909338983707 10.522424615337515 6.718986647669225 4.7991406319197258 99.777283184463158 40.331796103157103 8.1240212391130608 25.043688703794032 19.981310033705086 25.161473948624916 8.90025508077815 15.70343038253486 11.33017298625782 25.049616719363257 6.0977703640237442 47.816696459893137 458.56968892016448 76.790220520924777 14.769735897891222 35.884845621418208 19.949770243372768 63.657132533146068 49.591346703702584
leaf_count=728 6685 3909 1175 1161 19099 37392 464 4607 1725 6741 439 1586 542 1420 205 124 15555 823 4689 772 2806 349 360 3813 176 81899 71422 11839 3910 3185 1957 145 558 431 1746 109 19817 1190 169 265 6005 401 127 459 205 3177 165 357 201 782 228 582 7410 1732 461 1203 2415 2321 377
internal_value=1.16408e-10 -0.0089402 -0.0225521 -0.000683645 -0.00689457 -0.0125911 0.0227638 -0.00767148 0.0142227 0.0105763 0.0199271 0.0125129 0.0159976 0.0246848 0.0259841 0.0166082 -0.00357411 0.0116337 0.0158535 0.00431361 0.00784059 0.0257672 0.00500194 -0.0105672 0.036722 -0.0300835 -0.0255011 -0.0281054 0.00935242 0.00276176 0.0193219 0.00953089 0.0329587 0.0376157 0.0169912 0.0245839 -0.0104675 -7.22655e-05 0.0281783 0.00844855 0.00300936 0.0391645 0.0331969 0.022311 -0.00106612 -0.0124569 0.0254946 0.0300948 0.0357562 -0.011873 -0.0208182 0.0261621 0.0295178 0.0164779 -0.0207906 0.0287979 0.00207603 -0.0088875 0.0536012
internal_weight=4946.46 3552.97 1339.41 2213.57 1563.71 1036.51 1393.49 758.232 649.862 548.082 1164.42 459.576 218.337 704.844 142.572 386.342 596.024 309.584 263.329 527.192 436.735 142 405.51 90.44 229.069 1121.07 648.588 588.034 424.839 258.161 166.678 315.07 101.781 93.1076 109.786 85.7319 316.431 60.5532 17.2414 206.304 165.62 218.481 178.149 120.434 45.025 43.3118 697.154 133.834 75.409 46.2552 71.0192 688.254 506.386 181.867 39.8194 40.684 101.682 73.2345 57.7154
internal_count=344595 318923 177526 141397 125673 98885 25672 61493 15724 13574 22998 11225 6655 11773 2287 8465 42394 6879 5512 26788 20103 2746 11287 4401 2674 170871 88972 83261 19331 13464 5867 6886 2150 1592 2397 1855 26839 5711 1359 10279 8811 2498 2097 1593 664 4352 11309 2082 929 1367 4041 11144 7992 3152 1243 1468 7022 2760 504
is_linear=0
shrinkage=0.0614439


Tree=8
num_leaves=60
num_cat=0
split_feature=31 31 34 31 59 34 9 58 55 25 25 31 34 59 34 31 7 55 45 25 46 60 55 31 39 25 25 7 51 47 11 53 41 14 39 47 21 58 30 19 34 47 33 60 47 30 30 19 33 53 43 58 58 47 60 41 51 47 58
split_gain=239.181 91.6101 49.0035 17.0078 24.352 16.9645 12.3095 12.2376 11.9645 11.7771 15.9601 11.7227 10.6974 11.1475 10.1153 16.3892 9.43944 8.87249 8.81212 8.6903 8.30182 8.29784 9.65925 7.7913 7.61985 7.6679 7.25497 7.01669 6.80169 6.73341 6.70648 6.75205 6.17761 6.14347 6.03825 6.03506 5.98775 5.92614 8.70259 8.2343 9.14215 6.26692 5.88968 5.74541 5.59716 5.56757 5.52399 5.43022 5.38502 5.75215 5.12855 5.11934 8.14804 5.18283 5.1133 5.07946 7.86642 5.83836 5.10457
threshold=0.010524474215842758 0.018069382583022573 0.031593259102682396 0.0072246489613534684 0.08988937738879009 0.014658680978597885 42.307648302635336 -0.027807930789752074 -0.015109536997780114 0.01020057021021137 -0.016333980558180191 0.015662072194955603 0.023587573836279473 0.099729018594097232 0.033811082603027121 0.028148548161930461 0.16791304850047231 0.0090137730233148545 -0.037372328808378534 0.018465442080914499 0.0059310060643942295 -0.070675801253312062 0.0043089118052332962 0.011886106555976625 0.027399933728392559 -0.01217641917939377 0.051170249310632306 0.023433814456618633 0.31092380005423487 1.0892723756894336 -0.94699344758165294 0.54530791788856314 0.33463988350775514 0.010439941734269433 0.075114445201174204 0.95572075990134808 0.002783154654639386 -0.0083075320552044012 0.02653858884095996 0.30704512097307918 0.040932436349906391 1.4470755374611362 0.026511336609683467 -0.068037190064538691 1.9893257499590817 0.020211039012195748 0.0047581451362202097 0.060916533265304447 0.022173282205948025 0.027164764210769056 0.047118679622556343 -0.005066608811007677 -0.0063049396375106084 0.38211586117257978 0.002609742758103569 1.6784746414154197 0.63875283202071431 0.52614953490380689 0.010194041542313627
decision_type=2 2 2 2 2 2 2 2 2 2 2 2 2 2 2 2 2 2 2 2 2 2 2 2 2 2 2 2 2 2 2 2 2 2 2 2 2 2 2 2 2 2 2 2 2 2 2 2 2 2 2 2 2 2 2 2 2 2 2
left_child=3 2 6 18 5 17 -2 29 27 10 20 12 23 43 -3 37 19 30 47 -9 -6 22 -12 28 25 -20 42 -7 -8 48 -5 -32 -21 35 36 46 -15 38 41 -39 -41 -16 -18 -14 -43 -42 -27 -1 -4 -50 51 52 -23 -53 -19 56 58 -58 -38
right_child=1 14 7 4 9 8 11 16 -10 -11 21 -13 13 34 15 -17 26 54 24 32 -22 50 -24 -25 -26 33 -28 -29 -30 -31 31 -33 -34 -35 -36 -37 55 39 -40 40 45 44 -44 -45 -46 -47 -48 -49 49 -51 -52 53 -54 -55 -56 -57 57 -59 -60
leaf_value=0.0028295281474338707 -0.019499351590565876 -0.029475670352770416 0.05905106014503618 -0.02665377263869935 0.022952187490348091 0.056117862774663234 0.01848043480689433 0.0093532154287176584 -0.006882682659467957 0.011338220784584775 -0.03658547216605762 -0.015870894073916501 0.013103772075528016 -0.0078843733632005652 -0.001642836352667676 -0.029818751231432301 0.033536778900378428 0.06669001607798794 -0.022279813397676554 0.011106163023835403 -0.0091959836026823307 0.026784035351047796 0.04298976935540056 -0.013785557569268836 0.048716441918178026 -0.0057067257927523344 -0.018655754642279958 -0.0050118514245783702 -0.0058147953001738105 -0.013876341149576832 0.03144598741325455 0.00045954989221256296 -0.028429032503584549 -0.0032580911934711985 -0.018494732463461516 -0.025750338168454207 0.011833635949769479 -0.028113662836549293 -0.025952593727598845 -0.016866068934285584 0.0290812712323219 0.039637659123060838 -0.018966205054309231 -0.030842719947707219 -0.025937196993870749 -0.0030409550552484579 0.044433187611199541 0.053725510143258187 0.037149937792608084 -0.018658871022308073 -0.013983323217415113 0.016961324056232314 -0.037486798768137791 0.041817549034957283 -0.002024731819618712 -0.019176257598772842 0.0013601914503960178 0.035828110281300458 -0.016754108576358628
leaf_weight=8.9969611391425115 248.367805223912 424.97995367541444 34.764261894859374 10.329268541187046 64.593451532535255 16.27981751551852 60.746666067978367 394.04497463721782 254.6915968330577 194.86371883330867 11.396636975929143 266.28316995932255 13.067190959351136 53.421816172776744 80.302197018871084 284.23706722352654 103.60226777405478 19.856874475721273 14.589295740704982 20.684921151725575 52.530619802419096 34.861966836731881 6.4601027588360003 299.42546313791536 34.930235221516341 9.0005852887406927 10.854410059750078 10.419460594886912 133.51196905551478 7.1894291942007831 68.020390699384734 42.504661638522521 40.129852671641856 24.982532783877105 25.668380484217778 4.1787799638696006 180.18111200327985 131.08433080557734 36.204646274331026 213.01864060410298 24.483743694494478 26.502547542797405 6.7669646865688255 41.097221457399428 3.64937837247271 75.879624919616617 51.516650798264891 95.133789890445769 17.321292385924611 8.2361952378414554 6.0888072745874515 41.446625225711614 6.3840153301134697 336.1394926533103 4.7538458718918255 14.135408658068625 23.733446208992973 86.239458524389192 24.27627176605165
leaf_count=176 28615 65412 189 342 1778 365 2601 9385 7814 4158 280 29925 770 4416 7220 46948 2074 169 266 684 1698 662 57 27665 336 137 649 539 9468 150 859 768 2108 352 1861 126 8997 16574 5084 24463 1573 1671 264 2769 456 8125 525 756 100 112 83 755 189 3755 108 1592 1134 2997 1491
internal_value=1.32581e-10 -0.00882513 -0.000923553 0.0211175 0.0179836 0.00619255 -0.00711151 0.0131776 -0.00264835 0.024599 0.0291257 -0.00454999 -0.00135362 0.00534979 -0.0216364 -0.0177393 0.0101526 0.0229908 0.0359154 0.00600367 0.00866924 0.0344383 -0.0056833 -0.00761858 0.0248609 0.0156849 0.0251787 0.0342351 0.00195476 0.0374002 0.0153221 0.0198696 -0.0150963 0.022403 0.00885894 0.0320059 0.0108321 -0.0118048 -0.00106205 -0.0153174 -0.00974034 0.00758583 0.0298844 -0.0201042 0.0300116 0.00543639 0.0370619 0.0495385 0.0438938 0.0190915 0.0361535 0.0369804 0.014898 0.0392507 0.0546835 0.0139208 0.0155826 0.0286325 0.00823828
internal_weight=4839.04 3414.09 2113.75 1424.95 1181.62 426.856 1470.16 643.595 281.391 754.765 559.902 1221.79 955.504 461.82 1300.34 875.362 576.083 145.465 243.329 454.86 117.124 442.778 17.8567 493.684 139.198 104.268 121.224 26.6993 194.259 67.5112 120.854 110.525 60.8148 89.6785 407.656 64.696 381.988 591.125 146.659 444.466 313.382 110.454 110.369 54.1644 30.1519 100.363 60.5172 104.131 60.3217 25.5575 424.921 418.832 41.246 377.586 24.6107 328.566 314.43 109.973 204.457
internal_count=344595 317542 140016 27053 24379 10964 124301 15715 8718 13415 9257 95686 65761 26027 177526 112114 15164 2246 2674 12177 3476 5781 337 39734 1742 1406 2987 904 12069 551 1969 1627 2792 1140 22488 788 20627 65166 14431 50735 34161 9347 2338 3539 2127 9698 662 932 401 212 5444 5361 851 4510 277 16211 14619 4131 10488
is_linear=0
shrinkage=0.0614439


Tree=9
num_leaves=60
num_cat=0
split_feature=31 31 33 57 18 31 59 31 7 28 55 25 41 48 33 48 21 46 31 33 45 9 26 57 48 57 48 28 57 31 59 49 59 57 7 21 18 21 7 38 21 28 45 38 45 25 55 55 31 45 25 26 25 48 47 47 7 48 38
split_gain=210.699 82.7563 23.2464 15.9979 14.9714 13.9145 17.7456 12.4011 12.0466 10.741 10.6026 9.77607 13.9972 15.4435 9.03002 8.8873 8.84474 8.8309 8.74829 9.30359 8.30359 8.14722 8.57843 7.14226 6.78124 10.2474 6.67408 6.6503 6.64728 6.607 6.50101 6.45313 6.08763 6.02127 10.7467 6.39948 5.78985 5.77571 5.7708 5.62622 5.94597 5.57009 5.51552 7.06925 6.00063 5.34334 5.25765 5.25703 5.09641 5.00208 8.80383 5.19371 4.99177 4.83878 8.40036 7.99497 4.78339 6.5384 4.63291
threshold=0.010414148243543102 0.018069382583022573 0.015601344678299371 -0.56255983947037635 0.092689975229326108 0.0076304603318452149 0.08988937738879009 0.011975947384022955 -0.21983067670723541 0.0011791655380317529 -0.0054834630853127222 0.0098197043413322822 -0.8085444178302148 0.61495712780507317 0.0090030476142908163 0.67197049550843801 0.0026283532017022386 0.02093149814709289 0.030623913311006962 0.019936860635035098 -0.042181873676929375 46.124952192113874 -0.01837625293736142 -0.12474784342215671 0.36407169676174417 -0.10977602026464671 0.44347546029978419 -0.00028617281959214454 0.35706436539911973 0.01633387963353768 0.093736756999403981 0.64500116730219792 0.11035884144764109 -0.16258970113484258 -0.14592880373297731 0.011972138246758713 0.0054262626968295544 0.0044337749926000826 0.14059897917757549 0.43313364051841602 0.0085009008643050065 -0.0040997929108217658 -0.0058270420238147871 0.52532445940495565 0.048488965512153932 -0.0029622245415952815 0.021757504047383417 -0.013583494974589326 0.0098103276286273314 -0.045517434616386181 -0.012589706063420468 -0.0022244289065674917 -0.021258511450828906 0.42595914057589596 0.74027628091483499 0.51974150503655514 -0.058831747317720388 0.41070017025509886 0.5753616890414569
decision_type=2 2 2 2 2 2 2 2 2 2 2 2 2 2 2 2 2 2 2 2 2 2 2 2 2 2 2 2 2 2 2 2 2 2 2 2 2 2 2 2 2 2 2 2 2 2 2 2 2 2 2 2 2 2 2 2 2 2 2
left_child=5 2 7 29 8 17 9 53 28 14 -11 12 20 24 36 16 -10 41 19 -3 26 22 -18 -12 48 27 -8 -26 39 -4 38 -19 -24 -21 35 -35 -7 -9 -23 40 -5 -1 43 -27 -44 -45 -25 -16 -14 -43 51 52 -51 -2 55 -55 57 -13 -32
right_child=1 18 3 4 -6 6 11 37 15 10 23 56 13 -15 47 -17 21 31 -20 33 -22 30 32 46 25 42 -28 -29 -30 -31 58 -33 -34 34 -36 -37 -38 -39 -40 -41 -42 49 44 45 -46 -47 -48 -49 -50 50 -52 -53 -54 54 -56 -57 -58 -59 -60
leaf_value=-0.01435089460823917 -0.0061816296385087781 -0.026865555819568336 0.068713807618431946 0.0496390485779169 -0.017926873462662078 -0.02969507424645056 -0.019599052407764841 -0.018951026392175479 -0.0124792785761933 0.040371928380378931 0.036016934422707758 -0.055207216386860616 0.029749756736268958 -0.018997451725477257 0.015546730861567853 -0.03630479662725368 0.0088557604114382366 0.061533071541909672 -0.032477658200004207 -0.00725042556343074 0.025758623962146069 -0.038637617081687413 -0.034193332299793863 -0.0083477692133902166 0.031551118066265441 0.044314154862071568 0.02066368161606176 -0.022183107357732226 -0.030239515947695236 -0.0085065807318974989 0.017956245595626273 0.024576172020396927 -0.0045395731804754027 -0.0093702643609876405 -0.02439852958986289 0.026641739595800455 0.020407746946208685 -0.0060425498554574231 0.017174808270664657 -0.0032643885780583035 -0.0075524787497139685 0.039568723125964454 0.061179761783152473 -0.016961867010800401 0.0022010156379215161 0.030217463552534504 0.041227035402097177 -0.018965266212014106 0.0050695006046489882 0.0083673818188063336 0.025238821224304604 0.034407243941425754 -0.051797472375283198 -0.031019715593869856 -0.00078783615927136019 0.039784149659559384 0.012685154124826478 0.011506213120557629 0.0063547515462492677
leaf_weight=11.399511404335497 142.29735082923435 336.60162561445031 16.909646690823141 47.839345686836168 110.44952199212275 7.3538788442965588 46.763243551598862 345.53799963952042 100.89583238936029 46.717800121288747 19.265810831217095 6.8039132696576443 138.82080944348127 20.165142971090972 17.106801839079708 17.380501521518454 194.18962671759073 52.04615998454392 205.5351333655417 282.5469856238924 46.107424839166924 15.22657186444849 27.879881865810603 73.025779336923733 14.869013057556005 68.763977054040879 19.662396446336061 13.840166219975798 4.2054476432967922 4.4836067843716583 284.46189295500517 35.986295936163515 175.76012313412502 84.014154626056552 323.69370925426483 20.584235976682976 57.252318202052265 215.95260340534151 8.9895343740936351 11.916384203359483 7.0534893479198209 76.13730600476265 90.135696041863412 14.654755291529002 7.2574751898646346 15.709087882656602 5.9276616007555267 110.4204754778184 42.503812313079834 7.2925522429868623 140.21781125222333 3.4830162101425222 10.211432002019137 4.6440954362042239 94.797853364609182 39.788527245866135 163.62480378360488 10.629723568679763 246.51919198757969
leaf_count=230 10707 50985 162 877 12707 312 1737 37263 8805 1036 434 184 1526 522 650 1613 7411 383 36583 36802 822 1121 1947 1798 153 634 647 215 252 161 10837 404 9123 9835 41754 1567 1009 18304 471 468 136 716 589 259 64 154 68 4357 885 140 1888 26 275 175 6998 918 3373 182 10941
internal_value=4.6058e-12 -0.00831076 -0.000896539 0.00433744 0.0033668 0.0200636 0.0165104 -0.00879412 0.00546893 0.00481528 0.0172632 0.0219387 0.0260811 0.0311382 -0.0047008 0.0037994 0.00456607 0.0309658 -0.0208054 -0.0184252 0.00658169 0.0064055 -0.000311226 0.00536623 0.0337508 0.0410455 -0.00728834 0.0060119 0.029434 0.0535079 0.0111932 0.0477852 -0.00905452 -0.0143285 -0.0189116 -0.00171646 0.0135985 -0.0140472 -0.0183237 0.0343728 0.0422792 0.0244946 0.0459894 0.0337711 0.0569897 0.00798861 -0.0031988 -0.0140748 0.0241483 0.0265225 0.0197259 -0.0156054 -0.0292596 0.00172206 0.00975825 0.0308327 0.00936811 -0.0189618 0.0126387
internal_weight=4764.31 3370.15 2117.18 1274.16 1252.77 1394.16 1057.38 843.018 1142.32 337.071 144.937 720.311 539.253 426.72 192.133 1071.3 1053.92 336.774 1252.98 1047.44 112.533 953.027 397.83 98.2193 406.555 225.23 66.4256 28.7092 71.0147 21.3933 555.197 88.0325 203.64 710.839 428.292 104.598 64.6062 561.491 24.2161 66.8092 54.8928 248.742 196.521 99.1278 97.3932 30.3638 78.9534 127.527 181.325 237.342 161.205 20.987 17.504 281.528 139.23 44.4326 181.058 17.4336 530.981
internal_count=344595 318923 141397 67032 66709 25672 21610 74365 54002 9664 3336 11946 8207 5001 6328 52269 50656 4062 177526 140943 3206 41851 18481 2300 4479 2068 2384 368 1733 323 23370 787 11070 89958 53156 11402 1321 55567 1592 1481 1013 3275 1700 1047 653 413 1866 5007 2411 3045 2329 441 415 18798 8091 1093 3739 366 21778
is_linear=0
shrinkage=0.0614439


Tree=10
num_leaves=60
num_cat=0
split_feature=31 27 31 34 31 27 31 58 34 27 59 57 6 57 27 60 58 34 51 60 53 21 60 33 25 21 18 30 33 25 60 27 4 60 60 59 34 7 57 58 47 53 51 47 25 47 7 25 51 59 47 60 33 30 12 45 59 59 9
split_gain=193.207 82.3988 75.9191 24.3992 18.7941 15.619 10.4358 9.77795 9.51359 9.15671 8.68844 8.54398 8.06329 9.11287 8.04976 7.80182 7.61801 7.49224 6.5921 6.53934 6.38451 6.1095 5.90572 5.85378 5.80888 5.77063 5.51517 5.71041 5.4404 9.57382 6.2675 5.41937 5.5181 5.40747 6.13223 6.09365 5.26768 7.17402 5.99442 7.86251 6.6405 8.62677 9.11243 6.78233 5.92036 7.75149 5.55374 6.12353 8.54282 8.49063 8.58237 8.29122 6.04357 5.8246 8.35191 5.4628 5.37078 5.33251 5.45836
threshold=0.017020056379330777 12.79601165602883 0.00967466634590162 0.031702295204020743 0.011886106555976625 15.773341894588208 0.01988833334796988 -0.027807930789752074 0.023186752780415733 9.2010470734301943 0.088209471318341906 -0.51984976939710659 0.10503936686975036 -0.19228394745958324 20.517349383994077 -0.082983344211629881 -0.024820246305218115 0.032584131064488306 0.76382146709816623 -0.016412269999936422 0.87227247032221611 0.002653770571819725 -0.021297697822657943 0.020241972412068539 -0.0063205871481761813 0.0043815504840187822 0.053550320522426038 0.010362846329997155 0.010550474559550722 0.0052223454988823423 -0.038117105089240703 40.364534457420469 0.0070910220306216196 0.04365934415915896 0.028547712913216488 0.13469314789871842 0.020738045042067218 -0.01534137938347757 0.065504563821439668 -0.0046627474954273876 0.38211586117257978 0.8580751623549453 0.11367436910915173 0.32591959603226495 0.0078643087782255278 0.22080886827500459 -0.14295186732449541 -0.012989714367004189 0.40207987888400265 0.11293269823059904 0.73520877064042545 0.01287569163358617 0.012018229349630229 0.006214721686507281 0.0083466344035818558 -0.066528869000076304 0.10154993142784079 0.10985815998615873 41.665153546056366
decision_type=2 2 2 2 2 2 2 2 2 2 2 2 2 2 2 2 2 2 2 2 2 2 2 2 2 2 2 2 2 2 2 2 2 2 2 2 2 2 2 2 2 2 2 2 2 2 2 2 2 2 2 2 2 2 2 2 2 2 2
left_child=2 17 9 4 10 21 16 -5 -7 -1 15 -9 13 -11 18 -4 23 24 28 -10 31 -6 25 -3 -2 -19 27 -16 29 30 -12 32 -13 34 35 36 38 -38 40 -40 41 42 -15 44 45 -44 -42 53 49 50 52 57 -49 -48 -55 -39 -52 58 -50
right_child=1 6 3 7 5 8 -8 11 19 12 14 20 -14 33 26 -17 -18 22 -20 -21 -22 -23 -24 -25 -26 -27 -28 -29 -30 -31 -32 -33 -34 -35 -36 -37 37 55 39 -41 46 -43 43 -45 -46 -47 47 48 51 -51 56 -53 -54 54 -56 -57 -58 -59 -60
leaf_value=0.054713923934462921 0.020059982590160258 -0.029764627921822096 0.040426277153994605 0.03875610321578786 -0.015116582259596251 -0.022380306620999397 -0.028197898580172485 0.048648433844089567 -0.0011740295415841174 0.045306283901325482 -0.013157183065695036 0.0036455405481162387 0.00086640984477690506 0.039820082700609376 0.018948395418143152 -0.013027325768112269 -0.018367233414992998 0.0046124999269031193 0.042318590251859411 -0.015419211573268993 -0.021368547758632631 0.0085661289993591832 0.0049669560420573401 0.028247468369340976 -0.017278106909506315 0.039774013189775373 -0.013014821366832453 -0.0045281363242810754 0.0073238198312102062 -0.012494093965820168 0.045045221325558812 0.034431959525671331 0.020569158720013886 0.044420298830411181 -0.0066210610003017414 -0.018590985094941767 0.013634793734542204 -0.012165975526218974 -0.014987572605419788 0.058160682480874672 0.049560203951487185 0.041453905228203365 -0.029530773202155594 -0.038737928799279495 0.023723761266552946 0.013621640228799208 0.030860297082564159 0.047672618228437713 0.043816783999520097 -0.013083345128205769 0.0062509011701348859 -0.024550788583719632 -0.0059277537955111188 -0.016442759538824781 0.030785587351560631 0.052880414545357295 0.04072549265048829 0.040526181046199816 0.0095597923119620613
leaf_weight=28.938329879660159 24.548334718216211 6.114085360895845 8.3020770249422622 50.19957047700882 46.046067351708189 221.32521813106723 840.66303664539009 18.31471495795995 294.70959443668835 59.210471444996074 6.6059950958006075 269.19477456738241 72.488689658697695 14.326337323524056 76.747296239249408 110.74128148518503 405.92949009069707 23.345174282323569 30.521625471999869 204.75504307472147 22.34402532200329 253.05909757758491 42.781073170015588 21.618991405935958 33.348863628692925 81.982250409899279 69.568156744353473 74.749449029332027 192.81768107181415 16.681020276388153 51.496450580423698 30.023216319968924 97.510468166554347 33.120090885553509 31.476115165278316 12.607127577764912 42.236244600033388 4.1828650126699349 5.5156208751723197 25.296417050994933 22.214812113204971 17.921317476779222 32.350148589583114 18.561091400915757 24.125998984090984 25.689137352630496 20.108281895285472 115.41814196296036 16.81306004524231 13.868380416417493 56.067157512530684 16.878143256995827 7.8163965600542715 52.457256371853873 15.886483014095573 54.557144437450916 22.362646461930126 29.222644241992384 183.05535062216222
leaf_count=221 1382 497 342 358 4514 29027 140116 169 25440 791 239 5772 1910 241 3165 6382 48792 745 672 18658 949 12309 1406 680 2663 1635 4246 4819 7996 563 973 500 2022 428 572 344 765 125 166 228 188 263 950 483 566 543 335 1028 199 239 951 264 160 1351 238 595 194 322 2904
internal_value=9.52889e-11 -0.0183506 0.00844464 0.00175875 -0.00179985 -0.00696662 -0.0241749 0.0137948 -0.0118498 0.0217488 0.00645038 0.0106755 0.0206765 0.0221444 0.00987623 -0.00836138 -0.0162304 0.0175011 0.0164109 -0.00707335 0.00866846 0.00480174 0.0246976 0.01374 -0.00123039 0.0323379 0.000957832 0.00750742 0.0130019 0.0267617 0.0380943 0.0105138 0.00828138 0.020495 0.0194418 0.0204282 0.0210829 0.0343876 0.0191198 0.0448923 0.0178007 0.00527982 -0.00130142 -0.0081717 -0.000101226 -0.0107105 0.0206661 0.0192257 0.0220502 0.0309707 0.0341536 0.0139432 0.0442104 0.00423962 -0.00459903 0.0478682 0.0172637 0.0170713 0.0130713
internal_weight=4700.82 1480.33 3220.48 2145.71 1658.13 1019.9 1274.33 487.587 720.79 1074.77 638.231 437.387 1045.83 973.345 519.188 119.043 433.663 206.006 298.123 499.465 419.072 299.105 148.108 27.7331 57.8972 105.327 221.065 151.497 267.601 74.7835 58.1024 396.728 366.705 914.134 881.014 849.538 836.931 100.976 735.955 30.812 705.143 132.974 115.053 100.726 82.1653 58.0393 572.169 549.954 461.502 215.533 201.664 245.969 123.235 88.452 68.3437 58.74 78.4298 229.091 199.868
internal_count=344595 197916 146679 129115 119345 89948 190085 9770 73125 17564 29397 9412 17343 15433 22673 6724 49969 7831 10443 44098 9243 16823 3786 1177 4045 2380 12230 7984 9771 1775 1212 8294 7794 14642 14214 13642 13298 1485 11813 394 11419 3046 2783 2542 2059 1493 8373 8185 6261 2572 2333 3689 1188 1924 1589 720 1145 3425 3103
is_linear=0
shrinkage=0.0614439


Tree=11
num_leaves=60
num_cat=0
split_feature=31 31 34 31 48 58 57 48 57 34 31 59 47 6 48 28 9 47 48 47 33 31 28 31 59 26 34 55 55 17 58 26 57 47 48 57 34 36 55 31 36 47 57 45 53 55 57 55 33 6 34 48 34 59 57 51 48 31 6
split_gain=177.917 52.7716 32.4133 21.7918 15.797 11.3392 11.1926 10.3605 9.53822 8.94124 11.8495 8.24464 7.28422 7.28396 7.31477 7.12365 6.90204 6.8745 6.66065 6.28425 5.98166 5.74495 5.73617 5.59084 6.74523 8.50206 5.73937 10.1596 6.81878 5.44202 9.8364 8.86368 8.00726 8.01286 6.52521 5.9991 7.52947 5.32947 5.32721 5.31364 5.28577 6.7388 5.48092 5.15752 5.13288 5.49121 5.10845 5.93294 5.0292 5.00713 4.92752 4.90072 5.26608 9.50939 5.63281 5.00991 5.96744 4.88307 4.85711
threshold=0.011886106555976625 0.018069382583022573 0.026305353382081811 0.009386290154897798 0.39949664681707914 -0.027807930789752074 -0.0081411037413954817 0.56083469030185018 -0.51984976939710659 0.033811082603027121 0.028148548161930461 0.10387106138571235 0.6565768363477843 0.095025918090271069 0.63532300820181187 0.0065878533791904241 46.672387250714159 0.50633680858836716 0.67810045957775 1.3714011652731835 0.022275835011901265 0.010171523668586964 -0.0029970914922529666 0.0072246489613534684 0.088209471318341906 -0.012651362349460868 0.014658680978597885 -0.015109536997780114 0.0034307408645110065 -0.050186227698469303 -0.0042705213081944962 0.013114816073212611 0.10205098733436181 0.87190928756146391 0.39184653343589776 0.15965791295963763 0.033422233005164094 1.1486919574648633 0.02426342143536531 0.01633387963353768 0.87836329152743187 0.87190928756146391 0.042706670050881142 -0.033481965314592292 0.21298082252521897 0.031520045712913787 -0.27337212780316761 0.0052062548758939906 0.011657924212085278 -0.025470038849427275 0.023587573836279473 0.50159646718919415 0.021206432424513231 0.1114058892973622 0.032717165360066643 0.50163400437870465 0.20162779310835574 0.013272312035599839 -0.063491936619946551
decision_type=2 2 2 2 2 2 2 2 2 2 2 2 2 2 2 2 2 2 2 2 2 2 2 2 2 2 2 2 2 2 2 2 2 2 2 2 2 2 2 2 2 2 2 2 2 2 2 2 2 2 2 2 2 2 2 2 2 2 2
left_child=3 2 16 13 6 20 11 17 39 -3 -11 46 -9 14 19 18 -2 58 29 23 49 -13 -19 -1 26 -26 28 -28 -25 32 43 -32 33 44 35 36 -34 -22 -33 -7 41 -24 -43 -31 -10 -46 -5 -48 -15 -4 -18 52 53 54 55 56 -27 -52 -6
right_child=1 9 5 4 7 8 -8 12 15 10 -12 21 -14 48 -16 -17 50 22 -20 -21 37 -23 40 24 25 51 27 -29 -30 30 31 38 34 -35 -36 -37 -38 -39 -40 -41 -42 42 -44 -45 45 -47 47 -49 -50 -51 57 -53 -54 -55 -56 -57 -58 -59 -60
leaf_value=0.033336988297497164 -0.023587532549997996 -0.026900065664179525 0.04734050205605192 0.029373784482740844 0.027661410774431957 0.051293742897386307 -0.017032853578549945 0.043602154324934118 0.0080866965091441929 -0.01014458608963654 -0.026042066952303346 0.030476949015409524 -0.0084996139964654306 -0.0072901239899134948 -0.0094069540351956211 -0.020642636405642102 -0.014777564616067799 0.0023111532926309098 -0.036014145465240656 -0.031776946480651415 -0.021871885855667645 0.004764848349777067 0.027932159250727204 0.011825390199909714 -0.0043733176872909514 -0.016517780041870534 0.042543681398538653 -0.0019933623652647423 0.047285012058210237 0.013585962944534048 0.017299624976170738 -0.007459192089702079 -0.027870474004465809 -0.019941650248461795 0.034297121209645495 -0.020837330563332 0.045464605447132447 0.029117793525645211 0.036937126724469034 -0.0084687066400191829 0.035288967261386535 0.0084141391617608263 -0.04158364152154246 -0.020181746602280861 -0.013458720173808031 0.034874569587149115 -0.00094064810556781684 -0.031495903819350017 0.025397274149738566 -0.017187908927915847 0.013656980577481456 0.04310738564148435 0.043386311443962045 -0.0095020784560985311 0.04860807536963805 0.0031683242273305911 0.032587106834015417 -0.0074779597496302253 -0.041259208655655528
leaf_weight=231.1356761965435 172.33688153559342 384.70562560169492 39.201136914081872 12.582333839498459 3.1904834853485218 19.579985951073471 110.01474283845164 8.442564629018305 139.99408688326366 549.49923535552807 263.65733055421151 59.633016407489777 78.865406815428287 51.612972877454013 23.10092587955296 48.718719316180795 263.70942190825008 42.486983908805996 13.323771885596214 4.8897751467302433 12.782688980922105 71.66360338893719 79.26239409041591 60.286480121547356 29.421639862470329 8.5439288108609599 19.871501699090004 120.07038101600483 30.483937629964203 20.886492536403239 294.36236450565048 100.08330892422237 5.3558750611264285 100.44241106859408 35.110898252343759 22.66315531404689 13.001847133971749 11.994366027880458 8.2193490203935635 6.4056256918702266 135.96655488247052 42.249693060992286 7.0030179384630165 60.272598358104005 100.7712307695765 6.7217858515214166 110.39148054458201 27.603743248386309 23.264698550105095 3.5089287275914094 51.957714109681547 81.352839902509004 46.378159516956657 32.884141403017566 31.474605716764927 47.594522738829255 85.407196055166423 162.03875023615547 8.4931995470542443
leaf_count=2287 21496 65412 538 470 69 208 5729 96 5163 65166 46948 1010 4426 1366 958 4292 30281 1959 1325 149 199 4253 1604 900 893 275 337 3350 321 868 10775 7457 435 8563 1117 891 166 111 370 237 3518 1875 359 3228 5035 141 5270 1438 557 143 2675 686 434 612 256 648 819 14138 293
internal_value=9.79374e-11 -0.00926336 -0.00233673 0.0156168 0.00812399 0.00426947 -0.000686868 0.0165698 0.00257402 -0.0191395 -0.0153791 0.00580966 -0.00212971 0.0220114 0.02362 0.00152892 -0.0131125 0.0216642 0.00276726 0.0245713 0.028069 0.0168796 0.0234629 0.0250239 0.0216304 0.0268703 0.0131359 0.00512143 0.0249106 0.0034579 0.0078905 0.0118177 -0.0016201 -0.0055914 0.0160343 -0.000917788 0.0231277 0.00330811 -0.00314907 0.0372338 0.0267941 0.0171827 -0.00075034 -0.0113101 0.00040856 -0.00953709 -0.0039897 -0.00761447 0.00347614 0.0412292 -0.00920488 0.0296405 0.0248239 0.0200572 0.025744 0.0197204 0.0277338 -0.00222384 -0.0205743
internal_weight=4636.93 2911.31 1713.44 1725.62 797.849 1063.4 391.889 405.96 995.914 1197.86 813.157 281.874 87.308 927.773 852.896 969.928 650.043 318.652 921.209 829.795 67.4871 131.297 306.969 824.905 593.769 363.057 230.712 139.942 90.7704 907.885 483.824 402.665 424.061 347.93 76.1318 41.0209 18.3577 24.7771 108.303 25.9856 264.482 128.515 49.2527 81.1591 247.487 107.493 150.578 137.995 74.8777 42.7101 477.706 333.635 252.283 205.904 173.02 141.546 93.9511 213.996 11.6837
internal_count=344595 297378 119852 47217 32369 51262 18170 14199 50271 177526 112114 12441 4522 14848 12925 49826 68590 9677 45534 11967 991 5263 9315 11818 9531 4623 4908 3687 1221 44209 22698 18602 21511 18902 2609 1492 601 310 7827 445 7356 3838 2234 4096 10339 5176 7178 6708 1923 681 47094 3730 3044 2610 1998 1742 1094 16813 362
is_linear=0
shrinkage=0.0614439


Tree=12
num_leaves=60
num_cat=0
split_feature=31 27 31 34 17 27 31 31 34 34 55 6 57 28 25 26 57 39 27 6 39 34 43 45 39 52 43 28 25 57 39 55 19 50 47 55 33 17 32 27 47 6 31 57 57 25 28 34 57 47 57 57 27 26 27 47 27 22 25
split_gain=155.036 61.1966 58.1436 18.2508 18.9047 13.819 10.5914 8.61481 8.46807 7.73747 6.99365 6.52817 8.48687 6.96506 6.44898 9.15701 7.34212 11.0731 6.02615 5.97074 5.87209 5.81737 5.71273 5.32745 5.3216 5.27397 7.25813 5.18407 5.1236 5.32995 5.92811 5.0763 5.50099 4.81638 4.77794 5.14709 4.74949 4.69902 4.67984 4.6565 4.64367 6.92593 4.62122 6.81723 4.57272 4.72263 4.57251 5.83742 5.32552 6.65449 5.71167 9.42174 6.42578 4.55422 4.47804 4.45801 4.42986 4.32864 4.27708
threshold=0.016879891693609025 12.79601165602883 0.00967466634590162 0.032022696857826348 -0.050186227698469303 20.517349383994077 0.01988833334796988 0.011807329315911587 0.031593259102682396 0.026403962190441704 0.010543035460465868 -0.13827415075305574 -0.51984976939710659 0.0020353486542365484 0.007118947552760547 -0.00080588228309027177 0.032717165360066643 -0.08112173109072611 13.46926614218418 0.10857438844188784 -0.054596399587260737 0.034600052857260678 0.042980758912329005 0.087964447810550808 0.034549311286030511 0.17851130351130354 -0.015928506890085566 0.0051453576602597572 -0.0063205871481761813 -0.11471044858023614 -0.0045937277892829061 -0.025514489026824013 0.67279748039307974 0.23873200133943523 0.38211586117257978 -0.013834186613277287 0.01351573447986004 -0.022492100025215674 0.73877246946457531 42.427180015365003 0.96024540633427347 0.054327599632043484 0.006557222207058822 -0.097085702522692038 -0.28015472377050837 -0.019897346792397404 -0.0028612155689460776 0.017457879899491009 -0.023227491196915803 0.87683558787180271 0.065504563821439668 0.028926766650755668 14.513497067031226 0.0071924228729899342 18.008664564567926 1.1260441470776026 16.048727502466722 0.019400418675280712 -0.053470694403556666
decision_type=2 2 2 2 2 2 2 2 2 2 2 2 2 2 2 2 2 2 2 2 2 2 2 2 2 2 2 2 2 2 2 2 2 2 2 2 2 2 2 2 2 2 2 2 2 2 2 2 2 2 2 2 2 2 2 2 2 2 2
left_child=2 21 14 4 -4 7 8 34 -3 -9 31 13 -13 -5 15 16 25 39 19 24 58 28 46 55 -11 -1 -27 -12 29 -2 -31 -7 -33 -16 35 -6 -19 -20 -38 -18 41 -36 43 -35 53 56 47 -17 49 -48 51 -50 -53 -10 -37 57 -46 -22 -14
right_child=1 6 3 11 5 10 -8 9 44 18 27 12 20 -15 33 22 17 36 37 -21 23 -23 -24 -25 -26 26 -28 -29 -30 30 -32 32 -34 42 40 54 38 -39 -40 -41 -42 -43 -44 -45 45 -47 48 -49 50 -51 -52 52 -54 -55 -56 -57 -58 -59 -60
leaf_value=0.021105895884071402 0.04030666836184988 -0.02279870994763453 -0.014064961904817085 0.032894376326213844 0.031272114334516869 0.011003094581828143 -0.025840926263430077 -0.0051046361115531002 0.031178260888323255 0.037514700107502949 0.017463897412719365 0.044628270233710347 0.020660519203191473 -0.021632165716409805 -0.01075186910714083 -0.044313342168592465 -0.041630330159482386 0.038544788101611147 0.013685059220604723 -0.03297473311266761 -0.0096701304956155719 0.022248321886274729 -0.019888217081706485 -0.028739602529702691 -0.017486461496630454 -0.02510100600163425 0.0098306222204386489 -0.016436608033286112 -0.013036998828411257 0.030981523464675937 -0.02648818400973196 -0.0032206794225475804 -0.017335652905112964 -0.017042469962582789 0.026723191664331531 -0.029544847947293663 0.034429353023008334 -0.011155053676527952 -0.032079599775388511 0.020006861447597533 0.0034145960194618742 -0.0041438384371982424 0.011305461371629263 0.050704413536128624 0.034569989922202435 -0.017854934192358621 0.047067708728327017 0.026244922071151137 0.02503577282387651 0.011614282593060828 0.051774264050888641 0.017209900428370395 -0.048564285805524292 -0.010224647437257506 0.0156372752875906 -0.016075876127773985 -0.0042010635435548675 0.015515714496643495 -0.03168542829833252
leaf_weight=140.93288350012153 16.286014528479427 209.90923786908388 340.26589584664907 81.382841834798455 8.6895378606859577 44.026565863052383 805.43741934478749 249.62770773563534 19.993270291015506 52.73498973227106 72.647567055188119 20.348946970887482 5.3961172238923636 7.7302133161574593 30.197128268424422 4.4156893230974656 8.7988479053601605 111.92974137328565 62.61253118654713 3.4285355904139569 26.884127708151937 127.18066542944871 6.0532935759983948 10.697318457299842 5.6987214847467831 22.608061001170427 178.31105484161526 19.288332092342898 42.487730336957611 8.323172441916542 13.548267644597216 208.07903232984245 209.34282569796778 5.5187061438336995 184.31430111406371 22.519439488882199 3.9151376090012473 48.108998510288075 6.167170038446784 5.1608241805806747 65.448416567407548 31.247170990565792 251.39858709089458 22.299031583592296 9.6482160440646094 109.88195955392439 133.33681247080676 7.636630258988589 63.822914254851639 26.291796324308962 17.078888115938753 7.4536398313939598 10.364948688074945 15.602591664530335 9.8718373985029739 19.312042998382822 83.321034543332644 227.82376393140294 21.13527627591975
leaf_count=2557 620 33865 35547 900 277 3388 140116 20182 1018 1183 5240 165 52 168 643 89 250 1540 2519 118 636 2912 82 604 178 468 3037 2146 3312 284 872 14289 20628 56 4537 1031 52 2347 173 61 3130 1014 5422 177 392 10248 1244 104 768 449 116 76 200 1721 352 1058 5237 4176 569
internal_value=-2.86047e-11 -0.0164952 0.00773039 0.00169483 -0.00124356 0.00214403 -0.0216091 0.00759774 -0.0138809 0.00179412 -0.0051927 0.0130597 0.00893333 0.0275921 0.0193724 0.0224529 0.0171049 0.0291054 0.011686 0.0265477 0.00617951 0.0142203 0.0314019 0.00880796 0.0315357 0.0121115 0.00557599 0.0100452 0.00120224 0.0168442 -0.00347969 -0.00827571 -0.0103757 0.0117137 0.0151151 -0.00418512 0.034994 0.00288199 -0.00421856 -0.0193516 0.0179516 0.0222535 0.0142354 0.0369007 -0.00583721 -0.00941553 0.0327641 -0.00340531 0.0344719 0.0415632 0.0220826 0.0141927 -0.022587 0.0136693 -0.0156106 0.0105811 0.000815252 0.0127725 -0.0199844
internal_weight=4583.97 1461.62 3122.35 2058.66 1637.95 1297.69 1253.79 744.302 448.356 422.211 553.384 420.711 331.598 89.1131 1063.69 754.278 477.824 135.972 172.584 61.8622 311.249 207.826 276.455 284.717 58.4337 341.852 200.919 91.9359 80.6452 38.1575 21.8714 461.448 417.422 309.413 322.091 41.0808 122.012 110.722 10.0823 13.9597 281.01 215.561 279.216 27.8177 238.447 202.851 270.401 12.0523 258.349 159.629 98.7204 81.6415 17.8186 35.5959 32.3913 274.02 92.9693 254.708 26.5314
internal_count=344595 200597 143998 126434 118106 82559 192597 36868 52481 26527 45691 8328 7260 1068 17564 11266 8138 2076 6345 1479 7095 8000 3128 6474 1361 6062 3505 7386 5088 1776 1156 38305 34917 6298 10341 1660 1765 4866 225 311 8681 5551 5655 233 18616 15877 3046 193 2853 1693 1160 1044 276 2739 1383 5870 5629 4812 621
is_linear=0
shrinkage=0.0614439


Tree=13
num_leaves=60
num_cat=0
split_feature=31 31 7 17 33 18 31 58 4 45 58 41 25 41 58 31 43 9 45 21 36 55 33 55 55 6 6 7 58 55 55 28 7 32 9 33 31 36 45 6 32 55 38 43 55 55 32 16 25 7 58 32 31 21 38 58 6 58 3
split_gain=138.764 50.4711 11.6872 10.0959 11.8002 11.3429 7.73728 7.59139 6.14572 7.2994 5.76899 5.48358 5.46496 6.53915 8.83568 6.89728 6.16406 5.98905 5.30253 5.19396 5.35018 5.17357 5.15524 5.00531 5.51526 4.97789 4.82886 4.82173 9.23173 7.01454 7.96906 6.10745 5.28543 6.3006 4.86204 4.80625 4.81168 4.75316 4.70859 4.93043 4.69562 5.74836 4.84113 8.96391 5.1704 5.02925 4.53146 4.49865 4.45556 4.60133 4.38734 4.37921 4.27588 4.79571 5.18173 4.2066 6.09925 4.1563 4.13183
threshold=0.016879891693609025 0.00967466634590162 -0.21983067670723541 -0.050186227698469303 0.020090547545176935 0.068039999178465496 0.028148548161930461 -0.018029416408275375 -0.02463745015081081 0.072569360007746844 -0.0037983969281336623 -0.68427587623496744 0.0098197043413322822 -0.79413499018779288 -0.0004271443022003662 0.0087024250632960262 -0.025832288328791361 39.210285414160317 -0.10433476245646049 0.0085009008643050065 0.81673881594738595 0.013366953664138316 0.01733391995378105 -0.00060164167262100044 0.017002217283792257 0.052941009200333074 0.11040902260369502 0.014010318485819575 -0.0099792367064356884 0.015182722904256931 -0.01879274268758457 -0.0026594031554681308 -0.13165316260623536 0.51317968075079601 46.124952192113874 0.020012773367543698 0.023218487679446984 0.38226778282800672 -0.00072867569799067711 -0.10826887746934775 1.4859846078855166 0.011690579657090751 0.54441544100190498 -0.0060925507414736893 -0.0028477013881558206 -0.0025540161381281119 0.96561569770280975 -1.0073574219638768 0.030228176040144387 0.020397227337859761 0.0086410717375545749 1.2009862078333617 0.011724519409020678 0.0028062661547023863 0.64107341108899052 0.0018606525119704289 -0.037966696148802041 0.0038500952822110306 0.024022198920585661
decision_type=2 2 2 2 2 2 2 2 2 2 2 2 2 2 2 2 2 2 2 2 2 2 2 2 2 2 2 2 2 2 2 2 2 2 2 2 2 2 2 2 2 2 2 2 2 2 2 2 2 2 2 2 2 2 2 2 2 2 2
left_child=1 12 -3 4 38 10 7 8 18 -10 25 -6 13 14 15 37 -15 -16 -2 20 21 -12 -9 26 -25 -5 -14 28 -18 30 -30 34 -32 -34 -29 -20 -37 -1 39 -4 41 42 45 -44 -45 55 -46 -39 49 -7 -21 -51 -22 -54 -55 56 -35 -19 -33
right_child=6 2 3 5 11 48 -8 22 9 -11 19 -13 23 16 17 -17 27 57 35 50 52 -23 -24 24 -26 -27 -28 31 29 -31 32 58 33 40 -36 36 -38 47 -40 -41 -42 -43 43 44 46 -47 -48 -49 -50 51 -52 -53 53 54 -56 -57 -58 -59 -60
leaf_value=-0.029233281262755248 -0.007033665821404615 0.026638901444309335 -0.002440878147458326 -0.0093526519811212797 0.012124885968380987 -0.011563272450982246 -0.025106451507876017 -0.023627614748156056 -0.029570696254827264 0.021814663488643672 -0.00045126767999428461 -0.014457778543139366 0.0064823297722560475 0.043907117337347541 -0.022892172873927859 -0.0038808926388145992 -0.03577515606520458 -0.0063997871550185506 -0.015258803170274253 0.032451747064117464 0.018620451429180403 0.019841921964563795 -0.012837296745744686 0.021561298289653686 -0.018950312567676011 0.013856293975143149 -0.024777790670739368 0.025156259346571962 0.05185775318623078 0.043814254792836516 0.037509415149881334 0.03603012306734231 -0.023917329366529048 0.018261376564924079 -0.019516800076868283 0.047263607389331538 -0.01052516742179784 -0.0044061026320386075 0.0038399604660008554 -0.020656187862101345 -0.025840892316692989 -0.035346677993406773 -0.034481112676639898 0.032023999909004397 -0.024495718973633882 0.032067673388505198 0.01707921513771677 0.03561193398433278 -0.013905858499270538 0.012263044521988386 -0.0065136739002637717 -0.014321517106727457 -0.01297073828371699 0.015346621942408833 -0.0093730092461272521 0.033460348880657888 -0.034007942158276731 0.031530184840922307 0.012583668542751326
leaf_weight=2.8565763297956428 25.943008638452739 64.989098106510937 76.280795353231952 134.15937472973019 135.57874847832136 80.482684486545622 272.96261078433599 215.01199138152879 32.278014748124406 12.183286150800994 362.14254267490469 34.323240250581875 98.115109515143558 52.69064549356699 35.972625365713611 32.54747939389199 9.5805508773773891 22.930255958810449 6.3477359937969586 52.115429903147742 196.18447155295871 51.43246159912087 839.11148529627826 128.50256965402514 11.64835494617 43.780246765352786 19.750456650042906 14.747917613945903 17.216963999439031 33.589453191729262 23.42300932481885 172.26244984287769 18.088291675783694 14.126162473578004 15.862796873319892 25.830389635404575 5.4626873712986699 11.338882375508545 51.797334086149931 218.98897677403875 9.3134346790611726 5.8724793349392703 15.362616872880606 28.169859845656902 15.423803145531563 77.216290901182219 18.148600686807185 84.207400837447494 150.88954418431967 107.12858041725121 12.432546006049959 26.886638992931694 38.244943213881925 148.1121639283374 38.333163724513724 9.9024911506567133 13.63120475318283 16.311025299597532 39.183740898966789
leaf_count=85 2041 2063 6394 8421 3065 5902 50366 33499 4270 1264 19475 1469 2080 595 911 1122 229 431 683 1424 6281 2446 106776 2439 291 2256 744 206 128 312 200 1956 322 199 323 927 771 259 3665 24009 208 129 295 331 222 903 219 1279 16377 6973 400 2619 3813 7183 2199 116 292 217 521
internal_value=6.11303e-11 0.00732744 0.0016176 0.000746585 -0.00659605 0.00338695 -0.0157701 -0.0135158 0.00194472 -0.0149825 0.00655691 0.00659069 0.0181136 0.0206054 0.0109137 0.0203847 0.0238413 -0.00573117 0.0139285 0.00855308 0.00719299 0.00220219 -0.0151015 0.0101387 0.0178546 -0.00350183 0.000739805 0.0216863 0.016301 0.0183189 0.0146269 0.0282672 0.0114381 0.00825128 0.00234255 0.0278081 0.037136 0.0282833 -0.0130526 -0.0160252 0.0113735 0.0134996 0.0155355 0.00341159 0.0140461 0.0233675 -0.00248026 0.0308737 -0.00593251 -0.000204561 0.0249924 0.00672488 0.0120449 0.00612699 0.0101936 0.00443944 -0.0082506 0.0105282 0.0319316
internal_weight=4527.41 3092.28 2024.28 1959.29 516.969 1442.32 1435.13 1162.17 108.045 44.4613 1076.94 169.902 1067.99 809.977 206.164 130.95 603.813 75.2139 63.5838 898.998 834.45 413.575 1054.12 258.016 140.151 177.94 117.866 551.122 309.065 299.485 265.895 242.057 248.678 225.255 30.6107 37.6408 31.2931 98.4029 347.067 295.27 207.167 197.854 191.981 77.1049 61.7423 114.876 33.5724 95.5463 365.387 214.498 64.548 134.015 420.875 224.69 186.445 37.6599 27.7574 39.2413 211.446
internal_count=344595 143998 126434 124371 38602 85769 200597 150231 9956 5534 53898 4534 17564 12010 4304 2745 7706 1559 4422 43221 41397 21921 140275 5554 2730 10677 2824 7111 4105 3876 3564 3006 3436 3236 529 2381 1698 1623 34068 30403 2914 2706 2577 1067 772 1510 441 1538 31871 15494 1824 9592 19476 13195 9382 607 491 648 2477
is_linear=0
shrinkage=0.0614439


Tree=14
num_leaves=60
num_cat=0
split_feature=31 27 31 48 48 33 31 60 60 31 51 60 6 7 7 48 53 18 48 48 6 60 60 48 60 27 55 38 21 60 6 27 41 31 48 55 55 7 55 60 51 33 48 30 28 21 39 55 46 21 38 4 48 6 1 55 29 41 38
split_gain=126.384 47.3216 45.5975 20.1409 13.8367 15.2858 12.2934 7.96041 7.75231 10.0389 7.29603 7.20258 7.69533 8.03705 6.81526 6.31071 6.10999 6.03347 5.94752 5.94065 8.62114 5.60083 6.90407 5.34405 5.22076 5.03553 8.96519 6.57619 4.38994 4.75707 4.31826 4.47874 10.6394 8.32263 7.34232 6.26115 4.6415 5.64997 5.42406 5.07283 5.2224 6.67854 5.78408 7.35625 6.62853 6.59871 5.85686 8.97175 5.25653 4.91857 6.21364 4.72765 4.908 6.85638 8.17475 6.62116 6.85726 4.55427 5.88759
