{"learner":{"attributes":{"scikit_learn":"{\"_estimator_type\": \"classifier\"}"},"feature_names":[],"feature_types":[],"gradient_booster":{"model":{"cats":{"enc":[],"feature_segments":[],"sorted_idx":[]},"gbtree_model_param":{"num_parallel_tree":"1","num_trees":"200"},"iteration_indptr":[0,1,2,3,4,5,6,7,8,9,10,11,12,13,14,15,16,17,18,19,20,21,22,23,24,25,26,27,28,29,30,31,32,33,34,35,36,37,38,39,40,41,42,43,44,45,46,47,48,49,50,51,52,53,54,55,56,57,58,59,60,61,62,63,64,65,66,67,68,69,70,71,72,73,74,75,76,77,78,79,80,81,82,83,84,85,86,87,88,89,90,91,92,93,94,95,96,97,98,99,100,101,102,103,104,105,106,107,108,109,110,111,112,113,114,115,116,117,118,119,120,121,122,123,124,125,126,127,128,129,130,131,132,133,134,135,136,137,138,139,140,141,142,143,144,145,146,147,148,149,150,151,152,153,154,155,156,157,158,159,160,161,162,163,164,165,166,167,168,169,170,171,172,173,174,175,176,177,178,179,180,181,182,183,184,185,186,187,188,189,190,191,192,193,194,195,196,197,198,199,200],"tree_info":[0,0,0,0,0,0,0,0,0,0,0,0,0,0,0,0,0,0,0,0,0,0,0,0,0,0,0,0,0,0,0,0,0,0,0,0,0,0,0,0,0,0,0,0,0,0,0,0,0,0,0,0,0,0,0,0,0,0,0,0,0,0,0,0,0,0,0,0,0,0,0,0,0,0,0,0,0,0,0,0,0,0,0,0,0,0,0,0,0,0,0,0,0,0,0,0,0,0,0,0,0,0,0,0,0,0,0,0,0,0,0,0,0,0,0,0,0,0,0,0,0,0,0,0,0,0,0,0,0,0,0,0,0,0,0,0,0,0,0,0,0,0,0,0,0,0,0,0,0,0,0,0,0,0,0,0,0,0,0,0,0,0,0,0,0,0,0,0,0,0,0,0,0,0,0,0,0,0,0,0,0,0,0,0,0,0,0,0,0,0,0,0,0,0,0,0,0,0,0,0],"trees":[{"base_weights":[-3.5636362E-1,-9.2822963E-1,4.7058824E-2,-7.894737E-2,5.135135E-2],"categories":[],"categories_nodes":[],"categories_segments":[],"categories_sizes":[],"default_left":[0,0,0,0,0],"id":0,"left_children":[1,3,-1,-1,-1],"loss_changes":[6.5418296E0,9.008146E0,0E0,0E0,0E0],"parents":[2147483647,0,0,1,1],"right_children":[2,4,-1,-1,-1],"split_conditions":[3.3483982E1,2.7142147E1,4.7058824E-2,-7.894737E-2,5.135135E-2],"split_indices":[24,42,0,0,0],"split_type":[0,0,0,0,0],"sum_hessian":[6.638889E0,4.8055553E0,1.8333334E0,3.75E0,1.0555556E0],"tree_param":{"num_deleted":"0","num_feature":"50","num_nodes":"5","size_leaf_vector":"1"}},{"base_weights":[1.3059337E-2,-9.951041E-1,8.450273E-1,-6.657113E-2,1.7312972E-3,-9.748458E-3,6.1841514E-2],"categories":[],"categories_nodes":[],"categories_segments":[],"categories_sizes":[],"default_left":[0,0,0,0,0,0,0],"id":1,"left_children":[1,3,5,-1,-1,-1,-1],"loss_changes":[7.9164147E0,1.5259871E0,2.3447244E0,0E0,0E0,0E0,0E0],"parents":[2147483647,0,0,1,1,2,2],"right_children":[2,4,6,-1,-1,-1,-1],"split_conditions":[1.9516947E1,1.5191461E2,2E0,-6.657113E-2,1.7312972E-3,-9.748458E-3,6.1841514E-2],"split_indices":[41,2,30,0,0,0,0],"split_type":[0,0,0,0,0,0,0],"sum_hessian":[7.4356995E0,3.2732053E0,4.162494E0,2.2464979E0,1.0267074E0,1.2765133E0,2.8859806E0],"tree_param":{"num_deleted":"0","num_feature":"50","num_nodes":"7","size_leaf_vector":"1"}},{"base_weights":[-6.5617435E-2,-9.196176E-1,6.896734E-1,-6.401488E-2,3.3878435E-3,-1.7762259E-2,6.581641E-2],"categories":[],"categories_nodes":[],"categories_segments":[],"categories_sizes":[],"default_left":[0,0,0,0,0,0,0],"id":2,"left_children":[1,3,5,-1,-1,-1,-1],"loss_changes":[5.5689964E0,1.5180962E0,3.5002499E0,0E0,0E0,0E0,0E0],"parents":[2147483647,0,0,1,1,2,2],"right_children":[2,4,6,-1,-1,-1,-1],"split_conditions":[1.0961785E0,5.3898968E1,3E0,-6.401488E-2,3.3878435E-3,-1.7762259E-2,6.581641E-2],"split_indices":[38,3,30,0,0,0,0],"split_type":[0,0,0,0,0,0,0],"sum_hessian":[6.650573E0,3.0192115E0,3.631361E0,1.9941101E0,1.0251015E0,1.5237257E0,2.1076353E0],"tree_param":{"num_deleted":"0","num_feature":"50","num_nodes":"7","size_leaf_vector":"1"}},{"base_weights":[-1.0635967E-1,-6.254648E-1,8.345174E-1,5.1817466E-2,-1.1559994E0,8.830162E-4,5.756255E-2,3.0097978E-3,-7.319544E-2],"categories":[],"categories_nodes":[],"categories_segments":[],"categories_sizes":[],"default_left":[0,0,0,0,0,0,0,0,0],"id":3,"left_children":[1,3,5,-1,7,-1,-1,-1,-1],"loss_changes":[4.8747535E0,6.7655873E0,9.103453E-1,0E0,2.0576806E0,0E0,0E0,0E0,0E0],"parents":[2147483647,0,0,1,1,2,2,4,4],"right_children":[2,4,6,-1,8,-1,-1,-1,-1],"split_conditions":[1.3126937E0,5.330211E-1,6.8491714E1,5.1817466E-2,4.182031E2,8.830162E-4,5.756255E-2,3.0097978E-3,-7.319544E-2],"split_indices":[26,38,10,0,5,0,0,0,0],"split_type":[0,0,0,0,0,0,0,0,0],"sum_hessian":[7.9120936E0,5.3149414E0,2.5971522E0,1.0554645E0,4.259477E0,1.0206498E0,1.5765023E0,1.0230572E0,3.23642E0],"tree_param":{"num_deleted":"0","num_feature":"50","num_nodes":"9","size_leaf_vector":"1"}},{"base_weights":[1.336306E-1,-8.882388E-1,8.0075514E-1,-6.101169E-2,2.159987E-3,6.0905732E-2,4.4062906E-3,1.9371558E-3,-1.6047392E-3],"categories":[],"categories_nodes":[],"categories_segments":[],"categories_sizes":[],"default_left":[0,0,0,0,0,0,0,0,0],"id":4,"left_children":[1,3,5,-1,-1,-1,7,-1,-1],"loss_changes":[6.792507E0,1.2888904E0,1.9632099E0,0E0,0E0,0E0,5.054038E-3,0E0,0E0],"parents":[2147483647,0,0,1,1,2,2,6,6],"right_children":[2,4,6,-1,-1,-1,8,-1,-1],"split_conditions":[1.9516947E1,1.0700586E1,-8.403359E0,-6.101169E-2,2.159987E-3,6.0905732E-2,5.622584E1,1.9371558E-3,-1.6047392E-3],"split_indices":[41,7,29,0,0,0,33,0,0],"split_type":[0,0,0,0,0,0,0,0,0],"sum_hessian":[7.920521E0,2.9975593E0,4.922961E0,1.9813049E0,1.0162544E0,2.8825946E0,2.040367E0,1.019702E0,1.0206649E0],"tree_param":{"num_deleted":"0","num_feature":"50","num_nodes":"9","size_leaf_vector":"1"}},{"base_weights":[1.8886563E-1,-5.6274485E-2,6.1460394E-1,1.0085006E0,-2.4433216E-2,1.5455869E-3,1.1936185E0,2.198673E-2,6.9694296E-2],"categories":[],"categories_nodes":[],"categories_segments":[],"categories_sizes":[],"default_left":[0,0,0,0,0,0,0,0,0],"id":5,"left_children":[1,-1,3,5,-1,-1,7,-1,-1],"loss_changes":[6.10513E0,0E0,3.949444E0,1.082901E0,0E0,0E0,1.6852713E-1,0E0,0E0],"parents":[2147483647,0,0,2,2,3,3,6,6],"right_children":[2,-1,4,6,-1,-1,8,-1,-1],"split_conditions":[6.238002E1,-5.6274485E-2,1.3760565E1,4.7877567E1,-2.4433216E-2,1.5455869E-3,1.0961785E0,2.198673E-2,6.9694296E-2],"split_indices":[10,0,47,3,0,0,38,0,0],"split_type":[0,0,0,0,0,0,0,0,0],"sum_hessian":[8.67419E0,1.7201277E0,6.954062E0,5.187781E0,1.7662812E0,1.0117607E0,4.17602E0,1.547262E0,2.628758E0],"tree_param":{"num_deleted":"0","num_feature":"50","num_nodes":"9","size_leaf_vector":"1"}},{"base_weights":[1.7553747E-1,-5.785753E-1,8.7244564E-1,-5.7945378E-2,1.2215617E-2,6.7244894E-3,6.27916E-2],"categories":[],"categories_nodes":[],"categories_segments":[],"categories_sizes":[],"default_left":[0,0,0,0,0,0,0],"id":6,"left_children":[1,3,5,-1,-1,-1,-1],"loss_changes":[5.0405345E0,2.5497751E0,1.2129321E0,0E0,0E0,0E0,0E0],"parents":[2147483647,0,0,1,1,2,2],"right_children":[2,4,6,-1,-1,-1,-1],"split_conditions":[1.9516947E1,3E0,1.0702169E8,-5.7945378E-2,1.2215617E-2,6.7244894E-3,6.27916E-2],"split_indices":[41,30,4,0,0,0,0],"split_type":[0,0,0,0,0,0,0],"sum_hessian":[7.6305428E0,3.7464106E0,3.8841321E0,1.9575374E0,1.7888731E0,1.7898186E0,2.0943134E0],"tree_param":{"num_deleted":"0","num_feature":"50","num_nodes":"7","size_leaf_vector":"1"}},{"base_weights":[3.011814E-1,6.2968045E-1,-4.857173E-2,6.431481E-2,-3.9479926E-1,-6.0152885E-2,4.435014E-2],"categories":[],"categories_nodes":[],"categories_segments":[],"categories_sizes":[],"default_left":[0,0,0,0,0,0,0],"id":7,"left_children":[1,3,-1,-1,5,-1,-1],"loss_changes":[4.3328342E0,5.675167E0,0E0,0E0,4.9682746E0,0E0,0E0],"parents":[2147483647,0,0,1,1,4,4],"right_children":[2,4,-1,-1,6,-1,-1],"split_conditions":[1.8100112E3,-8.403359E0,-4.857173E-2,6.431481E-2,5.381139E0,-6.0152885E-2,4.435014E-2],"split_indices":[8,29,0,0,21,0,0],"split_type":[0,0,0,0,0,0,0],"sum_hessian":[7.90112E0,6.681611E0,1.2195094E0,3.916112E0,2.7654989E0,1.7337136E0,1.0317852E0],"tree_param":{"num_deleted":"0","num_feature":"50","num_nodes":"7","size_leaf_vector":"1"}},{"base_weights":[9.531463E-2,-6.0643833E-2,8.2356167E-1,-8.605847E-3,5.7618488E-2],"categories":[],"categories_nodes":[],"categories_segments":[],"categories_sizes":[],"default_left":[0,0,0,0,0],"id":8,"left_children":[1,-1,3,-1,-1],"loss_changes":[8.444517E0,0E0,2.0369961E0,0E0,0E0],"parents":[2147483647,0,0,2,2],"right_children":[2,-1,4,-1,-1],"split_conditions":[1.0961785E0,-6.0643833E-2,1.8302557E1,-8.605847E-3,5.7618488E-2],"split_indices":[38,0,1,0,0],"split_type":[0,0,0,0,0],"sum_hessian":[6.815414E0,2.1992688E0,4.616145E0,1.264276E0,3.351869E0],"tree_param":{"num_deleted":"0","num_feature":"50","num_nodes":"5","size_leaf_vector":"1"}},{"base_weights":[6.0386304E-2,-5.5909313E-2,6.1482805E-1,1.0225362E0,-1.8880755E-2,6.528605E-2,7.483562E-5],"categories":[],"categories_nodes":[],"categories_segments":[],"categories_sizes":[],"default_left":[0,0,0,0,0,0,0],"id":9,"left_children":[1,-1,3,5,-1,-1,-1],"loss_changes":[5.9459944E0,0E0,2.8616154E0,1.3298879E0,0E0,0E0,0E0],"parents":[2147483647,0,0,2,2,3,3],"right_children":[2,-1,4,6,-1,-1,-1],"split_conditions":[4.7877567E1,-5.5909313E-2,1.3625808E1,2.9808054E1,-1.8880755E-2,6.528605E-2,7.483562E-5],"split_indices":[3,0,47,1,0,0,0],"split_type":[0,0,0,0,0,0,0],"sum_hessian":[7.047293E0,1.9293373E0,5.117956E0,3.6061728E0,1.5117831E0,2.6048918E0,1.001281E0],"tree_param":{"num_deleted":"0","num_feature":"50","num_nodes":"7","size_leaf_vector":"1"}},{"base_weights":[8.191788E-2,-4.3797266E-1,5.0496247E-2,-6.4513944E-2,4.8869848E-1,5.4292586E-2,-1.5935477E-2],"categories":[],"categories_nodes":[],"categories_segments":[],"categories_sizes":[],"default_left":[0,0,0,0,0,0,0],"id":10,"left_children":[1,3,-1,-1,5,-1,-1],"loss_changes":[5.151709E0,6.122699E0,0E0,0E0,2.3020606E0,0E0,0E0],"parents":[2147483647,0,0,1,1,4,4],"right_children":[2,4,-1,-1,6,-1,-1],"split_conditions":[3.3483982E1,2.4176022E1,5.0496247E-2,-6.4513944E-2,2.5014057E1,5.4292586E-2,-1.5935477E-2],"split_indices":[24,42,0,0,24,0,0],"split_type":[0,0,0,0,0,0,0],"sum_hessian":[8.761161E0,5.9537725E0,2.8073878E0,2.896935E0,3.0568376E0,1.558972E0,1.4978657E0],"tree_param":{"num_deleted":"0","num_feature":"50","num_nodes":"7","size_leaf_vector":"1"}},{"base_weights":[-9.532298E-3,-8.519288E-1,5.696493E-1,3.1090423E-3,-5.8151722E-2,-1.661304E-2,9.386187E-1,6.0727626E-2,-8.949904E-4],"categories":[],"categories_nodes":[],"categories_segments":[],"categories_sizes":[],"default_left":[0,0,0,0,0,0,0,0,0],"id":11,"left_children":[1,3,5,-1,-1,-1,7,-1,-1],"loss_changes":[4.9652953E0,1.2501657E0,2.3219905E0,0E0,0E0,0E0,1.2221713E0,0E0,0E0],"parents":[2147483647,0,0,1,1,2,2,6,6],"right_children":[2,4,6,-1,-1,-1,8,-1,-1],"split_conditions":[3.3240992E7,3.628291E-1,1.0961785E0,3.1090423E-3,-5.8151722E-2,-1.661304E-2,7.556049E8,6.0727626E-2,-8.949904E-4],"split_indices":[44,26,38,0,0,0,4,0,0],"split_type":[0,0,0,0,0,0,0,0,0],"sum_hessian":[8.182189E0,3.1417384E0,5.040451E0,1.000916E0,2.1408222E0,1.4922587E0,3.5481925E0,2.544421E0,1.0037714E0],"tree_param":{"num_deleted":"0","num_feature":"50","num_nodes":"9","size_leaf_vector":"1"}},{"base_weights":[1.2605132E-1,-6.593976E-1,9.5254296E-1,1.0492339E-2,-5.9938647E-2,5.776691E-2,1.5672155E-2],"categories":[],"categories_nodes":[],"categories_segments":[],"categories_sizes":[],"default_left":[0,0,0,0,0,0,0],"id":12,"left_children":[1,3,5,-1,-1,-1,-1],"loss_changes":[6.0925837E0,2.5521696E0,2.2248888E-1,0E0,0E0,0E0,0E0],"parents":[2147483647,0,0,1,1,2,2],"right_children":[2,4,6,-1,-1,-1,-1],"split_conditions":[1.0700586E1,8.0106574E-1,3.6102662E0,1.0492339E-2,-5.9938647E-2,5.776691E-2,1.5672155E-2],"split_indices":[7,43,21,0,0,0,0],"split_type":[0,0,0,0,0,0,0],"sum_hessian":[7.4176793E0,3.906933E0,3.510746E0,1.7299432E0,2.17699E0,2.0518935E0,1.4588525E0],"tree_param":{"num_deleted":"0","num_feature":"50","num_nodes":"7","size_leaf_vector":"1"}},{"base_weights":[1.9934455E-1,7.4109143E-1,-3.9380804E-1,-1.4124437E-2,6.17595E-2,-6.292837E-2,4.78602E-2],"categories":[],"categories_nodes":[],"categories_segments":[],"categories_sizes":[],"default_left":[0,0,0,0,0,0,0],"id":13,"left_children":[1,3,5,-1,-1,-1,-1],"loss_changes":[3.1568604E0,2.8811424E0,6.9399056E0,0E0,0E0,0E0,0E0],"parents":[2147483647,0,0,1,1,2,2],"right_children":[2,4,6,-1,-1,-1,-1],"split_conditions":[2.3324382E0,2.1569E1,3.2343318E0,-1.4124437E-2,6.17595E-2,-6.292837E-2,4.78602E-2],"split_indices":[21,42,26,0,0,0,0],"split_type":[0,0,0,0,0,0,0],"sum_hessian":[7.915869E0,4.0068564E0,3.9090126E0,1.4439105E0,2.562946E0,2.4251456E0,1.483867E0],"tree_param":{"num_deleted":"0","num_feature":"50","num_nodes":"7","size_leaf_vector":"1"}},{"base_weights":[1.5127261E-1,-5.7452184E-1,7.350673E-1,2.9853946E-2,-5.9164282E-2,5.8217376E-2,-8.129774E-4],"categories":[],"categories_nodes":[],"categories_segments":[],"categories_sizes":[],"default_left":[0,0,0,0,0,0,0],"id":14,"left_children":[1,3,5,-1,-1,-1,-1],"loss_changes":[4.2648115E0,3.9901724E0,1.7814462E0,0E0,0E0,0E0,0E0],"parents":[2147483647,0,0,1,1,2,2],"right_children":[2,4,6,-1,-1,-1,-1],"split_conditions":[3.3240992E7,-1.8274615E-2,8.698738E7,2.9853946E-2,-5.9164282E-2,5.8217376E-2,-8.129774E-4],"split_indices":[44,27,44,0,0,0,0],"split_type":[0,0,0,0,0,0,0],"sum_hessian":[8.068595E0,3.6039364E0,4.4646587E0,1.2388649E0,2.3650715E0,2.491428E0,1.973231E0],"tree_param":{"num_deleted":"0","num_feature":"50","num_nodes":"7","size_leaf_vector":"1"}},{"base_weights":[4.525895E-3,-6.111377E-1,6.084026E-1,-5.851565E-2,1.9681571E-2,4.7357965E-2,-1.1439304E-2],"categories":[],"categories_nodes":[],"categories_segments":[],"categories_sizes":[],"default_left":[0,0,0,0,0,0,0],"id":15,"left_children":[1,3,5,-1,-1,-1,-1],"loss_changes":[3.6272895E0,3.177026E0,1.6124794E0,0E0,0E0,0E0,0E0],"parents":[2147483647,0,0,1,1,2,2],"right_children":[2,4,6,-1,-1,-1,-1],"split_conditions":[1.1709221E1,2.4153862E1,3.4517883E1,-5.851565E-2,1.9681571E-2,4.7357965E-2,-1.1439304E-2],"split_indices":[7,42,1,0,0,0,0],"split_type":[0,0,0,0,0,0,0],"sum_hessian":[7.7563305E0,3.834729E0,3.9216015E0,2.3578033E0,1.4769257E0,2.6983821E0,1.2232195E0],"tree_param":{"num_deleted":"0","num_feature":"50","num_nodes":"7","size_leaf_vector":"1"}},{"base_weights":[1.3004279E-1,3.9006528E-1,-4.3581948E-2,8.661188E-1,-4.0760586E-1,8.153117E-3,5.8238197E-2,-5.2262772E-2,2.561065E-2],"categories":[],"categories_nodes":[],"categories_segments":[],"categories_sizes":[],"default_left":[0,0,0,0,0,0,0,0,0],"id":16,"left_children":[1,3,-1,5,7,-1,-1,-1,-1],"loss_changes":[2.679221E0,3.3229628E0,0E0,9.056573E-1,2.648696E0,0E0,0E0,0E0,0E0],"parents":[2147483647,0,0,1,1,3,3,4,4],"right_children":[2,4,-1,6,8,-1,-1,-1,-1],"split_conditions":[1.8100112E3,-8.403359E0,-4.3581948E-2,-1.2138784E1,-1.6774297E0,8.153117E-3,5.8238197E-2,-5.2262772E-2,2.561065E-2],"split_indices":[8,29,0,29,29,0,0,0,0],"split_type":[0,0,0,0,0,0,0,0,0],"sum_hessian":[7.9811363E0,6.8210716E0,1.1600646E0,4.2179637E0,2.603108E0,1.7184575E0,2.4995062E0,1.4568199E0,1.146288E0],"tree_param":{"num_deleted":"0","num_feature":"50","num_nodes":"9","size_leaf_vector":"1"}},{"base_weights":[1.8071672E-1,-6.9285583E-1,6.5916115E-1,-4.703596E-3,-4.7227632E-2,5.1446326E-2,-5.3339526E-3],"categories":[],"categories_nodes":[],"categories_segments":[],"categories_sizes":[],"default_left":[0,0,0,0,0,0,0],"id":17,"left_children":[1,3,5,-1,-1,-1,-1],"loss_changes":[4.076543E0,4.4653046E-1,1.8395581E0,0E0,0E0,0E0,0E0],"parents":[2147483647,0,0,1,1,2,2],"right_children":[2,4,6,-1,-1,-1,-1],"split_conditions":[1.4607773E1,7.803275E-1,-8.403359E0,-4.703596E-3,-4.7227632E-2,5.1446326E-2,-5.3339526E-3],"split_indices":[0,38,29,0,0,0,0],"split_type":[0,0,0,0,0,0,0],"sum_hessian":[7.660816E0,2.5523818E0,5.1084347E0,1.1619252E0,1.3904564E0,3.2134032E0,1.8950316E0],"tree_param":{"num_deleted":"0","num_feature":"50","num_nodes":"7","size_leaf_vector":"1"}},{"base_weights":[-1.7353174E-1,-8.840905E-1,4.948115E-2,-3.961315E-3,-5.6946646E-2],"categories":[],"categories_nodes":[],"categories_segments":[],"categories_sizes":[],"default_left":[0,0,0,0,0],"id":18,"left_children":[1,3,-1,-1,-1],"loss_changes":[6.141532E0,8.294771E-1,0E0,0E0,0E0],"parents":[2147483647,0,0,1,1],"right_children":[2,4,-1,-1,-1],"split_conditions":[3.3389057E1,1.1969294E1,4.948115E-2,-3.961315E-3,-5.6946646E-2],"split_indices":[24,0,0,0,0],"split_type":[0,0,0,0,0],"sum_hessian":[5.3722706E0,3.4839082E0,1.888362E0,1.1530707E0,2.3308377E0],"tree_param":{"num_deleted":"0","num_feature":"50","num_nodes":"5","size_leaf_vector":"1"}},{"base_weights":[4.339665E-2,-6.196607E-1,7.151783E-1,-5.6646295E-2,2.3850504E-2,4.8104986E-3,5.149522E-2],"categories":[],"categories_nodes":[],"categories_segments":[],"categories_sizes":[],"default_left":[0,0,0,0,0,0,0],"id":19,"left_children":[1,3,5,-1,-1,-1,-1],"loss_changes":[4.1316586E0,3.187775E0,7.9264116E-1,0E0,0E0,0E0,0E0],"parents":[2147483647,0,0,1,1,2,2],"right_children":[2,4,6,-1,-1,-1,-1],"split_conditions":[1.0766071E0,5.6315627E0,1.1178249E8,-5.6646295E-2,2.3850504E-2,4.8104986E-3,5.149522E-2],"split_indices":[27,22,4,0,0,0,0],"split_type":[0,0,0,0,0,0,0],"sum_hessian":[7.280746E0,3.7032127E0,3.5775335E0,2.5000684E0,1.2031443E0,1.6460193E0,1.931514E0],"tree_param":{"num_deleted":"0","num_feature":"50","num_nodes":"7","size_leaf_vector":"1"}},{"base_weights":[6.03048E-3,-4.5832004E-2,3.024377E-1,5.0694294E-2,-3.9840657E-1,-5.216685E-2,1.9134868E-2],"categories":[],"categories_nodes":[],"categories_segments":[],"categories_sizes":[],"default_left":[0,0,0,0,0,0,0],"id":20,"left_children":[1,-1,3,-1,5,-1,-1],"loss_changes":[2.8529937E0,0E0,4.3331304E0,0E0,2.760694E0,0E0,0E0],"parents":[2147483647,0,0,2,2,4,4],"right_children":[2,-1,4,-1,6,-1,-1],"split_conditions":[6.238002E1,-4.5832004E-2,2.3324382E0,5.0694294E-2,1.3830856E1,-5.216685E-2,1.9134868E-2],"split_indices":[10,0,21,0,7,0,0],"split_type":[0,0,0,0,0,0,0],"sum_hessian":[8.418272E0,1.5380509E0,6.880221E0,3.192626E0,3.687595E0,1.8359739E0,1.851621E0],"tree_param":{"num_deleted":"0","num_feature":"50","num_nodes":"7","size_leaf_vector":"1"}},{"base_weights":[1.1085469E-1,-4.299548E-2,4.3436393E-1,9.2874235E-1,-2.847468E-2,1.4329192E-2,5.5324752E-2],"categories":[],"categories_nodes":[],"categories_segments":[],"categories_sizes":[],"default_left":[0,0,0,0,0,0,0],"id":21,"left_children":[1,-1,3,5,-1,-1,-1],"loss_changes":[2.8674572E0,0E0,3.8146496E0,2.3263502E-1,0E0,0E0,0E0],"parents":[2147483647,0,0,2,2,3,3],"right_children":[2,-1,4,6,-1,-1,-1],"split_conditions":[2.0295738E1,-4.299548E-2,-8.403359E0,1E0,-2.847468E-2,1.4329192E-2,5.5324752E-2],"split_indices":[42,0,29,46,0,0,0],"split_type":[0,0,0,0,0,0,0],"sum_hessian":[6.9412003E0,1.3205417E0,5.6206584E0,3.816125E0,1.8045337E0,1.3936424E0,2.4224825E0],"tree_param":{"num_deleted":"0","num_feature":"50","num_nodes":"7","size_leaf_vector":"1"}},{"base_weights":[1.4701772E-1,-3.4623957E-1,6.4918774E-1,2.8047292E-2,-7.90282E-1,-1.111079E-2,5.1720943E-2,-5.3095003E-3,-5.1354267E-2],"categories":[],"categories_nodes":[],"categories_segments":[],"categories_sizes":[],"default_left":[0,0,0,0,0,0,0,0,0],"id":22,"left_children":[1,3,5,-1,7,-1,-1,-1,-1],"loss_changes":[2.3096843E0,2.416525E0,1.7467551E0,0E0,4.9093533E-1,0E0,0E0,0E0,0E0],"parents":[2147483647,0,0,1,1,2,2,4,4],"right_children":[2,4,6,-1,8,-1,-1,-1,-1],"split_conditions":[1.0766071E0,-1.8274615E-2,7.7721155E2,2.8047292E-2,5.0638176E1,-1.111079E-2,5.1720943E-2,-5.3095003E-3,-5.1354267E-2],"split_indices":[27,27,5,0,3,0,0,0,0],"split_type":[0,0,0,0,0,0,0,0,0],"sum_hessian":[7.417109E0,3.8984067E0,3.5187025E0,1.1945838E0,2.7038229E0,1.2084091E0,2.3102932E0,1.0677298E0,1.6360931E0],"tree_param":{"num_deleted":"0","num_feature":"50","num_nodes":"9","size_leaf_vector":"1"}},{"base_weights":[-1.650087E-1,-6.585049E-1,5.018925E-1,1.5867397E-2,-5.6167334E-2,4.6880756E-2,-1.4374423E-2],"categories":[],"categories_nodes":[],"categories_segments":[],"categories_sizes":[],"default_left":[0,0,0,0,0,0,0],"id":23,"left_children":[1,3,5,-1,-1,-1,-1],"loss_changes":[2.9833255E0,2.6540847E0,1.6438037E0,0E0,0E0,0E0,0E0],"parents":[2147483647,0,0,1,1,2,2],"right_children":[2,4,6,-1,-1,-1,-1],"split_conditions":[5.6315627E0,7.6094794E2,2.7691307E1,1.5867397E-2,-5.6167334E-2,4.6880756E-2,-1.4374423E-2],"split_indices":[22,23,41,0,0,0,0],"split_type":[0,0,0,0,0,0,0],"sum_hessian":[7.06053E0,4.065049E0,2.995481E0,1.4139696E0,2.6510797E0,1.8091055E0,1.1863755E0],"tree_param":{"num_deleted":"0","num_feature":"50","num_nodes":"7","size_leaf_vector":"1"}},{"base_weights":[-3.9988108E-2,-7.0122844E-1,4.0918747E-1,-6.384452E-3,-4.5768984E-2,4.4016752E-2,-2.0890655E-2],"categories":[],"categories_nodes":[],"categories_segments":[],"categories_sizes":[],"default_left":[0,0,0,0,0,0,0],"id":24,"left_children":[1,3,5,-1,-1,-1,-1],"loss_changes":[2.5437136E0,3.0588603E-1,2.3768644E0,0E0,0E0,0E0,0E0],"parents":[2147483647,0,0,1,1,2,2],"right_children":[2,4,6,-1,-1,-1,-1],"split_conditions":[1.1178249E8,-1.4995365E7,2.3324382E0,-6.384452E-3,-4.5768984E-2,4.4016752E-2,-2.0890655E-2],"split_indices":[4,4,21,0,0,0,0],"split_type":[0,0,0,0,0,0,0],"sum_hessian":[6.5982523E0,2.4420767E0,4.1561756E0,1.0979105E0,1.3441663E0,2.6066554E0,1.54952E0],"tree_param":{"num_deleted":"0","num_feature":"50","num_nodes":"7","size_leaf_vector":"1"}},{"base_weights":[1.287493E-1,-4.049699E-1,7.586843E-1,-7.9358816E-1,2.5318656E-2,9.62736E-3,4.8148457E-2,-5.1853047E-3,-5.065564E-2],"categories":[],"categories_nodes":[],"categories_segments":[],"categories_sizes":[],"default_left":[0,0,0,0,0,0,0,0,0],"id":25,"left_children":[1,3,5,7,-1,-1,-1,-1,-1],"loss_changes":[3.1413038E0,2.2488952E0,3.019755E-1,5.076361E-1,0E0,0E0,0E0,0E0,0E0],"parents":[2147483647,0,0,1,1,2,2,3,3],"right_children":[2,4,6,8,-1,-1,-1,-1,-1],"split_conditions":[1.0766071E0,8.337572E1,6.96905E1,8.2082516E-1,2.5318656E-2,9.62736E-3,4.8148457E-2,-5.1853047E-3,-5.065564E-2],"split_indices":[27,33,33,43,0,0,0,0,0],"split_type":[0,0,0,0,0,0,0,0,0],"sum_hessian":[7.429473E0,4.215213E0,3.21426E0,3.0456748E0,1.1695379E0,1.3673764E0,1.8468837E0,1.0906357E0,1.9550391E0],"tree_param":{"num_deleted":"0","num_feature":"50","num_nodes":"9","size_leaf_vector":"1"}},{"base_weights":[2.5584266E-2,-4.5595136E-2,4.198839E-1,4.6995196E-2,-3.376546E-1,-4.507067E-2,2.0104649E-2],"categories":[],"categories_nodes":[],"categories_segments":[],"categories_sizes":[],"default_left":[0,0,0,0,0,0,0],"id":26,"left_children":[1,-1,3,-1,5,-1,-1],"loss_changes":[3.3227103E0,0E0,2.792482E0,0E0,1.7358344E0,0E0,0E0],"parents":[2147483647,0,0,2,2,4,4],"right_children":[2,-1,4,-1,6,-1,-1],"split_conditions":[1.4607773E1,-4.5595136E-2,-8.403359E0,4.6995196E-2,6.9094696E1,-4.507067E-2,2.0104649E-2],"split_indices":[0,0,29,0,16,0,0],"split_type":[0,0,0,0,0,0,0],"sum_hessian":[6.952958E0,1.6698965E0,5.2830615E0,2.9898882E0,2.2931733E0,1.1773657E0,1.1158077E0],"tree_param":{"num_deleted":"0","num_feature":"50","num_nodes":"7","size_leaf_vector":"1"}},{"base_weights":[-2.2132106E-1,-7.2727907E-1,3.1311244E-2,-5.6141295E-2,1.8787896E-2],"categories":[],"categories_nodes":[],"categories_segments":[],"categories_sizes":[],"default_left":[0,0,0,0,0],"id":27,"left_children":[1,3,-1,-1,-1],"loss_changes":[3.6243734E0,2.6427312E0,0E0,0E0,0E0],"parents":[2147483647,0,0,1,1],"right_children":[2,4,-1,-1,-1],"split_conditions":[2.5202934E1,6.5804634E1,3.1311244E-2,-5.6141295E-2,1.8787896E-2],"split_indices":[42,16,0,0,0],"split_type":[0,0,0,0,0],"sum_hessian":[6.3898454E0,4.090091E0,2.2997544E0,2.9973185E0,1.0927727E0],"tree_param":{"num_deleted":"0","num_feature":"50","num_nodes":"5","size_leaf_vector":"1"}},{"base_weights":[8.060626E-2,-2.3476939E-1,4.3325257E-2,-8.3636415E-1,3.4713835E-2,-5.3009767E-2,-3.8374593E-3],"categories":[],"categories_nodes":[],"categories_segments":[],"categories_sizes":[],"default_left":[0,0,0,0,0,0,0],"id":28,"left_children":[1,3,-1,5,-1,-1,-1],"loss_changes":[2.0852838E0,4.048762E0,0E0,6.3611674E-1,0E0,0E0,0E0],"parents":[2147483647,0,0,1,1,3,3],"right_children":[2,4,-1,6,-1,-1,-1],"split_conditions":[8.107768E1,3.6484196E1,4.3325257E-2,2.0903864E1,3.4713835E-2,-5.3009767E-2,-3.8374593E-3],"split_indices":[33,24,0,25,0,0,0],"split_type":[0,0,0,0,0,0,0],"sum_hessian":[6.5926127E0,5.2051115E0,1.3875015E0,3.2198737E0,1.9852376E0,2.1813946E0,1.0384792E0],"tree_param":{"num_deleted":"0","num_feature":"50","num_nodes":"7","size_leaf_vector":"1"}},{"base_weights":[-5.335756E-2,-4.728328E-1,6.0204387E-1,2.6625237E-1,-5.2136224E-2,4.03404E-2,6.8682553E-3,2.7053861E-2,-6.935678E-3],"categories":[],"categories_nodes":[],"categories_segments":[],"categories_sizes":[],"default_left":[0,0,0,0,0,0,0,0,0],"id":29,"left_children":[1,3,5,7,-1,-1,-1,-1,-1],"loss_changes":[2.5289793E0,2.610093E0,2.3415518E-1,4.3203783E-1,0E0,0E0,0E0,0E0,0E0],"parents":[2147483647,0,0,1,1,2,2,3,3],"right_children":[2,4,6,8,-1,-1,-1,-1,-1],"split_conditions":[3.3483982E1,2.5014057E1,7.816371E1,2.446159E1,-5.2136224E-2,4.03404E-2,6.8682553E-3,2.7053861E-2,-6.935678E-3],"split_indices":[24,24,9,1,0,0,0,0,0],"split_type":[0,0,0,0,0,0,0,0,0],"sum_hessian":[7.1633744E0,4.5376873E0,2.6256866E0,2.2075484E0,2.3301392E0,1.311496E0,1.3141906E0,1.1148586E0,1.0926898E0],"tree_param":{"num_deleted":"0","num_feature":"50","num_nodes":"9","size_leaf_vector":"1"}},{"base_weights":[9.147971E-2,-3.8059745E-2,3.6643332E-1,3.834579E-2,-1.3027269E-1,-4.488028E-2,3.845467E-2],"categories":[],"categories_nodes":[],"categories_segments":[],"categories_sizes":[],"default_left":[0,0,0,0,0,0,0],"id":30,"left_children":[1,-1,3,-1,5,-1,-1],"loss_changes":[2.073782E0,0E0,1.3857495E0,0E0,3.2714949E0,0E0,0E0],"parents":[2147483647,0,0,2,2,4,4],"right_children":[2,-1,4,-1,6,-1,-1],"split_conditions":[4.5527344E1,-3.8059745E-2,2.1667037E0,3.834579E-2,3.2343318E0,-4.488028E-2,3.845467E-2],"split_indices":[3,0,21,0,26,0,0],"split_type":[0,0,0,0,0,0,0],"sum_hessian":[6.6557302E0,1.1916834E0,5.464047E0,2.7238593E0,2.7401874E0,1.4796867E0,1.2605008E0],"tree_param":{"num_deleted":"0","num_feature":"50","num_nodes":"7","size_leaf_vector":"1"}},{"base_weights":[7.9194605E-2,-1.8938266E-1,4.185706E-2,-4.9219843E-2,3.5570106E-1,-2.3436796E-2,4.766113E-2],"categories":[],"categories_nodes":[],"categories_segments":[],"categories_sizes":[],"default_left":[0,0,0,0,0,0,0],"id":31,"left_children":[1,3,-1,-1,5,-1,-1],"loss_changes":[1.8427454E0,3.3508017E0,0E0,0E0,2.8322823E0,0E0,0E0],"parents":[2147483647,0,0,1,1,4,4],"right_children":[2,4,-1,-1,6,-1,-1],"split_conditions":[8.337572E1,1.0961785E0,4.185706E-2,-4.9219843E-2,7.3004776E7,-2.3436796E-2,4.766113E-2],"split_indices":[33,38,0,0,44,0,0],"split_type":[0,0,0,0,0,0,0],"sum_hessian":[7.2734604E0,5.9243226E0,1.3491378E0,2.0818915E0,3.842431E0,1.705198E0,2.137233E0],"tree_param":{"num_deleted":"0","num_feature":"50","num_nodes":"7","size_leaf_vector":"1"}},{"base_weights":[1.4580369E-1,-2.6231244E-1,3.967007E-2,-7.9315925E-1,4.104037E-2,-5.0400503E-2,-2.619014E-3],"categories":[],"categories_nodes":[],"categories_segments":[],"categories_sizes":[],"default_left":[0,0,0,0,0,0,0],"id":32,"left_children":[1,3,-1,5,-1,-1,-1],"loss_changes":[2.2896483E0,3.8609216E0,0E0,6.2442446E-1,0E0,0E0,0E0],"parents":[2147483647,0,0,1,1,3,3],"right_children":[2,4,-1,6,-1,-1,-1],"split_conditions":[7.3004776E7,8.2975105E1,3.967007E-2,2.012364E1,4.104037E-2,-5.0400503E-2,-2.619014E-3],"split_indices":[44,33,0,25,0,0,0],"split_type":[0,0,0,0,0,0,0],"sum_hessian":[6.875778E0,4.582703E0,2.2930748E0,3.2550719E0,1.3276315E0,2.243607E0,1.0114648E0],"tree_param":{"num_deleted":"0","num_feature":"50","num_nodes":"7","size_leaf_vector":"1"}},{"base_weights":[-1.8478362E-2,-5.3820205E-1,5.217691E-1,-4.889386E-2,1.5739428E-2,-1.0941786E-2,4.5469172E-2],"categories":[],"categories_nodes":[],"categories_segments":[],"categories_sizes":[],"default_left":[0,0,0,0,0,0,0],"id":33,"left_children":[1,3,5,-1,-1,-1,-1],"loss_changes":[2.463673E0,1.9784918E0,1.4390358E0,0E0,0E0,0E0,0E0],"parents":[2147483647,0,0,1,1,2,2],"right_children":[2,4,6,-1,-1,-1,-1],"split_conditions":[1.1709221E1,2.4153862E1,5.6315627E0,-4.889386E-2,1.5739428E-2,-1.0941786E-2,4.5469172E-2],"split_indices":[7,42,22,0,0,0,0],"split_type":[0,0,0,0,0,0,0],"sum_hessian":[6.774275E0,3.4546509E0,3.3196237E0,2.1830068E0,1.2716442E0,1.290097E0,2.0295267E0],"tree_param":{"num_deleted":"0","num_feature":"50","num_nodes":"7","size_leaf_vector":"1"}},{"base_weights":[9.3356766E-2,4.9596503E-1,-2.9407775E-2,-1.3346064E-2,4.190391E-2],"categories":[],"categories_nodes":[],"categories_segments":[],"categories_sizes":[],"default_left":[0,0,0,0,0],"id":34,"left_children":[1,3,-1,-1,-1],"loss_changes":[2.0341628E0,1.407208E0,0E0,0E0,0E0],"parents":[2147483647,0,0,1,1],"right_children":[2,4,-1,-1,-1],"split_conditions":[-8.403359E0,2.1569E1,-2.9407775E-2,-1.3346064E-2,4.190391E-2],"split_indices":[29,42,0,0,0],"split_type":[0,0,0,0,0],"sum_hessian":[5.3504715E0,3.5346246E0,1.8158468E0,1.1623836E0,2.372241E0],"tree_param":{"num_deleted":"0","num_feature":"50","num_nodes":"5","size_leaf_vector":"1"}},{"base_weights":[-5.1265705E-2,-5.1981306E-1,4.9854416E-1,9.571703E-3,-4.7075942E-2,-7.0489333E-3,4.1371472E-2],"categories":[],"categories_nodes":[],"categories_segments":[],"categories_sizes":[],"default_left":[0,0,0,0,0,0,0],"id":35,"left_children":[1,3,5,-1,-1,-1,-1],"loss_changes":[2.0529466E0,1.4546613E0,8.978577E-1,0E0,0E0,0E0,0E0],"parents":[2147483647,0,0,1,1,2,2],"right_children":[2,4,6,-1,-1,-1,-1],"split_conditions":[1.1709221E1,2.5014057E1,5.6315627E0,9.571703E-3,-4.7075942E-2,-7.0489333E-3,4.1371472E-2],"split_indices":[7,24,22,0,0,0,0],"split_type":[0,0,0,0,0,0,0],"sum_hessian":[5.9631734E0,3.2489665E0,2.7142072E0,1.4125738E0,1.8363926E0,1.11582E0,1.598387E0],"tree_param":{"num_deleted":"0","num_feature":"50","num_nodes":"7","size_leaf_vector":"1"}},{"base_weights":[-3.4025595E-2,4.7517174E-1,-4.0271533E-1,-7.563211E-3,4.109524E-2,1.3325857E-1,-4.5024704E-2,-8.423574E-3,1.8259728E-2],"categories":[],"categories_nodes":[],"categories_segments":[],"categories_sizes":[],"default_left":[0,0,0,0,0,0,0,0,0],"id":36,"left_children":[1,3,5,-1,-1,7,-1,-1,-1],"loss_changes":[1.5008355E0,8.6023927E-1,1.343796E0,0E0,0E0,2.7705956E-1,0E0,0E0,0E0],"parents":[2147483647,0,0,1,1,2,2,5,5],"right_children":[2,4,6,-1,-1,8,-1,-1,-1],"split_conditions":[8.3164984E-1,6.451831E1,5.362188E1,-7.563211E-3,4.109524E-2,1.842427E1,-4.5024704E-2,-8.423574E-3,1.8259728E-2],"split_indices":[43,9,3,0,0,0,0,0,0],"split_type":[0,0,0,0,0,0,0,0,0],"sum_hessian":[5.9751024E0,2.388094E0,3.5870085E0,1.0517185E0,1.3363755E0,2.0798562E0,1.5071522E0,1.0228457E0,1.0570104E0],"tree_param":{"num_deleted":"0","num_feature":"50","num_nodes":"9","size_leaf_vector":"1"}},{"base_weights":[3.8572773E-3,-5.768023E-1,3.5571033E-1,-3.5321487E-3,-3.878796E-2,7.6583225E-1,-2.2109834E-2,4.449978E-2,1.223393E-2],"categories":[],"categories_nodes":[],"categories_segments":[],"categories_sizes":[],"default_left":[0,0,0,0,0,0,0,0,0],"id":37,"left_children":[1,3,5,-1,-1,7,-1,-1,-1],"loss_changes":[1.7312849E0,2.674402E-1,2.0631328E0,0E0,0E0,3.1154156E-2,0E0,0E0,0E0],"parents":[2147483647,0,0,1,1,2,2,5,5],"right_children":[2,4,6,-1,-1,8,-1,-1,-1],"split_conditions":[1.1178249E8,2.0622969E0,1.3760565E1,-3.5321487E-3,-3.878796E-2,2.1667037E0,-2.2109834E-2,4.449978E-2,1.223393E-2],"split_indices":[4,7,47,0,0,21,0,0,0],"split_type":[0,0,0,0,0,0,0,0,0],"sum_hessian":[6.4696965E0,2.1998985E0,4.269798E0,1.0030755E0,1.196823E0,2.8467667E0,1.4230313E0,1.7274628E0,1.119304E0],"tree_param":{"num_deleted":"0","num_feature":"50","num_nodes":"9","size_leaf_vector":"1"}},{"base_weights":[1.704214E-1,-2.5894934E-1,4.4453792E-2,-4.402841E-2,3.1488913E-1,3.7977993E-2,-1.2965716E-2],"categories":[],"categories_nodes":[],"categories_segments":[],"categories_sizes":[],"default_left":[0,0,0,0,0,0,0],"id":38,"left_children":[1,3,-1,-1,5,-1,-1],"loss_changes":[2.5011005E0,2.1968546E0,0E0,0E0,1.0995128E0,0E0,0E0],"parents":[2147483647,0,0,1,1,4,4],"right_children":[2,4,-1,-1,6,-1,-1],"split_conditions":[3.3483982E1,2.4176022E1,4.4453792E-2,-4.402841E-2,2.5014057E1,3.7977993E-2,-1.2965716E-2],"split_indices":[24,42,0,0,24,0,0],"split_type":[0,0,0,0,0,0,0],"sum_hessian":[6.35937E0,4.3813453E0,1.9780251E0,1.8465359E0,2.5348094E0,1.2466111E0,1.2881982E0],"tree_param":{"num_deleted":"0","num_feature":"50","num_nodes":"7","size_leaf_vector":"1"}},{"base_weights":[-4.9846474E-2,-6.711293E-1,4.0602532E-1,-6.7097577E-3,-4.169948E-2,-1.6845306E-2,3.8115624E-2],"categories":[],"categories_nodes":[],"categories_segments":[],"categories_sizes":[],"default_left":[0,0,0,0,0,0,0],"id":39,"left_children":[1,3,5,-1,-1,-1,-1],"loss_changes":[2.377874E0,1.9614995E-1,1.5566509E0,0E0,0E0,0E0,0E0],"parents":[2147483647,0,0,1,1,2,2],"right_children":[2,4,6,-1,-1,-1,-1],"split_conditions":[7.411886E-1,6.9929436E-2,7.7721155E2,-6.7097577E-3,-4.169948E-2,-1.6845306E-2,3.8115624E-2],"split_indices":[27,26,5,0,0,0,0],"split_type":[0,0,0,0,0,0,0],"sum_hessian":[6.4335823E0,2.5229723E0,3.91061E0,1.0116508E0,1.5113215E0,1.2851684E0,2.6254416E0],"tree_param":{"num_deleted":"0","num_feature":"50","num_nodes":"7","size_leaf_vector":"1"}},{"base_weights":[2.788624E-3,-4.1581017E-1,3.4222346E-2,1.6416417E-2,-4.727487E-2],"categories":[],"categories_nodes":[],"categories_segments":[],"categories_sizes":[],"default_left":[0,0,0,0,0],"id":40,"left_children":[1,3,-1,-1,-1],"loss_changes":[2.3439534E0,2.3180633E0,0E0,0E0,0E0],"parents":[2147483647,0,0,1,1],"right_children":[2,4,-1,-1,-1],"split_conditions":[3.3483982E1,8.3164984E-1,3.4222346E-2,1.6416417E-2,-4.727487E-2],"split_indices":[24,43,0,0,0],"split_type":[0,0,0,0,0],"sum_hessian":[6.217158E0,4.0934296E0,2.123728E0,1.8602201E0,2.2332096E0],"tree_param":{"num_deleted":"0","num_feature":"50","num_nodes":"5","size_leaf_vector":"1"}},{"base_weights":[-4.9319793E-2,-4.9375919E-1,3.7512907E-1,-4.3262064E-2,9.808074E-3,3.694142E-2,-1.4580338E-2],"categories":[],"categories_nodes":[],"categories_segments":[],"categories_sizes":[],"default_left":[0,0,0,0,0,0,0],"id":41,"left_children":[1,3,5,-1,-1,-1,-1],"loss_changes":[1.4434727E0,1.1154559E0,1.1805673E0,0E0,0E0,0E0,0E0],"parents":[2147483647,0,0,1,1,2,2],"right_children":[2,4,6,-1,-1,-1,-1],"split_conditions":[7.416444E1,7.0860054E1,2.1667037E0,-4.3262064E-2,9.808074E-3,3.694142E-2,-1.4580338E-2],"split_indices":[33,9,21,0,0,0,0],"split_type":[0,0,0,0,0,0,0],"sum_hessian":[5.670045E0,2.690028E0,2.980017E0,1.5833625E0,1.1066655E0,1.8582356E0,1.1217812E0],"tree_param":{"num_deleted":"0","num_feature":"50","num_nodes":"7","size_leaf_vector":"1"}},{"base_weights":[1.21842846E-1,-3.562553E-1,6.8412054E-1,-4.359665E-2,1.2254458E-2,4.0202707E-2,1.14044435E-2],"categories":[],"categories_nodes":[],"categories_segments":[],"categories_sizes":[],"default_left":[0,0,0,0,0,0,0],"id":42,"left_children":[1,3,5,-1,-1,-1,-1],"loss_changes":[2.2077081E0,1.642041E0,1.895833E-2,0E0,0E0,0E0,0E0],"parents":[2147483647,0,0,1,1,2,2],"right_children":[2,4,6,-1,-1,-1,-1],"split_conditions":[1.1709221E1,6.96905E1,1.5946833E3,-4.359665E-2,1.2254458E-2,4.0202707E-2,1.14044435E-2],"split_indices":[7,33,5,0,0,0,0],"split_type":[0,0,0,0,0,0,0],"sum_hessian":[6.305846E0,3.6060615E0,2.6997848E0,1.6990678E0,1.9069935E0,1.533365E0,1.1664197E0],"tree_param":{"num_deleted":"0","num_feature":"50","num_nodes":"7","size_leaf_vector":"1"}},{"base_weights":[-1.5709089E-1,2.513769E-1,-3.247233E-2,-1.8032577E-2,3.9086655E-2],"categories":[],"categories_nodes":[],"categories_segments":[],"categories_sizes":[],"default_left":[0,0,0,0,0],"id":43,"left_children":[1,3,-1,-1,-1],"loss_changes":[1.3963858E0,1.6037515E0,0E0,0E0,0E0],"parents":[2147483647,0,0,1,1],"right_children":[2,4,-1,-1,-1],"split_conditions":[-8.403359E0,-1.2138784E1,-3.247233E-2,-1.8032577E-2,3.9086655E-2],"split_indices":[29,29,0,0,0],"split_type":[0,0,0,0,0],"sum_hessian":[5.131575E0,3.0722322E0,2.0593426E0,1.5748479E0,1.4973843E0],"tree_param":{"num_deleted":"0","num_feature":"50","num_nodes":"5","size_leaf_vector":"1"}},{"base_weights":[1.1521164E-1,-3.365582E-2,3.8406235E-1,6.1374515E-1,-5.397011E-3,4.788154E-3,4.198302E-2],"categories":[],"categories_nodes":[],"categories_segments":[],"categories_sizes":[],"default_left":[0,0,0,0,0,0,0],"id":44,"left_children":[1,-1,3,5,-1,-1,-1],"loss_changes":[1.662571E0,0E0,6.9643724E-1,3.8198602E-1,0E0,0E0,0E0],"parents":[2147483647,0,0,2,2,3,3],"right_children":[2,-1,4,6,-1,-1,-1],"split_conditions":[4.5527344E1,-3.365582E-2,2.3324382E0,5.622584E1,-5.397011E-3,4.788154E-3,4.198302E-2],"split_indices":[3,0,21,33,0,0,0],"split_type":[0,0,0,0,0,0,0],"sum_hessian":[5.624684E0,1.0480106E0,4.576673E0,2.9514139E0,1.6252593E0,1.328742E0,1.6226718E0],"tree_param":{"num_deleted":"0","num_feature":"50","num_nodes":"7","size_leaf_vector":"1"}},{"base_weights":[-6.308552E-2,-6.3181925E-1,3.647484E-1,-3.779429E-2,-9.388871E-3,-1.5519249E-2,3.5867117E-2],"categories":[],"categories_nodes":[],"categories_segments":[],"categories_sizes":[],"default_left":[0,0,0,0,0,0,0],"id":45,"left_children":[1,3,5,-1,-1,-1,-1],"loss_changes":[1.8405482E0,3.472483E-2,1.2725191E0,0E0,0E0,0E0,0E0],"parents":[2147483647,0,0,1,1,2,2],"right_children":[2,4,6,-1,-1,-1,-1],"split_conditions":[2.7512432E1,7.7721155E2,1.9993446E1,-3.779429E-2,-9.388871E-3,-1.5519249E-2,3.5867117E-2],"split_indices":[1,5,41,0,0,0,0],"split_type":[0,0,0,0,0,0,0],"sum_hessian":[5.6170864E0,2.206769E0,3.4103174E0,1.1759273E0,1.0308418E0,1.211086E0,2.1992314E0],"tree_param":{"num_deleted":"0","num_feature":"50","num_nodes":"7","size_leaf_vector":"1"}},{"base_weights":[8.9920454E-2,-3.246216E-2,3.4206733E-1,7.4078864E-1,-2.2916814E-2,4.4781446E-2,8.150132E-3],"categories":[],"categories_nodes":[],"categories_segments":[],"categories_sizes":[],"default_left":[0,0,0,0,0,0,0],"id":46,"left_children":[1,-1,3,5,-1,-1,-1],"loss_changes":[1.444223E0,0E0,2.1089427E0,2.1929574E-1,0E0,0E0,0E0],"parents":[2147483647,0,0,2,2,3,3],"right_children":[2,-1,4,6,-1,-1,-1],"split_conditions":[2.0295738E1,-3.246216E-2,-8.403359E0,2.1667037E0,-2.2916814E-2,4.4781446E-2,8.150132E-3],"split_indices":[42,0,29,21,0,0,0],"split_type":[0,0,0,0,0,0,0],"sum_hessian":[5.5573153E0,1.0129657E0,4.5443497E0,3.0830226E0,1.4613273E0,1.9975864E0,1.0854362E0],"tree_param":{"num_deleted":"0","num_feature":"50","num_nodes":"7","size_leaf_vector":"1"}},{"base_weights":[9.167163E-3,-3.6612064E-2,3.1825897E-1,7.0914483E-1,-1.3665806E-2,4.0899247E-2,1.101445E-2],"categories":[],"categories_nodes":[],"categories_segments":[],"categories_sizes":[],"default_left":[0,0,0,0,0,0,0],"id":47,"left_children":[1,-1,3,5,-1,-1,-1],"loss_changes":[1.8001498E0,0E0,1.471031E0,1.1565566E-2,0E0,0E0,0E0],"parents":[2147483647,0,0,2,2,3,3],"right_children":[2,-1,4,6,-1,-1,-1],"split_conditions":[4.7877567E1,-3.6612064E-2,-8.403359E0,3.628291E-1,-1.3665806E-2,4.0899247E-2,1.101445E-2],"split_indices":[3,0,29,26,0,0,0],"split_type":[0,0,0,0,0,0,0],"sum_hessian":[5.8383884E0,1.3150389E0,4.52335E0,2.604003E0,1.9193468E0,1.5791523E0,1.0248506E0],"tree_param":{"num_deleted":"0","num_feature":"50","num_nodes":"7","size_leaf_vector":"1"}},{"base_weights":[-1.7756154E-1,-6.036097E-1,2.8135633E-2,9.811477E-3,-4.705998E-2],"categories":[],"categories_nodes":[],"categories_segments":[],"categories_sizes":[],"default_left":[0,0,0,0,0],"id":48,"left_children":[1,3,-1,-1,-1],"loss_changes":[2.2537937E0,1.3550955E0,0E0,0E0,0E0],"parents":[2147483647,0,0,1,1],"right_children":[2,4,-1,-1,-1],"split_conditions":[1.3126937E0,4.7366646E1,2.8135633E-2,9.811477E-3,-4.705998E-2],"split_indices":[26,33,0,0,0],"split_type":[0,0,0,0,0],"sum_hessian":[5.0690575E0,3.334547E0,1.7345102E0,1.113977E0,2.22057E0],"tree_param":{"num_deleted":"0","num_feature":"50","num_nodes":"5","size_leaf_vector":"1"}},{"base_weights":[1.21406786E-1,-3.0394998E-1,3.8926363E-1,-3.4418955E-2,1.1959754E-2,3.517498E-2,-7.0122937E-3],"categories":[],"categories_nodes":[],"categories_segments":[],"categories_sizes":[],"default_left":[0,0,0,0,0,0,0],"id":49,"left_children":[1,3,5,-1,-1,-1,-1],"loss_changes":[9.0581995E-1,8.3955896E-1,8.7730694E-1,0E0,0E0,0E0,0E0],"parents":[2147483647,0,0,1,1,2,2],"right_children":[2,4,6,-1,-1,-1,-1],"split_conditions":[1.9516947E1,3E0,-8.403359E0,-3.4418955E-2,1.1959754E-2,3.517498E-2,-7.0122937E-3],"split_indices":[41,30,29,0,0,0,0],"split_type":[0,0,0,0,0,0,0],"sum_hessian":[5.9118824E0,2.2322774E0,3.6796052E0,1.1505455E0,1.0817318E0,2.1029987E0,1.5766064E0],"tree_param":{"num_deleted":"0","num_feature":"50","num_nodes":"7","size_leaf_vector":"1"}},{"base_weights":[-1.6217466E-1,-3.889969E-2,1.6644801E-1,6.410087E-1,-2.6855877E-2,4.0470403E-2,6.2569426E-3],"categories":[],"categories_nodes":[],"categories_segments":[],"categories_sizes":[],"default_left":[0,0,0,0,0,0,0],"id":50,"left_children":[1,-1,3,5,-1,-1,-1],"loss_changes":[1.5294764E0,0E0,2.1254096E0,2.1506798E-1,0E0,0E0,0E0],"parents":[2147483647,0,0,2,2,3,3],"right_children":[2,-1,4,6,-1,-1,-1],"split_conditions":[1.4607773E1,-3.889969E-2,-8.403359E0,2.1667037E0,-2.6855877E-2,4.0470403E-2,6.2569426E-3],"split_indices":[0,0,29,21,0,0,0],"split_type":[0,0,0,0,0,0,0],"sum_hessian":[5.917854E0,1.5833372E0,4.334517E0,2.6416302E0,1.6928868E0,1.5625415E0,1.0790886E0],"tree_param":{"num_deleted":"0","num_feature":"50","num_nodes":"7","size_leaf_vector":"1"}},{"base_weights":[-1.9410176E-2,-3.505196E-2,2.3185633E-1,-2.3833576E-1,4.086613E-2,1.5220733E-2,-2.7824303E-2],"categories":[],"categories_nodes":[],"categories_segments":[],"categories_sizes":[],"default_left":[0,0,0,0,0,0,0],"id":51,"left_children":[1,-1,3,5,-1,-1,-1],"loss_changes":[1.3318163E0,0E0,1.7748389E0,8.5276437E-1,0E0,0E0,0E0],"parents":[2147483647,0,0,2,2,3,3],"right_children":[2,-1,4,6,-1,-1,-1],"split_conditions":[7.7721155E2,-3.505196E-2,9.769279E-1,6.766333E1,4.086613E-2,1.5220733E-2,-2.7824303E-2],"split_indices":[5,0,27,2,0,0,0],"split_type":[0,0,0,0,0,0,0],"sum_hessian":[5.8270698E0,1.0873401E0,4.73973E0,2.9574742E0,1.7822555E0,1.108905E0,1.8485693E0],"tree_param":{"num_deleted":"0","num_feature":"50","num_nodes":"7","size_leaf_vector":"1"}},{"base_weights":[6.428944E-2,-3.2232457E-1,3.147974E-2,-4.1971162E-2,1.9688189E-2],"categories":[],"categories_nodes":[],"categories_segments":[],"categories_sizes":[],"default_left":[0,0,0,0,0],"id":52,"left_children":[1,3,-1,-1,-1],"loss_changes":[1.607596E0,1.9887408E0,0E0,0E0,0E0],"parents":[2147483647,0,0,1,1],"right_children":[2,4,-1,-1,-1],"split_conditions":[3.3483982E1,2.5202934E1,3.147974E-2,-4.1971162E-2,1.9688189E-2],"split_indices":[24,42,0,0,0],"split_type":[0,0,0,0,0],"sum_hessian":[5.427044E0,3.478149E0,1.9488947E0,1.9196821E0,1.5584667E0],"tree_param":{"num_deleted":"0","num_feature":"50","num_nodes":"5","size_leaf_vector":"1"}},{"base_weights":[1.2784381E-1,-2.576014E-1,3.6148984E-2,-3.9594732E-2,2.020785E-2],"categories":[],"categories_nodes":[],"categories_segments":[],"categories_sizes":[],"default_left":[0,0,0,0,0],"id":53,"left_children":[1,3,-1,-1,-1],"loss_changes":[1.4100418E0,1.7255753E0,0E0,0E0,0E0],"parents":[2147483647,0,0,1,1],"right_children":[2,4,-1,-1,-1],"split_conditions":[3.6484196E1,1.1178249E8,3.6148984E-2,-3.9594732E-2,2.020785E-2],"split_indices":[24,4,0,0,0],"split_type":[0,0,0,0,0],"sum_hessian":[4.334971E0,2.9752064E0,1.3597646E0,1.5373347E0,1.4378717E0],"tree_param":{"num_deleted":"0","num_feature":"50","num_nodes":"5","size_leaf_vector":"1"}},{"base_weights":[1.03020705E-2,2.7387738E-1,-2.4766771E-2,-2.0053556E-2,3.3687543E-2],"categories":[],"categories_nodes":[],"categories_segments":[],"categories_sizes":[],"default_left":[0,0,0,0,0],"id":54,"left_children":[1,3,-1,-1,-1],"loss_changes":[1.0009606E0,1.5959036E0,0E0,0E0,0E0],"parents":[2147483647,0,0,1,1],"right_children":[2,4,-1,-1,-1],"split_conditions":[1.3760565E1,1.1178249E8,-2.4766771E-2,-2.0053556E-2,3.3687543E-2],"split_indices":[47,4,0,0,0],"split_type":[0,0,0,0,0],"sum_hessian":[5.4926558E0,3.91186E0,1.5807959E0,1.4542422E0,2.4576178E0],"tree_param":{"num_deleted":"0","num_feature":"50","num_nodes":"5","size_leaf_vector":"1"}},{"base_weights":[6.2611595E-2,-2.7342537E-2,4.111587E-1,-6.2991246E-3,3.9870676E-2],"categories":[],"categories_nodes":[],"categories_segments":[],"categories_sizes":[],"default_left":[0,0,0,0,0],"id":55,"left_children":[1,-1,3,-1,-1],"loss_changes":[1.5194124E0,0E0,1.0232612E0,0E0,0E0],"parents":[2147483647,0,0,2,2],"right_children":[2,-1,4,-1,-1],"split_conditions":[2E0,-2.7342537E-2,2.446159E1,-6.2991246E-3,3.9870676E-2],"split_indices":[30,0,1,0,0],"split_type":[0,0,0,0,0],"sum_hessian":[5.094207E0,1.6464006E0,3.4478061E0,1.7240748E0,1.7237312E0],"tree_param":{"num_deleted":"0","num_feature":"50","num_nodes":"5","size_leaf_vector":"1"}},{"base_weights":[2.8115334E-2,-4.2342985E-1,3.0063093E-2,-4.0029194E-2,1.2230891E-2],"categories":[],"categories_nodes":[],"categories_segments":[],"categories_sizes":[],"default_left":[0,0,0,0,0],"id":56,"left_children":[1,3,-1,-1,-1],"loss_changes":[1.7003965E0,1.1309804E0,0E0,0E0,0E0],"parents":[2147483647,0,0,1,1],"right_children":[2,4,-1,-1,-1],"split_conditions":[5.6315627E0,8.0590256E1,3.0063093E-2,-4.0029194E-2,1.2230891E-2],"split_indices":[22,33,0,0,0],"split_type":[0,0,0,0,0],"sum_hessian":[4.5865364E0,2.7115219E0,1.8750143E0,1.6062831E0,1.1052389E0],"tree_param":{"num_deleted":"0","num_feature":"50","num_nodes":"5","size_leaf_vector":"1"}},{"base_weights":[4.123077E-2,-3.053728E-1,3.2335147E-2,-6.519925E-1,1.957346E-2,-3.7998844E-2,-9.501613E-3],"categories":[],"categories_nodes":[],"categories_segments":[],"categories_sizes":[],"default_left":[0,0,0,0,0,0,0],"id":57,"left_children":[1,3,-1,5,-1,-1,-1],"loss_changes":[1.5282722E0,1.3933747E0,0E0,3.1270027E-2,0E0,0E0,0E0],"parents":[2147483647,0,0,1,1,3,3],"right_children":[2,4,-1,6,-1,-1,-1],"split_conditions":[2.5202934E1,3.3483982E1,3.2335147E-2,7.965353E1,1.957346E-2,-3.7998844E-2,-9.501613E-3],"split_indices":[42,24,0,2,0,0,0],"split_type":[0,0,0,0,0,0,0],"sum_hessian":[5.341342E0,3.7120297E0,1.6293125E0,2.5219398E0,1.1900898E0,1.5212344E0,1.0007054E0],"tree_param":{"num_deleted":"0","num_feature":"50","num_nodes":"7","size_leaf_vector":"1"}},{"base_weights":[-7.379344E-2,-5.3088844E-1,4.6520373E-1,-4.1177753E-2,6.6923923E-3,2.227877E-3,3.431382E-2],"categories":[],"categories_nodes":[],"categories_segments":[],"categories_sizes":[],"default_left":[0,0,0,0,0,0,0],"id":58,"left_children":[1,3,5,-1,-1,-1,-1],"loss_changes":[1.7537441E0,8.449094E-1,2.7996784E-1,0E0,0E0,0E0,0E0],"parents":[2147483647,0,0,1,1,2,2],"right_children":[2,4,6,-1,-1,-1,-1],"split_conditions":[2.4176022E1,1.5916561E0,6.96905E1,-4.1177753E-2,6.6923923E-3,2.227877E-3,3.431382E-2],"split_indices":[42,38,33,0,0,0,0],"split_type":[0,0,0,0,0,0,0],"sum_hessian":[5.1158214E0,2.7763715E0,2.3394496E0,1.761783E0,1.0145885E0,1.2198777E0,1.119572E0],"tree_param":{"num_deleted":"0","num_feature":"50","num_nodes":"7","size_leaf_vector":"1"}},{"base_weights":[-4.8359346E-2,3.5995007E-1,-2.7448675E-2,-1.0337228E-3,3.1900097E-2],"categories":[],"categories_nodes":[],"categories_segments":[],"categories_sizes":[],"default_left":[0,0,0,0,0],"id":59,"left_children":[1,3,-1,-1,-1],"loss_changes":[1.2521868E0,3.7784886E-1,0E0,0E0,0E0],"parents":[2147483647,0,0,1,1],"right_children":[2,4,-1,-1,-1],"split_conditions":[2.3324382E0,1.8425646E1,-2.7448675E-2,-1.0337228E-3,3.1900097E-2],"split_indices":[21,0,0,0,0],"split_type":[0,0,0,0,0],"sum_hessian":[4.159274E0,2.4455914E0,1.7136829E0,1.4231248E0,1.0224668E0],"tree_param":{"num_deleted":"0","num_feature":"50","num_nodes":"5","size_leaf_vector":"1"}},{"base_weights":[9.3201995E-2,-1.8392523E-1,3.14554E-2,1.8569037E-1,-3.703291E-2,-1.4732085E-2,2.63907E-2],"categories":[],"categories_nodes":[],"categories_segments":[],"categories_sizes":[],"default_left":[0,0,0,0,0,0,0],"id":60,"left_children":[1,3,-1,5,-1,-1,-1],"loss_changes":[1.0775181E0,1.1751721E0,0E0,7.8492695E-1,0E0,0E0,0E0],"parents":[2147483647,0,0,1,1,3,3],"right_children":[2,4,-1,6,-1,-1,-1],"split_conditions":[1.3126937E0,2.3324382E0,3.14554E-2,1.3635472E8,-3.703291E-2,-1.4732085E-2,2.63907E-2],"split_indices":[26,21,0,4,0,0,0],"split_type":[0,0,0,0,0,0,0],"sum_hessian":[5.476213E0,4.0425363E0,1.4336768E0,2.8300962E0,1.2124399E0,1.2349901E0,1.5951062E0],"tree_param":{"num_deleted":"0","num_feature":"50","num_nodes":"7","size_leaf_vector":"1"}},{"base_weights":[-2.0127933E-2,-3.179348E-2,2.5246024E-1,3.0915413E-2,-1.9347744E-2],"categories":[],"categories_nodes":[],"categories_segments":[],"categories_sizes":[],"default_left":[0,0,0,0,0],"id":61,"left_children":[1,-1,3,-1,-1],"loss_changes":[1.1197491E0,0E0,1.3333622E0,0E0,0E0],"parents":[2147483647,0,0,2,2],"right_children":[2,-1,4,-1,-1],"split_conditions":[6.523018E1,-3.179348E-2,-8.403359E0,3.0915413E-2,-1.9347744E-2],"split_indices":[9,0,29,0,0],"split_type":[0,0,0,0,0],"sum_hessian":[4.7149377E0,1.037852E0,3.6770859E0,2.3598707E0,1.3172151E0],"tree_param":{"num_deleted":"0","num_feature":"50","num_nodes":"5","size_leaf_vector":"1"}},{"base_weights":[-1.7933004E-2,3.224886E-1,-2.5540043E-2,3.2027707E-2,-1.3602862E-2],"categories":[],"categories_nodes":[],"categories_segments":[],"categories_sizes":[],"default_left":[0,0,0,0,0],"id":62,"left_children":[1,3,-1,-1,-1],"loss_changes":[1.1036819E0,9.161282E-1,0E0,0E0,0E0],"parents":[2147483647,0,0,1,1],"right_children":[2,4,-1,-1,-1],"split_conditions":[-8.403359E0,1.5946833E3,-2.5540043E-2,3.2027707E-2,-1.3602862E-2],"split_indices":[29,5,0,0,0],"split_type":[0,0,0,0,0],"sum_hessian":[4.596248E0,2.9230204E0,1.6732278E0,1.8538684E0,1.069152E0],"tree_param":{"num_deleted":"0","num_feature":"50","num_nodes":"5","size_leaf_vector":"1"}},{"base_weights":[-1.3959646E-1,-6.0940504E-1,2.7680954E-2,-9.534637E-3,-3.5650354E-2],"categories":[],"categories_nodes":[],"categories_segments":[],"categories_sizes":[],"default_left":[0,0,0,0,0],"id":63,"left_children":[1,3,-1,-1,-1],"loss_changes":[1.8571519E0,5.341053E-3,0E0,0E0,0E0],"parents":[2147483647,0,0,1,1],"right_children":[2,4,-1,-1,-1],"split_conditions":[5.6315627E0,1.7483721E0,2.7680954E-2,-9.534637E-3,-3.5650354E-2],"split_indices":[22,21,0,0,0],"split_type":[0,0,0,0,0],"sum_hessian":[3.666482E0,2.2574534E0,1.4090286E0,1.0112135E0,1.2462399E0],"tree_param":{"num_deleted":"0","num_feature":"50","num_nodes":"5","size_leaf_vector":"1"}},{"base_weights":[1.2211259E-1,-3.0587683E-2,4.179635E-1,3.761875E-2,-1.6309325E-2],"categories":[],"categories_nodes":[],"categories_segments":[],"categories_sizes":[],"default_left":[0,0,0,0,0],"id":64,"left_children":[1,-1,3,-1,-1],"loss_changes":[1.4853941E0,0E0,1.3977602E0,0E0,0E0],"parents":[2147483647,0,0,2,2],"right_children":[2,-1,4,-1,-1],"split_conditions":[4.7877567E1,-3.0587683E-2,1.3760565E1,3.761875E-2,-1.6309325E-2],"split_indices":[3,0,47,0,0],"split_type":[0,0,0,0,0],"sum_hessian":[4.6638346E0,1.0331935E0,3.630641E0,2.497323E0,1.1333178E0],"tree_param":{"num_deleted":"0","num_feature":"50","num_nodes":"5","size_leaf_vector":"1"}},{"base_weights":[-9.094832E-2,-4.5390064E-1,2.9962758E-2,-3.6053415E-2,1.0505658E-2],"categories":[],"categories_nodes":[],"categories_segments":[],"categories_sizes":[],"default_left":[0,0,0,0,0],"id":65,"left_children":[1,3,-1,-1,-1],"loss_changes":[1.7120211E0,9.2077357E-1,0E0,0E0,0E0],"parents":[2147483647,0,0,1,1],"right_children":[2,4,-1,-1,-1],"split_conditions":[1.3126937E0,8.2975105E1,2.9962758E-2,-3.6053415E-2,1.0505658E-2],"split_indices":[26,33,0,0,0],"split_type":[0,0,0,0,0],"sum_hessian":[4.748327E0,3.3362722E0,1.4120545E0,2.3177829E0,1.0184892E0],"tree_param":{"num_deleted":"0","num_feature":"50","num_nodes":"5","size_leaf_vector":"1"}},{"base_weights":[6.7170605E-2,-2.4158586E-2,3.0983156E-2],"categories":[],"categories_nodes":[],"categories_segments":[],"categories_sizes":[],"default_left":[0,0,0],"id":66,"left_children":[1,-1,-1],"loss_changes":[1.6777092E0,0E0,0E0],"parents":[2147483647,0,0],"right_children":[2,-1,-1],"split_conditions":[5.6315627E0,-2.4158586E-2,3.0983156E-2],"split_indices":[22,0,0],"split_type":[0,0,0],"sum_hessian":[3.533005E0,1.8328036E0,1.7002015E0],"tree_param":{"num_deleted":"0","num_feature":"50","num_nodes":"3","size_leaf_vector":"1"}},{"base_weights":[7.0361584E-2,3.8776594E-1,-2.846316E-1,-1.0045256E-2,3.3763576E-2,-3.9392103E-2,2.4816211E-2],"categories":[],"categories_nodes":[],"categories_segments":[],"categories_sizes":[],"default_left":[0,0,0,0,0,0,0],"id":67,"left_children":[1,3,5,-1,-1,-1,-1],"loss_changes":[8.280393E-1,7.764292E-1,1.7992115E0,0E0,0E0,0E0,0E0],"parents":[2147483647,0,0,1,1,2,2],"right_children":[2,4,6,-1,-1,-1,-1],"split_conditions":[2.3324382E0,6.2520264E1,3.2343318E0,-1.0045256E-2,3.3763576E-2,-3.9392103E-2,2.4816211E-2],"split_indices":[21,10,26,0,0,0,0],"split_type":[0,0,0,0,0,0,0],"sum_hessian":[5.3692927E0,2.7859852E0,2.5833075E0,1.0130227E0,1.7729625E0,1.5656562E0,1.0176512E0],"tree_param":{"num_deleted":"0","num_feature":"50","num_nodes":"7","size_leaf_vector":"1"}},{"base_weights":[-1.8782588E-2,-2.475082E-2,2.875142E-1,3.195791E-2,-1.763393E-2],"categories":[],"categories_nodes":[],"categories_segments":[],"categories_sizes":[],"default_left":[0,0,0,0,0],"id":68,"left_children":[1,-1,3,-1,-1],"loss_changes":[1.0335418E0,0E0,1.2048798E0,0E0,0E0],"parents":[2147483647,0,0,2,2],"right_children":[2,-1,4,-1,-1],"split_conditions":[1.1178249E8,-2.475082E-2,1.3760565E1,3.195791E-2,-1.763393E-2],"split_indices":[4,0,47,0,0],"split_type":[0,0,0,0,0],"sum_hessian":[5.1097174E0,1.758871E0,3.3508463E0,2.1638863E0,1.1869599E0],"tree_param":{"num_deleted":"0","num_feature":"50","num_nodes":"5","size_leaf_vector":"1"}},{"base_weights":[-5.439394E-2,-4.4199276E-1,2.5620455E-2,6.437428E-3,-3.7821267E-2],"categories":[],"categories_nodes":[],"categories_segments":[],"categories_sizes":[],"default_left":[0,0,0,0,0],"id":69,"left_children":[1,3,-1,-1,-1],"loss_changes":[1.3043647E0,7.1664643E-1,0E0,0E0,0E0],"parents":[2147483647,0,0,1,1],"right_children":[2,4,-1,-1,-1],"split_conditions":[1.3126937E0,6.9929436E-2,2.5620455E-2,6.437428E-3,-3.7821267E-2],"split_indices":[26,26,0,0,0],"split_type":[0,0,0,0,0],"sum_hessian":[3.9063358E0,2.4506795E0,1.4556562E0,1.0803046E0,1.3703749E0],"tree_param":{"num_deleted":"0","num_feature":"50","num_nodes":"5","size_leaf_vector":"1"}},{"base_weights":[-2.5491996E-2,-3.8059282E-1,1.8897722E-2,-3.272919E-2,4.900523E-3],"categories":[],"categories_nodes":[],"categories_segments":[],"categories_sizes":[],"default_left":[0,0,0,0,0],"id":70,"left_children":[1,3,-1,-1,-1],"loss_changes":[8.527139E-1,4.7459257E-1,0E0,0E0,0E0],"parents":[2147483647,0,0,1,1],"right_children":[2,4,-1,-1,-1],"split_conditions":[7.8000404E1,-3.6599483E0,1.8897722E-2,-3.272919E-2,4.900523E-3],"split_indices":[33,29,0,0,0],"split_type":[0,0,0,0,0],"sum_hessian":[3.9479728E0,2.1299255E0,1.8180473E0,1.1206685E0,1.0092568E0],"tree_param":{"num_deleted":"0","num_feature":"50","num_nodes":"5","size_leaf_vector":"1"}},{"base_weights":[-1.4724909E-1,-2.8965702E-2,2.676733E-1,2.76278E-2,-4.885081E-3],"categories":[],"categories_nodes":[],"categories_segments":[],"categories_sizes":[],"default_left":[0,0,0,0,0],"id":71,"left_children":[1,-1,3,-1,-1],"loss_changes":[1.1422639E0,0E0,4.1757083E-1,0E0,0E0],"parents":[2147483647,0,0,2,2],"right_children":[2,-1,4,-1,-1],"split_conditions":[2.4153862E1,-2.8965702E-2,2.6754296E0,2.76278E-2,-4.885081E-3],"split_indices":[42,0,22,0,0],"split_type":[0,0,0,0,0],"sum_hessian":[4.5066557E0,2.013632E0,2.4930239E0,1.1129551E0,1.3800688E0],"tree_param":{"num_deleted":"0","num_feature":"50","num_nodes":"5","size_leaf_vector":"1"}},{"base_weights":[-1.1714542E-1,-2.8678257E-2,2.1210048E-2],"categories":[],"categories_nodes":[],"categories_segments":[],"categories_sizes":[],"default_left":[0,0,0],"id":72,"left_children":[1,-1,-1],"loss_changes":[1.512146E0,0E0,0E0],"parents":[2147483647,0,0],"right_children":[2,-1,-1],"split_conditions":[1.1709221E1,-2.8678257E-2,2.1210048E-2],"split_indices":[7,0,0],"split_type":[0,0,0],"sum_hessian":[4.135314E0,2.2113585E0,1.9239554E0],"tree_param":{"num_deleted":"0","num_feature":"50","num_nodes":"3","size_leaf_vector":"1"}},{"base_weights":[1.2498529E-1,-1.9128032E-1,3.3069294E-2,1.4906511E-2,-2.7428675E-2],"categories":[],"categories_nodes":[],"categories_segments":[],"categories_sizes":[],"default_left":[0,0,0,0,0],"id":73,"left_children":[1,3,-1,-1,-1],"loss_changes":[1.0300102E0,8.850438E-1,0E0,0E0,0E0],"parents":[2147483647,0,0,1,1],"right_children":[2,4,-1,-1,-1],"split_conditions":[3.6484196E1,8.3164984E-1,3.3069294E-2,1.4906511E-2,-2.7428675E-2],"split_indices":[24,43,0,0,0],"split_type":[0,0,0,0,0],"sum_hessian":[4.3258266E0,3.1260724E0,1.1997542E0,1.3890187E0,1.7370536E0],"tree_param":{"num_deleted":"0","num_feature":"50","num_nodes":"5","size_leaf_vector":"1"}},{"base_weights":[2.567799E-1,-1.0550923E-2,3.5478175E-2],"categories":[],"categories_nodes":[],"categories_segments":[],"categories_sizes":[],"default_left":[0,0,0],"id":74,"left_children":[1,-1,-1],"loss_changes":[1.0751467E0,0E0,0E0],"parents":[2147483647,0,0],"right_children":[2,-1,-1],"split_conditions":[5.6315627E0,-1.0550923E-2,3.5478175E-2],"split_indices":[22,0,0],"split_type":[0,0,0],"sum_hessian":[3.3690543E0,1.9196745E0,1.4493797E0],"tree_param":{"num_deleted":"0","num_feature":"50","num_nodes":"3","size_leaf_vector":"1"}},{"base_weights":[-1.146042E-1,-3.488216E-1,2.2122007E-2,-3.343124E-2,1.8118273E-2],"categories":[],"categories_nodes":[],"categories_segments":[],"categories_sizes":[],"default_left":[0,0,0,0,0],"id":75,"left_children":[1,3,-1,-1,-1],"loss_changes":[8.949295E-1,1.2783463E0,0E0,0E0,0E0],"parents":[2147483647,0,0,1,1],"right_children":[2,4,-1,-1,-1],"split_conditions":[8.337572E1,3.6484196E1,2.2122007E-2,-3.343124E-2,1.8118273E-2],"split_indices":[33,24,0,0,0],"split_type":[0,0,0,0,0],"sum_hessian":[4.6763988E0,3.5553143E0,1.1210847E0,2.4937735E0,1.0615408E0],"tree_param":{"num_deleted":"0","num_feature":"50","num_nodes":"5","size_leaf_vector":"1"}},{"base_weights":[7.933263E-2,-1.4926261E-2,2.3877637E-2],"categories":[],"categories_nodes":[],"categories_segments":[],"categories_sizes":[],"default_left":[0,0,0],"id":76,"left_children":[1,-1,-1],"loss_changes":[8.299754E-1,0E0,0E0],"parents":[2147483647,0,0],"right_children":[2,-1,-1],"split_conditions":[2.4176022E1,-1.4926261E-2,2.3877637E-2],"split_indices":[42,0,0],"split_type":[0,0,0],"sum_hessian":[3.5684266E0,1.9594864E0,1.6089401E0],"tree_param":{"num_deleted":"0","num_feature":"50","num_nodes":"3","size_leaf_vector":"1"}},{"base_weights":[3.008761E-2,-2.847381E-1,3.3637315E-1,9.308555E-3,-3.0751755E-2,2.341458E-2,1.7432226E-3],"categories":[],"categories_nodes":[],"categories_segments":[],"categories_sizes":[],"default_left":[0,0,0,0,0,0,0],"id":77,"left_children":[1,3,5,-1,-1,-1,-1],"loss_changes":[5.934996E-1,5.946398E-1,1.05970144E-1,0E0,0E0,0E0,0E0],"parents":[2147483647,0,0,1,1,2,2],"right_children":[2,4,6,-1,-1,-1,-1],"split_conditions":[1.1709221E1,1.5191333E1,3.6102662E0,9.308555E-3,-3.0751755E-2,2.341458E-2,1.7432226E-3],"split_indices":[7,1,21,0,0,0,0],"split_type":[0,0,0,0,0,0,0],"sum_hessian":[4.1616626E0,2.086912E0,2.0747507E0,1.0402149E0,1.046697E0,1.0584766E0,1.016274E0],"tree_param":{"num_deleted":"0","num_feature":"50","num_nodes":"7","size_leaf_vector":"1"}},{"base_weights":[5.3816777E-2,-2.424225E-2,4.8458192E-1,2.157536E-3,3.3335146E-2],"categories":[],"categories_nodes":[],"categories_segments":[],"categories_sizes":[],"default_left":[0,0,0,0,0],"id":78,"left_children":[1,-1,3,-1,-1],"loss_changes":[1.3711334E0,0E0,2.3017335E-1,0E0,0E0],"parents":[2147483647,0,0,2,2],"right_children":[2,-1,4,-1,-1],"split_conditions":[1.9516947E1,-2.424225E-2,1.5577773E1,2.157536E-3,3.3335146E-2],"split_indices":[41,0,25,0,0],"split_type":[0,0,0,0,0],"sum_hessian":[3.8965802E0,1.6756612E0,2.220919E0,1.0099357E0,1.2109832E0],"tree_param":{"num_deleted":"0","num_feature":"50","num_nodes":"5","size_leaf_vector":"1"}},{"base_weights":[-9.5552064E-2,-2.6534919E-2,2.4060866E-1,-1.1637538E-2,2.5974382E-2],"categories":[],"categories_nodes":[],"categories_segments":[],"categories_sizes":[],"default_left":[0,0,0,0,0],"id":79,"left_children":[1,-1,3,-1,-1],"loss_changes":[9.472624E-1,0E0,6.2901306E-1,0E0,0E0],"parents":[2147483647,0,0,2,2],"right_children":[2,-1,4,-1,-1],"split_conditions":[3.3240992E7,-2.6534919E-2,7.7721155E2,-1.1637538E-2,2.5974382E-2],"split_indices":[44,0,5,0,0],"split_type":[0,0,0,0,0],"sum_hessian":[4.602795E0,1.75383E0,2.8489652E0,1.1175244E0,1.7314408E0],"tree_param":{"num_deleted":"0","num_feature":"50","num_nodes":"5","size_leaf_vector":"1"}},{"base_weights":[9.475218E-2,3.206351E-1,-2.0560523E-2,-8.221946E-3,3.130341E-2],"categories":[],"categories_nodes":[],"categories_segments":[],"categories_sizes":[],"default_left":[0,0,0,0,0],"id":80,"left_children":[1,3,-1,-1,-1],"loss_changes":[7.97709E-1,7.829634E-1,0E0,0E0,0E0],"parents":[2147483647,0,0,1,1],"right_children":[2,4,-1,-1,-1],"split_conditions":[1.3760565E1,1.1178249E8,-2.0560523E-2,-8.221946E-3,3.130341E-2],"split_indices":[47,4,0,0,0],"split_type":[0,0,0,0,0],"sum_hessian":[4.8261456E0,3.5897968E0,1.2363487E0,1.5653708E0,2.024426E0],"tree_param":{"num_deleted":"0","num_feature":"50","num_nodes":"5","size_leaf_vector":"1"}},{"base_weights":[1.0868045E-2,-2.7083388E-2,3.520592E-1,-5.118733E-3,3.0029837E-2],"categories":[],"categories_nodes":[],"categories_segments":[],"categories_sizes":[],"default_left":[0,0,0,0,0],"id":81,"left_children":[1,-1,3,-1,-1],"loss_changes":[1.2399532E0,0E0,5.185727E-1,0E0,0E0],"parents":[2147483647,0,0,2,2],"right_children":[2,-1,4,-1,-1],"split_conditions":[2E0,-2.7083388E-2,2.3057037E1,-5.118733E-3,3.0029837E-2],"split_indices":[30,0,42,0,0],"split_type":[0,0,0,0,0],"sum_hessian":[4.565735E0,1.5187097E0,3.0470254E0,1.2852062E0,1.7618192E0],"tree_param":{"num_deleted":"0","num_feature":"50","num_nodes":"5","size_leaf_vector":"1"}},{"base_weights":[-5.3481713E-2,-2.2590855E-2,2.4293484E-1,-7.0336657E-3,3.0090053E-2],"categories":[],"categories_nodes":[],"categories_segments":[],"categories_sizes":[],"default_left":[0,0,0,0,0],"id":82,"left_children":[1,-1,3,-1,-1],"loss_changes":[7.187191E-1,0E0,5.8125955E-1,0E0,0E0],"parents":[2147483647,0,0,2,2],"right_children":[2,-1,4,-1,-1],"split_conditions":[3.3240992E7,-2.2590855E-2,1.007189E1,-7.0336657E-3,3.0090053E-2],"split_indices":[44,0,7,0,0],"split_type":[0,0,0,0,0],"sum_hessian":[4.1574535E0,1.5501037E0,2.6073499E0,1.5541043E0,1.0532455E0],"tree_param":{"num_deleted":"0","num_feature":"50","num_nodes":"5","size_leaf_vector":"1"}},{"base_weights":[8.518002E-2,-1.6545017E-1,3.0750234E-2,-4.529048E-1,2.1173356E-2,4.2651193E-3,-3.698054E-2],"categories":[],"categories_nodes":[],"categories_segments":[],"categories_sizes":[],"default_left":[0,0,0,0,0,0,0],"id":83,"left_children":[1,3,-1,5,-1,-1,-1],"loss_changes":[8.737524E-1,9.933176E-1,0E0,6.286135E-1,0E0,0E0,0E0],"parents":[2147483647,0,0,1,1,3,3],"right_children":[2,4,-1,6,-1,-1,-1],"split_conditions":[3.6484196E1,8.337572E1,3.0750234E-2,8.692166E-2,2.1173356E-2,4.2651193E-3,-3.698054E-2],"split_indices":[24,33,0,26,0,0,0],"split_type":[0,0,0,0,0,0,0],"sum_hessian":[4.8136864E0,3.7347248E0,1.0789615E0,2.6649148E0,1.0698099E0,1.1703664E0,1.4945484E0],"tree_param":{"num_deleted":"0","num_feature":"50","num_nodes":"7","size_leaf_vector":"1"}},{"base_weights":[2.8753364E-2,-2.0215718E-1,2.4329191E-2,1.570212E-1,-3.4245014E-2,-1.039781E-2,2.5275586E-2],"categories":[],"categories_nodes":[],"categories_segments":[],"categories_sizes":[],"default_left":[0,0,0,0,0,0,0],"id":84,"left_children":[1,3,-1,5,-1,-1,-1],"loss_changes":[7.2996396E-1,9.186415E-1,0E0,5.497461E-1,0E0,0E0,0E0],"parents":[2147483647,0,0,1,1,3,3],"right_children":[2,4,-1,6,-1,-1,-1],"split_conditions":[1.3126937E0,2.3324382E0,2.4329191E-2,9.813522E1,-3.4245014E-2,-1.039781E-2,2.5275586E-2],"split_indices":[26,21,0,34,0,0,0],"split_type":[0,0,0,0,0,0,0],"sum_hessian":[4.9743686E0,3.6778564E0,1.2965119E0,2.495698E0,1.1821585E0,1.4159873E0,1.0797107E0],"tree_param":{"num_deleted":"0","num_feature":"50","num_nodes":"7","size_leaf_vector":"1"}},{"base_weights":[1.07508E-1,-1.3907897E-2,4.4622236E-1,2.9534066E-2,4.0013725E-3],"categories":[],"categories_nodes":[],"categories_segments":[],"categories_sizes":[],"default_left":[0,0,0,0,0],"id":85,"left_children":[1,-1,3,-1,-1],"loss_changes":[7.7568024E-1,0E0,1.135214E-1,0E0,0E0],"parents":[2147483647,0,0,2,2],"right_children":[2,-1,4,-1,-1],"split_conditions":[1.1709221E1,-1.3907897E-2,1.5610952E3,2.9534066E-2,4.0013725E-3],"split_indices":[7,0,11,0,0],"split_type":[0,0,0,0,0],"sum_hessian":[3.9878047E0,1.9482627E0,2.039542E0,1.02297E0,1.016572E0],"tree_param":{"num_deleted":"0","num_feature":"50","num_nodes":"5","size_leaf_vector":"1"}},{"base_weights":[1.0340841E-1,3.5165426E-1,-2.0752894E-2,3.0950192E-2,-1.291385E-2],"categories":[],"categories_nodes":[],"categories_segments":[],"categories_sizes":[],"default_left":[0,0,0,0,0],"id":86,"left_children":[1,3,-1,-1,-1],"loss_changes":[8.619767E-1,8.615878E-1,0E0,0E0,0E0],"parents":[2147483647,0,0,1,1],"right_children":[2,4,-1,-1,-1],"split_conditions":[1.3760565E1,1.541273E3,-2.0752894E-2,3.0950192E-2,-1.291385E-2],"split_indices":[47,8,0,0,0],"split_type":[0,0,0,0,0],"sum_hessian":[4.563172E0,3.3032773E0,1.2598946E0,2.2862685E0,1.0170088E0],"tree_param":{"num_deleted":"0","num_feature":"50","num_nodes":"5","size_leaf_vector":"1"}},{"base_weights":[-1.991789E-3,-2.4869296E-1,2.3488918E-2,8.7467795E-3,-3.518615E-2],"categories":[],"categories_nodes":[],"categories_segments":[],"categories_sizes":[],"default_left":[0,0,0,0,0],"id":87,"left_children":[1,3,-1,-1,-1],"loss_changes":[7.64351E-1,9.533496E-1,0E0,0E0,0E0],"parents":[2147483647,0,0,1,1],"right_children":[2,4,-1,-1,-1],"split_conditions":[1.3126937E0,3.628291E-1,2.3488918E-2,8.7467795E-3,-3.518615E-2],"split_indices":[26,26,0,0,0],"split_type":[0,0,0,0,0],"sum_hessian":[4.563547E0,3.3070526E0,1.2564944E0,2.031395E0,1.2756575E0],"tree_param":{"num_deleted":"0","num_feature":"50","num_nodes":"5","size_leaf_vector":"1"}},{"base_weights":[3.319606E-2,-2.2006432E-2,4.0320674E-1,3.262029E-2,-3.033253E-3],"categories":[],"categories_nodes":[],"categories_segments":[],"categories_sizes":[],"default_left":[0,0,0,0,0],"id":88,"left_children":[1,-1,3,-1,-1],"loss_changes":[1.0156517E0,0E0,4.1041392E-1,0E0,0E0],"parents":[2147483647,0,0,2,2],"right_children":[2,-1,4,-1,-1],"split_conditions":[1.4225427E8,-2.2006432E-2,1.2459208E0,3.262029E-2,-3.033253E-3],"split_indices":[4,0,38,0,0],"split_type":[0,0,0,0,0],"sum_hessian":[3.785954E0,1.5779315E0,2.2080224E0,1.171981E0,1.0360414E0],"tree_param":{"num_deleted":"0","num_feature":"50","num_nodes":"5","size_leaf_vector":"1"}},{"base_weights":[-9.86172E-3,-3.5904726E-1,3.029537E-2,2.661669E-6,-2.636141E-2],"categories":[],"categories_nodes":[],"categories_segments":[],"categories_sizes":[],"default_left":[0,0,0,0,0],"id":89,"left_children":[1,3,-1,-1,-1],"loss_changes":[1.2192497E0,2.1749267E-1,0E0,0E0,0E0],"parents":[2147483647,0,0,1,1],"right_children":[2,4,-1,-1,-1],"split_conditions":[1.3126937E0,2.4919817E1,3.029537E-2,2.661669E-6,-2.636141E-2],"split_indices":[26,24,0,0,0],"split_type":[0,0,0,0,0],"sum_hessian":[3.6586885E0,2.6007743E0,1.0579144E0,1.1483966E0,1.4523776E0],"tree_param":{"num_deleted":"0","num_feature":"50","num_nodes":"5","size_leaf_vector":"1"}},{"base_weights":[-4.2931914E-2,3.2944545E-1,-3.249649E-2,-4.9819327E-3,3.2105457E-2],"categories":[],"categories_nodes":[],"categories_segments":[],"categories_sizes":[],"default_left":[0,0,0,0,0],"id":90,"left_children":[1,3,-1,-1,-1],"loss_changes":[1.2395757E0,5.302387E-1,0E0,0E0,0E0],"parents":[2147483647,0,0,1,1],"right_children":[2,4,-1,-1,-1],"split_conditions":[-8.403359E0,6.64763E1,-3.249649E-2,-4.9819327E-3,3.2105457E-2],"split_indices":[29,9,0,0,0],"split_type":[0,0,0,0,0],"sum_hessian":[3.536783E0,2.4754272E0,1.0613557E0,1.3306426E0,1.1447847E0],"tree_param":{"num_deleted":"0","num_feature":"50","num_nodes":"5","size_leaf_vector":"1"}},{"base_weights":[2.3982162E-2,-2.5008714E-1,2.6371622E-2,1.6267568E-2,-3.0517409E-2],"categories":[],"categories_nodes":[],"categories_segments":[],"categories_sizes":[],"default_left":[0,0,0,0,0],"id":91,"left_children":[1,3,-1,-1,-1],"loss_changes":[8.357037E-1,1.0238947E0,0E0,0E0,0E0],"parents":[2147483647,0,0,1,1],"right_children":[2,4,-1,-1,-1],"split_conditions":[1.3126937E0,8.3164984E-1,2.6371622E-2,1.6267568E-2,-3.0517409E-2],"split_indices":[26,43,0,0,0],"split_type":[0,0,0,0,0],"sum_hessian":[4.100726E0,2.9811144E0,1.1196117E0,1.1850908E0,1.7960236E0],"tree_param":{"num_deleted":"0","num_feature":"50","num_nodes":"5","size_leaf_vector":"1"}},{"base_weights":[1.9478253E-1,5.0535685E-1,-1.9665306E-2,-1.2893531E-3,3.6440484E-2],"categories":[],"categories_nodes":[],"categories_segments":[],"categories_sizes":[],"default_left":[0,0,0,0,0],"id":92,"left_children":[1,3,-1,-1,-1],"loss_changes":[1.0580349E0,4.3613684E-1,0E0,0E0,0E0],"parents":[2147483647,0,0,1,1],"right_children":[2,4,-1,-1,-1],"split_conditions":[-8.403359E0,2.2556202E1,-1.9665306E-2,-1.2893531E-3,3.6440484E-2],"split_indices":[29,42,0,0,0],"split_type":[0,0,0,0,0],"sum_hessian":[3.7046125E0,2.5163743E0,1.1882383E0,1.0071031E0,1.5092711E0],"tree_param":{"num_deleted":"0","num_feature":"50","num_nodes":"5","size_leaf_vector":"1"}},{"base_weights":[-1.9111194E-1,-3.3356786E-2,1.3588741E-2],"categories":[],"categories_nodes":[],"categories_segments":[],"categories_sizes":[],"default_left":[0,0,0],"id":93,"left_children":[1,-1,-1],"loss_changes":[1.0635759E0,0E0,0E0],"parents":[2147483647,0,0],"right_children":[2,-1,-1],"split_conditions":[5.6315627E0,-3.3356786E-2,1.3588741E-2],"split_indices":[22,0,0],"split_type":[0,0,0],"sum_hessian":[3.0040154E0,1.2634537E0,1.7405616E0],"tree_param":{"num_deleted":"0","num_feature":"50","num_nodes":"3","size_leaf_vector":"1"}},{"base_weights":[1.5622854E-1,-1.3299648E-1,2.0830864E-2,9.024704E-3,-1.8009746E-2],"categories":[],"categories_nodes":[],"categories_segments":[],"categories_sizes":[],"default_left":[0,0,0,0,0],"id":94,"left_children":[1,3,-1,-1,-1],"loss_changes":[4.444631E-1,2.9332238E-1,0E0,0E0,0E0],"parents":[2147483647,0,0,1,1],"right_children":[2,4,-1,-1,-1],"split_conditions":[1.0700586E1,3.2079291E0,2.0830864E-2,9.024704E-3,-1.8009746E-2],"split_indices":[7,7,0,0,0],"split_type":[0,0,0,0,0],"sum_hessian":[4.1659756E0,2.205486E0,1.9604897E0,1.0131283E0,1.1923577E0],"tree_param":{"num_deleted":"0","num_feature":"50","num_nodes":"5","size_leaf_vector":"1"}},{"base_weights":[-7.5003214E-2,-3.348285E-2,3.0874765E-1,-3.4701924E-3,2.8000345E-2],"categories":[],"categories_nodes":[],"categories_segments":[],"categories_sizes":[],"default_left":[0,0,0,0,0],"id":95,"left_children":[1,-1,3,-1,-1],"loss_changes":[1.3325192E0,0E0,3.887814E-1,0E0,0E0],"parents":[2147483647,0,0,2,2],"right_children":[2,-1,4,-1,-1],"split_conditions":[3.3240992E7,-3.348285E-2,1.8841846E1,-3.4701924E-3,2.8000345E-2],"split_indices":[44,0,1,0,0],"split_type":[0,0,0,0,0],"sum_hessian":[3.9332583E0,1.25049E0,2.6827683E0,1.3598841E0,1.3228841E0],"tree_param":{"num_deleted":"0","num_feature":"50","num_nodes":"5","size_leaf_vector":"1"}},{"base_weights":[-2.888122E-2,-2.611622E-2,3.4706125E-1,3.3381186E-2,-7.0407093E-3],"categories":[],"categories_nodes":[],"categories_segments":[],"categories_sizes":[],"default_left":[0,0,0,0,0],"id":96,"left_children":[1,-1,3,-1,-1],"loss_changes":[1.0927694E0,0E0,6.2412643E-1,0E0,0E0],"parents":[2147483647,0,0,2,2],"right_children":[2,-1,4,-1,-1],"split_conditions":[9.813522E1,-2.611622E-2,-1.1396604E1,3.3381186E-2,-7.0407093E-3],"split_indices":[34,0,29,0,0],"split_type":[0,0,0,0,0],"sum_hessian":[3.913532E0,1.5239279E0,2.3896043E0,1.2197363E0,1.169868E0],"tree_param":{"num_deleted":"0","num_feature":"50","num_nodes":"5","size_leaf_vector":"1"}},{"base_weights":[9.3347065E-2,-1.9089142E-2,3.432574E-1,2.5403908E-2,-2.1086966E-3],"categories":[],"categories_nodes":[],"categories_segments":[],"categories_sizes":[],"default_left":[0,0,0,0,0],"id":97,"left_children":[1,-1,3,-1,-1],"loss_changes":[6.994783E-1,0E0,2.5417045E-1,0E0,0E0],"parents":[2147483647,0,0,2,2],"right_children":[2,-1,4,-1,-1],"split_conditions":[2E0,-1.9089142E-2,1.2459208E0,2.5403908E-2,-2.1086966E-3],"split_indices":[30,0,38,0,0],"split_type":[0,0,0,0,0],"sum_hessian":[3.7871752E0,1.1234986E0,2.6636765E0,1.6429151E0,1.0207615E0],"tree_param":{"num_deleted":"0","num_feature":"50","num_nodes":"5","size_leaf_vector":"1"}},{"base_weights":[9.847066E-2,3.584563E-1,-1.9584676E-2,-6.1035035E-3,3.2827947E-2],"categories":[],"categories_nodes":[],"categories_segments":[],"categories_sizes":[],"default_left":[0,0,0,0,0],"id":98,"left_children":[1,3,-1,-1,-1],"loss_changes":[7.599747E-1,6.1001027E-1,0E0,0E0,0E0],"parents":[2147483647,0,0,1,1],"right_children":[2,4,-1,-1,-1],"split_conditions":[1.3760565E1,1.1178249E8,-1.9584676E-2,-6.1035035E-3,3.2827947E-2],"split_indices":[47,4,0,0,0],"split_type":[0,0,0,0,0],"sum_hessian":[3.861824E0,2.698975E0,1.1628491E0,1.2593985E0,1.4395765E0],"tree_param":{"num_deleted":"0","num_feature":"50","num_nodes":"5","size_leaf_vector":"1"}},{"base_weights":[2.543364E-2,-2.5066325E-2,4.4088808E-1,3.725235E-3,2.9789625E-2],"categories":[],"categories_nodes":[],"categories_segments":[],"categories_sizes":[],"default_left":[0,0,0,0,0],"id":99,"left_children":[1,-1,3,-1,-1],"loss_changes":[1.2243135E0,0E0,1.3127047E-1,0E0,0E0],"parents":[2147483647,0,0,2,2],"right_children":[2,-1,4,-1,-1],"split_conditions":[9.804575E1,-2.5066325E-2,2.12406E1,3.725235E-3,2.9789625E-2],"split_indices":[34,0,1,0,0],"split_type":[0,0,0,0,0],"sum_hessian":[3.5844567E0,1.4893702E0,2.0950863E0,1.0626514E0,1.0324349E0],"tree_param":{"num_deleted":"0","num_feature":"50","num_nodes":"5","size_leaf_vector":"1"}},{"base_weights":[-4.0961068E-2,-3.8388428E-1,2.0111678E-2,6.0528115E-4,-3.0207071E-2],"categories":[],"categories_nodes":[],"categories_segments":[],"categories_sizes":[],"default_left":[0,0,0,0,0],"id":100,"left_children":[1,3,-1,-1,-1],"loss_changes":[8.4898365E-1,2.766639E-1,0E0,0E0,0E0],"parents":[2147483647,0,0,1,1],"right_children":[2,4,-1,-1,-1],"split_conditions":[5.6315627E0,7.6337447E0,2.0111678E-2,6.0528115E-4,-3.0207071E-2],"split_indices":[22,7,0,0,0],"split_type":[0,0,0,0,0],"sum_hessian":[3.570105E0,2.088188E0,1.4819171E0,1.0841266E0,1.0040613E0],"tree_param":{"num_deleted":"0","num_feature":"50","num_nodes":"5","size_leaf_vector":"1"}},{"base_weights":[-6.952757E-2,-2.1281097E-2,2.1834993E-1,-1.3029004E-2,2.8531162E-2],"categories":[],"categories_nodes":[],"categories_segments":[],"categories_sizes":[],"default_left":[0,0,0,0,0],"id":101,"left_children":[1,-1,3,-1,-1],"loss_changes":[5.8367944E-1,0E0,7.0681655E-1,0E0,0E0],"parents":[2147483647,0,0,2,2],"right_children":[2,-1,4,-1,-1],"split_conditions":[7.411886E-1,-2.1281097E-2,8.147634E1,-1.3029004E-2,2.8531162E-2],"split_indices":[27,0,2,0,0],"split_type":[0,0,0,0,0],"sum_hessian":[3.787216E0,1.4791173E0,2.3080988E0,1.088512E0,1.2195868E0],"tree_param":{"num_deleted":"0","num_feature":"50","num_nodes":"5","size_leaf_vector":"1"}},{"base_weights":[4.9882755E-2,2.5612196E-1,-1.9258145E-2,-1.0539713E-2,2.9099261E-2],"categories":[],"categories_nodes":[],"categories_segments":[],"categories_sizes":[],"default_left":[0,0,0,0,0],"id":102,"left_children":[1,3,-1,-1,-1],"loss_changes":[5.801187E-1,7.6795006E-1,0E0,0E0,0E0],"parents":[2147483647,0,0,1,1],"right_children":[2,4,-1,-1,-1],"split_conditions":[1.3760565E1,1.1178249E8,-1.9258145E-2,-1.0539713E-2,2.9099261E-2],"split_indices":[47,4,0,0,0],"split_type":[0,0,0,0,0],"sum_hessian":[4.366155E0,3.2409942E0,1.1251608E0,1.4773213E0,1.7636728E0],"tree_param":{"num_deleted":"0","num_feature":"50","num_nodes":"5","size_leaf_vector":"1"}},{"base_weights":[5.5661313E-2,-2.335381E-2,2.5269127E-2],"categories":[],"categories_nodes":[],"categories_segments":[],"categories_sizes":[],"default_left":[0,0,0],"id":103,"left_children":[1,-1,-1],"loss_changes":[1.2316784E0,0E0,0E0],"parents":[2147483647,0,0],"right_children":[2,-1,-1],"split_conditions":[1.0766071E0,-2.335381E-2,2.5269127E-2],"split_indices":[27,0,0],"split_type":[0,0,0],"sum_hessian":[3.2351549E0,1.4782765E0,1.7568784E0],"tree_param":{"num_deleted":"0","num_feature":"50","num_nodes":"3","size_leaf_vector":"1"}},{"base_weights":[5.3065405E-3,1.5283926E-2,-1.9722333E-2],"categories":[],"categories_nodes":[],"categories_segments":[],"categories_sizes":[],"default_left":[0,0,0],"id":104,"left_children":[1,-1,-1],"loss_changes":[6.204656E-1,0E0,0E0],"parents":[2147483647,0,0],"right_children":[2,-1,-1],"split_conditions":[2.3324382E0,1.5283926E-2,-1.9722333E-2],"split_indices":[21,0,0],"split_type":[0,0,0],"sum_hessian":[3.1631746E0,1.9404585E0,1.2227162E0],"tree_param":{"num_deleted":"0","num_feature":"50","num_nodes":"3","size_leaf_vector":"1"}},{"base_weights":[-1.3118437E-1,1.24175595E-2,-2.1421684E-2],"categories":[],"categories_nodes":[],"categories_segments":[],"categories_sizes":[],"default_left":[0,0,0],"id":105,"left_children":[1,-1,-1],"loss_changes":[6.2041277E-1,0E0,0E0],"parents":[2147483647,0,0],"right_children":[2,-1,-1],"split_conditions":[8.3164984E-1,1.24175595E-2,-2.1421684E-2],"split_indices":[43,0,0],"split_type":[0,0,0],"sum_hessian":[3.5561588E0,1.634144E0,1.9220148E0],"tree_param":{"num_deleted":"0","num_feature":"50","num_nodes":"3","size_leaf_vector":"1"}},{"base_weights":[-1.175461E-1,-2.7141033E-2,2.785228E-1,5.6209596E-4,2.051874E-2],"categories":[],"categories_nodes":[],"categories_segments":[],"categories_sizes":[],"default_left":[0,0,0,0,0],"id":106,"left_children":[1,-1,3,-1,-1],"loss_changes":[9.257861E-1,0E0,1.0259174E-1,0E0,0E0],"parents":[2147483647,0,0,2,2],"right_children":[2,-1,4,-1,-1],"split_conditions":[7.416444E1,-2.7141033E-2,2.3181194E1,5.6209596E-4,2.051874E-2],"split_indices":[33,0,42,0,0],"split_type":[0,0,0,0,0],"sum_hessian":[3.5987134E0,1.5567018E0,2.0420117E0,1.0330827E0,1.008929E0],"tree_param":{"num_deleted":"0","num_feature":"50","num_nodes":"5","size_leaf_vector":"1"}},{"base_weights":[3.6429603E-2,3.0679637E-1,-1.9166132E-2,-1.5474193E-3,2.4026774E-2],"categories":[],"categories_nodes":[],"categories_segments":[],"categories_sizes":[],"default_left":[0,0,0,0,0],"id":107,"left_children":[1,3,-1,-1,-1],"loss_changes":[6.163173E-1,2.0430663E-1,0E0,0E0,0E0],"parents":[2147483647,0,0,1,1],"right_children":[2,4,-1,-1,-1],"split_conditions":[-8.403359E0,1.5906504E1,-1.9166132E-2,-1.5474193E-3,2.4026774E-2],"split_indices":[29,0,0,0,0],"split_type":[0,0,0,0,0],"sum_hessian":[3.3944674E0,2.2282984E0,1.1661689E0,1.0360705E0,1.1922281E0],"tree_param":{"num_deleted":"0","num_feature":"50","num_nodes":"5","size_leaf_vector":"1"}},{"base_weights":[5.5559345E-2,-1.1481517E-2,2.0297037E-2],"categories":[],"categories_nodes":[],"categories_segments":[],"categories_sizes":[],"default_left":[0,0,0],"id":108,"left_children":[1,-1,-1],"loss_changes":[4.7134593E-1,0E0,0E0],"parents":[2147483647,0,0],"right_children":[2,-1,-1],"split_conditions":[3.3483982E1,-1.1481517E-2,2.0297037E-2],"split_indices":[24,0,0],"split_type":[0,0,0],"sum_hessian":[2.7841282E0,1.7248389E0,1.0592892E0],"tree_param":{"num_deleted":"0","num_feature":"50","num_nodes":"3","size_leaf_vector":"1"}},{"base_weights":[6.0653824E-2,-2.0352249E-1,2.521869E-2,-2.516686E-2,1.1730715E-2],"categories":[],"categories_nodes":[],"categories_segments":[],"categories_sizes":[],"default_left":[0,0,0,0,0],"id":109,"left_children":[1,3,-1,-1,-1],"loss_changes":[6.4540863E-1,5.929291E-1,0E0,0E0,0E0],"parents":[2147483647,0,0,1,1],"right_children":[2,4,-1,-1,-1],"split_conditions":[1.3126937E0,2.4176022E1,2.521869E-2,-2.516686E-2,1.1730715E-2],"split_indices":[26,42,0,0,0],"split_type":[0,0,0,0,0],"sum_hessian":[3.6302323E0,2.6147954E0,1.0154369E0,1.4641038E0,1.1506915E0],"tree_param":{"num_deleted":"0","num_feature":"50","num_nodes":"5","size_leaf_vector":"1"}},{"base_weights":[6.841785E-3,3.5210606E-1,-3.027643E-2,-4.7238595E-3,2.9844848E-2],"categories":[],"categories_nodes":[],"categories_segments":[],"categories_sizes":[],"default_left":[0,0,0,0,0],"id":110,"left_children":[1,3,-1,-1,-1],"loss_changes":[1.1798946E0,4.4513547E-1,0E0,0E0,0E0],"parents":[2147483647,0,0,1,1],"right_children":[2,4,-1,-1,-1],"split_conditions":[-8.403359E0,9.813522E1,-3.027643E-2,-4.7238595E-3,2.9844848E-2],"split_indices":[29,34,0,0,0],"split_type":[0,0,0,0,0],"sum_hessian":[3.5721323E0,2.556019E0,1.0161134E0,1.1224079E0,1.433611E0],"tree_param":{"num_deleted":"0","num_feature":"50","num_nodes":"5","size_leaf_vector":"1"}},{"base_weights":[-6.4830616E-2,-2.0933246E-2,2.009153E-2],"categories":[],"categories_nodes":[],"categories_segments":[],"categories_sizes":[],"default_left":[0,0,0],"id":111,"left_children":[1,-1,-1],"loss_changes":[8.8191736E-1,0E0,0E0],"parents":[2147483647,0,0],"right_children":[2,-1,-1],"split_conditions":[2.5202934E1,-2.0933246E-2,2.009153E-2],"split_indices":[42,0,0],"split_type":[0,0,0],"sum_hessian":[3.322201E0,1.9480163E0,1.3741847E0],"tree_param":{"num_deleted":"0","num_feature":"50","num_nodes":"3","size_leaf_vector":"1"}},{"base_weights":[6.429829E-2,-1.9076811E-1,2.4964748E-2,-2.5225127E-2,1.2704241E-2],"categories":[],"categories_nodes":[],"categories_segments":[],"categories_sizes":[],"default_left":[0,0,0,0,0],"id":112,"left_children":[1,3,-1,-1,-1],"loss_changes":[6.139071E-1,6.404299E-1,0E0,0E0,0E0],"parents":[2147483647,0,0,1,1],"right_children":[2,4,-1,-1,-1],"split_conditions":[1.3126937E0,2.4787254E1,2.4964748E-2,-2.5225127E-2,1.2704241E-2],"split_indices":[26,42,0,0,0],"split_type":[0,0,0,0,0],"sum_hessian":[3.6745684E0,2.6702683E0,1.0043001E0,1.4872738E0,1.1829946E0],"tree_param":{"num_deleted":"0","num_feature":"50","num_nodes":"5","size_leaf_vector":"1"}},{"base_weights":[9.370954E-3,-1.7865831E-2,1.8441355E-2],"categories":[],"categories_nodes":[],"categories_segments":[],"categories_sizes":[],"default_left":[0,0,0],"id":113,"left_children":[1,-1,-1],"loss_changes":[7.183173E-1,0E0,0E0],"parents":[2147483647,0,0],"right_children":[2,-1,-1],"split_conditions":[7.416444E1,-1.7865831E-2,1.8441355E-2],"split_indices":[33,0,0],"split_type":[0,0,0],"sum_hessian":[3.4498725E0,1.7107046E0,1.7391679E0],"tree_param":{"num_deleted":"0","num_feature":"50","num_nodes":"3","size_leaf_vector":"1"}},{"base_weights":[-5.9998386E-2,-2.2896012E-2,1.5395346E-2],"categories":[],"categories_nodes":[],"categories_segments":[],"categories_sizes":[],"default_left":[0,0,0],"id":114,"left_children":[1,-1,-1],"loss_changes":[8.2137465E-1,0E0,0E0],"parents":[2147483647,0,0],"right_children":[2,-1,-1],"split_conditions":[1.1709221E1,-2.2896012E-2,1.5395346E-2],"split_indices":[7,0,0],"split_type":[0,0,0],"sum_hessian":[3.6474671E0,1.634713E0,2.0127542E0],"tree_param":{"num_deleted":"0","num_feature":"50","num_nodes":"3","size_leaf_vector":"1"}},{"base_weights":[1.17713995E-1,3.233031E-1,-1.2430875E-2,-3.7641039E-3,2.8127057E-2],"categories":[],"categories_nodes":[],"categories_segments":[],"categories_sizes":[],"default_left":[0,0,0,0,0],"id":115,"left_children":[1,3,-1,-1,-1],"loss_changes":[4.469406E-1,3.810794E-1,0E0,0E0,0E0],"parents":[2147483647,0,0,1,1],"right_children":[2,4,-1,-1,-1],"split_conditions":[-8.403359E0,-1.2138784E1,-1.2430875E-2,-3.7641039E-3,2.8127057E-2],"split_indices":[29,29,0,0,0],"split_type":[0,0,0,0,0],"sum_hessian":[3.8671284E0,2.552241E0,1.3148873E0,1.2143631E0,1.3378779E0],"tree_param":{"num_deleted":"0","num_feature":"50","num_nodes":"5","size_leaf_vector":"1"}},{"base_weights":[8.491906E-2,-1.587317E-2,3.0082756E-1,2.6118992E-2,-5.944112E-3],"categories":[],"categories_nodes":[],"categories_segments":[],"categories_sizes":[],"default_left":[0,0,0,0,0],"id":116,"left_children":[1,-1,3,-1,-1],"loss_changes":[4.889727E-1,0E0,3.8392517E-1,0E0,0E0],"parents":[2147483647,0,0,2,2],"right_children":[2,-1,4,-1,-1],"split_conditions":[1.1178249E8,-1.587317E-2,1.3625808E1,2.6118992E-2,-5.944112E-3],"split_indices":[4,0,47,0,0],"split_type":[0,0,0,0,0],"sum_hessian":[3.5290163E0,1.0680891E0,2.4609272E0,1.4505854E0,1.010342E0],"tree_param":{"num_deleted":"0","num_feature":"50","num_nodes":"5","size_leaf_vector":"1"}},{"base_weights":[1.3610214E-1,-1.0065663E-2,2.1650692E-2],"categories":[],"categories_nodes":[],"categories_segments":[],"categories_sizes":[],"default_left":[0,0,0],"id":117,"left_children":[1,-1,-1],"loss_changes":[5.622294E-1,0E0,0E0],"parents":[2147483647,0,0],"right_children":[2,-1,-1],"split_conditions":[9.813522E1,-1.0065663E-2,2.1650692E-2],"split_indices":[34,0,0],"split_type":[0,0,0],"sum_hessian":[3.7419224E0,1.9022031E0,1.8397193E0],"tree_param":{"num_deleted":"0","num_feature":"50","num_nodes":"3","size_leaf_vector":"1"}},{"base_weights":[7.7517E-2,-1.7598148E-2,3.00449E-1,2.3355987E-2,-2.9812367E-3],"categories":[],"categories_nodes":[],"categories_segments":[],"categories_sizes":[],"default_left":[0,0,0,0,0],"id":118,"left_children":[1,-1,3,-1,-1],"loss_changes":[5.4243207E-1,0E0,2.4041569E-1,0E0,0E0],"parents":[2147483647,0,0,2,2],"right_children":[2,-1,4,-1,-1],"split_conditions":[2.1635817E1,-1.7598148E-2,6.910414E1,2.3355987E-2,-2.9812367E-3],"split_indices":[42,0,9,0,0],"split_type":[0,0,0,0,0],"sum_hessian":[3.560927E0,1.019009E0,2.5419178E0,1.5343909E0,1.007527E0],"tree_param":{"num_deleted":"0","num_feature":"50","num_nodes":"5","size_leaf_vector":"1"}},{"base_weights":[2.5341528E-2,-1.9840328E-2,1.7697534E-2],"categories":[],"categories_nodes":[],"categories_segments":[],"categories_sizes":[],"default_left":[0,0,0],"id":119,"left_children":[1,-1,-1],"loss_changes":[7.194159E-1,0E0,0E0],"parents":[2147483647,0,0],"right_children":[2,-1,-1],"split_conditions":[3.3240992E7,-1.9840328E-2,1.7697534E-2],"split_indices":[44,0,0],"split_type":[0,0,0],"sum_hessian":[3.1735783E0,1.2982485E0,1.8753297E0],"tree_param":{"num_deleted":"0","num_feature":"50","num_nodes":"3","size_leaf_vector":"1"}},{"base_weights":[9.2577E-2,-9.280713E-3,1.728392E-2],"categories":[],"categories_nodes":[],"categories_segments":[],"categories_sizes":[],"default_left":[0,0,0],"id":120,"left_children":[1,-1,-1],"loss_changes":[4.027544E-1,0E0,0E0],"parents":[2147483647,0,0],"right_children":[2,-1,-1],"split_conditions":[1.1709221E1,-9.280713E-3,1.728392E-2],"split_indices":[7,0,0],"split_type":[0,0,0],"sum_hessian":[3.808815E0,1.9414978E0,1.8673172E0],"tree_param":{"num_deleted":"0","num_feature":"50","num_nodes":"3","size_leaf_vector":"1"}},{"base_weights":[-7.9112336E-2,-3.851922E-1,2.0472215E-2,7.1251055E-4,-2.9646296E-2],"categories":[],"categories_nodes":[],"categories_segments":[],"categories_sizes":[],"default_left":[0,0,0,0,0],"id":121,"left_children":[1,3,-1,-1,-1],"loss_changes":[7.634416E-1,2.5785404E-1,0E0,0E0,0E0],"parents":[2147483647,0,0,1,1],"right_children":[2,4,-1,-1,-1],"split_conditions":[1.3126937E0,1.4189765E0,2.0472215E-2,7.1251055E-4,-2.9646296E-2],"split_indices":[26,21,0,0,0],"split_type":[0,0,0,0,0],"sum_hessian":[3.050673E0,2.0056856E0,1.0449874E0,1.0048684E0,1.0008173E0],"tree_param":{"num_deleted":"0","num_feature":"50","num_nodes":"5","size_leaf_vector":"1"}},{"base_weights":[-5.9641637E-2,-2.2006935E-2,1.5669852E-2],"categories":[],"categories_nodes":[],"categories_segments":[],"categories_sizes":[],"default_left":[0,0,0],"id":122,"left_children":[1,-1,-1],"loss_changes":[7.1366847E-1,0E0,0E0],"parents":[2147483647,0,0],"right_children":[2,-1,-1],"split_conditions":[9.813522E1,-2.2006935E-2,1.5669852E-2],"split_indices":[34,0,0],"split_type":[0,0,0],"sum_hessian":[3.0561495E0,1.4239035E0,1.6322461E0],"tree_param":{"num_deleted":"0","num_feature":"50","num_nodes":"3","size_leaf_vector":"1"}},{"base_weights":[1.6051203E-2,-1.7059213E-2,2.288161E-2],"categories":[],"categories_nodes":[],"categories_segments":[],"categories_sizes":[],"default_left":[0,0,0],"id":123,"left_children":[1,-1,-1],"loss_changes":[7.9730344E-1,0E0,0E0],"parents":[2147483647,0,0],"right_children":[2,-1,-1],"split_conditions":[3.3483982E1,-1.7059213E-2,2.288161E-2],"split_indices":[24,0,0],"split_type":[0,0,0],"sum_hessian":[3.064489E0,1.8197132E0,1.2447758E0],"tree_param":{"num_deleted":"0","num_feature":"50","num_nodes":"3","size_leaf_vector":"1"}},{"base_weights":[2.0326963E-2,-1.3963724E-2,1.69756E-2],"categories":[],"categories_nodes":[],"categories_segments":[],"categories_sizes":[],"default_left":[0,0,0],"id":124,"left_children":[1,-1,-1],"loss_changes":[4.9033153E-1,0E0,0E0],"parents":[2147483647,0,0],"right_children":[2,-1,-1],"split_conditions":[1.1709221E1,-1.3963724E-2,1.69756E-2],"split_indices":[7,0,0],"split_type":[0,0,0],"sum_hessian":[3.135957E0,1.6821008E0,1.4538562E0],"tree_param":{"num_deleted":"0","num_feature":"50","num_nodes":"3","size_leaf_vector":"1"}},{"base_weights":[4.0860157E-2,-1.6580297E-2,2.8058216E-1,1.7539123E-2,3.5729536E-3],"categories":[],"categories_nodes":[],"categories_segments":[],"categories_sizes":[],"default_left":[0,0,0,0,0],"id":125,"left_children":[1,-1,3,-1,-1],"loss_changes":[4.5602423E-1,0E0,1.9195974E-2,0E0,0E0],"parents":[2147483647,0,0,2,2],"right_children":[2,-1,4,-1,-1],"split_conditions":[1.4225427E8,-1.6580297E-2,6.910414E1,1.7539123E-2,3.5729536E-3],"split_indices":[4,0,9,0,0],"split_type":[0,0,0,0,0],"sum_hessian":[3.0652747E0,1.0502161E0,2.0150585E0,1.0014768E0,1.0135818E0],"tree_param":{"num_deleted":"0","num_feature":"50","num_nodes":"5","size_leaf_vector":"1"}},{"base_weights":[4.3953643E-3,-1.8402152E-2,1.5365513E-2],"categories":[],"categories_nodes":[],"categories_segments":[],"categories_sizes":[],"default_left":[0,0,0],"id":126,"left_children":[1,-1,-1],"loss_changes":[5.459563E-1,0E0,0E0],"parents":[2147483647,0,0],"right_children":[2,-1,-1],"split_conditions":[7.411886E-1,-1.8402152E-2,1.5365513E-2],"split_indices":[27,0,0],"split_type":[0,0,0],"sum_hessian":[2.8367658E0,1.1759332E0,1.6608325E0],"tree_param":{"num_deleted":"0","num_feature":"50","num_nodes":"3","size_leaf_vector":"1"}},{"base_weights":[-1.0077383E-2,-1.745052E-2,2.2187734E-2],"categories":[],"categories_nodes":[],"categories_segments":[],"categories_sizes":[],"default_left":[0,0,0],"id":127,"left_children":[1,-1,-1],"loss_changes":[7.914061E-1,0E0,0E0],"parents":[2147483647,0,0],"right_children":[2,-1,-1],"split_conditions":[3.3483982E1,-1.745052E-2,2.2187734E-2],"split_indices":[24,0,0],"split_type":[0,0,0],"sum_hessian":[3.1381917E0,1.9287348E0,1.2094569E0],"tree_param":{"num_deleted":"0","num_feature":"50","num_nodes":"3","size_leaf_vector":"1"}},{"base_weights":[-8.603196E-3,-1.7820023E-2,1.2676542E-2],"categories":[],"categories_nodes":[],"categories_segments":[],"categories_sizes":[],"default_left":[0,0,0],"id":128,"left_children":[1,-1,-1],"loss_changes":[4.7016555E-1,0E0,0E0],"parents":[2147483647,0,0],"right_children":[2,-1,-1],"split_conditions":[3.3240992E7,-1.7820023E-2,1.2676542E-2],"split_indices":[44,0,0],"split_type":[0,0,0],"sum_hessian":[3.1659439E0,1.2060951E0,1.9598488E0],"tree_param":{"num_deleted":"0","num_feature":"50","num_nodes":"3","size_leaf_vector":"1"}},{"base_weights":[1.8944082E-1,-9.772133E-3,2.171991E-2],"categories":[],"categories_nodes":[],"categories_segments":[],"categories_sizes":[],"default_left":[0,0,0],"id":129,"left_children":[1,-1,-1],"loss_changes":[4.9852216E-1,0E0,0E0],"parents":[2147483647,0,0],"right_children":[2,-1,-1],"split_conditions":[1.0961785E0,-9.772133E-3,2.171991E-2],"split_indices":[38,0,0],"split_type":[0,0,0],"sum_hessian":[3.3871663E0,1.3959495E0,1.9912167E0],"tree_param":{"num_deleted":"0","num_feature":"50","num_nodes":"3","size_leaf_vector":"1"}},{"base_weights":[-1.2469942E-2,-1.7203873E-2,1.9326349E-1,-4.0673376E-3,1.677387E-2],"categories":[],"categories_nodes":[],"categories_segments":[],"categories_sizes":[],"default_left":[0,0,0,0,0],"id":130,"left_children":[1,-1,3,-1,-1],"loss_changes":[3.8785616E-1,0E0,1.6582283E-1,0E0,0E0],"parents":[2147483647,0,0,2,2],"right_children":[2,-1,4,-1,-1],"split_conditions":[2E0,-1.7203873E-2,1.0702169E8,-4.0673376E-3,1.677387E-2],"split_indices":[30,0,4,0,0],"split_type":[0,0,0,0,0],"sum_hessian":[3.7104306E0,1.1631638E0,2.5472667E0,1.0151138E0,1.5321529E0],"tree_param":{"num_deleted":"0","num_feature":"50","num_nodes":"5","size_leaf_vector":"1"}},{"base_weights":[3.289269E-2,-2.2096707E-1,1.4379148E-2,-1.9643626E-3,-1.4633081E-2],"categories":[],"categories_nodes":[],"categories_segments":[],"categories_sizes":[],"default_left":[0,0,0,0,0],"id":131,"left_children":[1,3,-1,-1,-1],"loss_changes":[3.7978694E-1,2.7774721E-2,0E0,0E0,0E0],"parents":[2147483647,0,0,1,1],"right_children":[2,4,-1,-1,-1],"split_conditions":[1.0766071E0,1.702326E1,1.4379148E-2,-1.9643626E-3,-1.4633081E-2],"split_indices":[27,0,0,0,0],"split_type":[0,0,0,0,0],"sum_hessian":[3.8911538E0,2.0150669E0,1.8760871E0,1.008196E0,1.0068707E0],"tree_param":{"num_deleted":"0","num_feature":"50","num_nodes":"5","size_leaf_vector":"1"}},{"base_weights":[9.175181E-3,-1.3822746E-2,1.385911E-2],"categories":[],"categories_nodes":[],"categories_segments":[],"categories_sizes":[],"default_left":[0,0,0],"id":132,"left_children":[1,-1,-1],"loss_changes":[3.9028943E-1,0E0,0E0],"parents":[2147483647,0,0],"right_children":[2,-1,-1],"split_conditions":[1.0766071E0,-1.3822746E-2,1.385911E-2],"split_indices":[27,0,0],"split_type":[0,0,0],"sum_hessian":[3.0974197E0,1.484153E0,1.6132666E0],"tree_param":{"num_deleted":"0","num_feature":"50","num_nodes":"3","size_leaf_vector":"1"}},{"base_weights":[-1.2368877E-1,-2.437619E-2,1.7382914E-2],"categories":[],"categories_nodes":[],"categories_segments":[],"categories_sizes":[],"default_left":[0,0,0],"id":133,"left_children":[1,-1,-1],"loss_changes":[7.8104055E-1,0E0,0E0],"parents":[2147483647,0,0],"right_children":[2,-1,-1],"split_conditions":[2.4298792E1,-2.437619E-2,1.7382914E-2],"split_indices":[41,0,0],"split_type":[0,0,0],"sum_hessian":[2.5660374E0,1.4288112E0,1.1372262E0],"tree_param":{"num_deleted":"0","num_feature":"50","num_nodes":"3","size_leaf_vector":"1"}},{"base_weights":[-4.456845E-2,-2.9662212E-2,1.6994977E-2],"categories":[],"categories_nodes":[],"categories_segments":[],"categories_sizes":[],"default_left":[0,0,0],"id":134,"left_children":[1,-1,-1],"loss_changes":[1.0618911E0,0E0,0E0],"parents":[2147483647,0,0],"right_children":[2,-1,-1],"split_conditions":[7.411886E-1,-2.9662212E-2,1.6994977E-2],"split_indices":[27,0,0],"split_type":[0,0,0],"sum_hessian":[3.0780022E0,1.0444447E0,2.0335577E0],"tree_param":{"num_deleted":"0","num_feature":"50","num_nodes":"3","size_leaf_vector":"1"}},{"base_weights":[5.1180173E-2,2.8542864E-1,-1.8318541E-2,-3.3217804E-3,2.580827E-2],"categories":[],"categories_nodes":[],"categories_segments":[],"categories_sizes":[],"default_left":[0,0,0,0,0],"id":135,"left_children":[1,3,-1,-1,-1],"loss_changes":[5.424619E-1,3.127709E-1,0E0,0E0,0E0],"parents":[2147483647,0,0,1,1],"right_children":[2,4,-1,-1,-1],"split_conditions":[-8.403359E0,-1.2138784E1,-1.8318541E-2,-3.3217804E-3,2.580827E-2],"split_indices":[29,29,0,0,0],"split_type":[0,0,0,0,0],"sum_hessian":[3.4769049E0,2.4300535E0,1.0468515E0,1.2444259E0,1.1856275E0],"tree_param":{"num_deleted":"0","num_feature":"50","num_nodes":"5","size_leaf_vector":"1"}},{"base_weights":[9.1341436E-2,1.7478606E-2,-1.4290501E-2],"categories":[],"categories_nodes":[],"categories_segments":[],"categories_sizes":[],"default_left":[0,0,0],"id":136,"left_children":[1,-1,-1],"loss_changes":[5.1545894E-1,0E0,0E0],"parents":[2147483647,0,0],"right_children":[2,-1,-1],"split_conditions":[-8.58587E0,1.7478606E-2,-1.4290501E-2],"split_indices":[29,0,0],"split_type":[0,0,0],"sum_hessian":[3.266751E0,1.9824909E0,1.2842602E0],"tree_param":{"num_deleted":"0","num_feature":"50","num_nodes":"3","size_leaf_vector":"1"}},{"base_weights":[7.530537E-2,-1.6596688E-2,2.4674753E-2],"categories":[],"categories_nodes":[],"categories_segments":[],"categories_sizes":[],"default_left":[0,0,0],"id":137,"left_children":[1,-1,-1],"loss_changes":[8.6574644E-1,0E0,0E0],"parents":[2147483647,0,0],"right_children":[2,-1,-1],"split_conditions":[1.0766071E0,-1.6596688E-2,2.4674753E-2],"split_indices":[27,0,0],"split_type":[0,0,0],"sum_hessian":[3.1217005E0,1.6860557E0,1.4356449E0],"tree_param":{"num_deleted":"0","num_feature":"50","num_nodes":"3","size_leaf_vector":"1"}},{"base_weights":[7.257112E-2,-1.2273127E-2,1.558314E-2],"categories":[],"categories_nodes":[],"categories_segments":[],"categories_sizes":[],"default_left":[0,0,0],"id":138,"left_children":[1,-1,-1],"loss_changes":[3.911031E-1,0E0,0E0],"parents":[2147483647,0,0],"right_children":[2,-1,-1],"split_conditions":[1.1709221E1,-1.2273127E-2,1.558314E-2],"split_indices":[7,0,0],"split_type":[0,0,0],"sum_hessian":[3.1373603E0,1.3349705E0,1.8023899E0],"tree_param":{"num_deleted":"0","num_feature":"50","num_nodes":"3","size_leaf_vector":"1"}},{"base_weights":[-1.2730967E-2,-2.058111E-2,1.678681E-2],"categories":[],"categories_nodes":[],"categories_segments":[],"categories_sizes":[],"default_left":[0,0,0],"id":139,"left_children":[1,-1,-1],"loss_changes":[7.083769E-1,0E0,0E0],"parents":[2147483647,0,0],"right_children":[2,-1,-1],"split_conditions":[1.1709221E1,-2.058111E-2,1.678681E-2],"split_indices":[7,0,0],"split_type":[0,0,0],"sum_hessian":[3.1020036E0,1.3618518E0,1.7401518E0],"tree_param":{"num_deleted":"0","num_feature":"50","num_nodes":"3","size_leaf_vector":"1"}},{"base_weights":[1.13632955E-1,1.668991E-2,-1.2089502E-2],"categories":[],"categories_nodes":[],"categories_segments":[],"categories_sizes":[],"default_left":[0,0,0],"id":140,"left_children":[1,-1,-1],"loss_changes":[3.9833504E-1,0E0,0E0],"parents":[2147483647,0,0],"right_children":[2,-1,-1],"split_conditions":[-8.403359E0,1.668991E-2,-1.2089502E-2],"split_indices":[29,0,0],"split_type":[0,0,0],"sum_hessian":[3.059026E0,1.926504E0,1.132522E0],"tree_param":{"num_deleted":"0","num_feature":"50","num_nodes":"3","size_leaf_vector":"1"}},{"base_weights":[-3.351519E-2,-1.4830624E-2,1.134417E-2],"categories":[],"categories_nodes":[],"categories_segments":[],"categories_sizes":[],"default_left":[0,0,0],"id":141,"left_children":[1,-1,-1],"loss_changes":[3.501828E-1,0E0,0E0],"parents":[2147483647,0,0],"right_children":[2,-1,-1],"split_conditions":[9.813522E1,-1.4830624E-2,1.134417E-2],"split_indices":[34,0,0],"split_type":[0,0,0],"sum_hessian":[3.1291149E0,1.4873149E0,1.6418E0],"tree_param":{"num_deleted":"0","num_feature":"50","num_nodes":"3","size_leaf_vector":"1"}},{"base_weights":[7.000643E-2,1.495592E-2,-1.3293787E-2],"categories":[],"categories_nodes":[],"categories_segments":[],"categories_sizes":[],"default_left":[0,0,0],"id":142,"left_children":[1,-1,-1],"loss_changes":[3.987061E-1,0E0,0E0],"parents":[2147483647,0,0],"right_children":[2,-1,-1],"split_conditions":[-8.403359E0,1.495592E-2,-1.3293787E-2],"split_indices":[29,0,0],"split_type":[0,0,0],"sum_hessian":[3.1476104E0,1.9362855E0,1.211325E0],"tree_param":{"num_deleted":"0","num_feature":"50","num_nodes":"3","size_leaf_vector":"1"}},{"base_weights":[1.1489554E-2,-2.0080885E-2,1.675921E-2],"categories":[],"categories_nodes":[],"categories_segments":[],"categories_sizes":[],"default_left":[0,0,0],"id":143,"left_children":[1,-1,-1],"loss_changes":[6.31807E-1,0E0,0E0],"parents":[2147483647,0,0],"right_children":[2,-1,-1],"split_conditions":[9.7469527E-1,-2.0080885E-2,1.675921E-2],"split_indices":[27,0,0],"split_type":[0,0,0],"sum_hessian":[2.718134E0,1.0883825E0,1.6297514E0],"tree_param":{"num_deleted":"0","num_feature":"50","num_nodes":"3","size_leaf_vector":"1"}},{"base_weights":[2.4642337E-3,1.3193011E-2,-1.8685725E-2],"categories":[],"categories_nodes":[],"categories_segments":[],"categories_sizes":[],"default_left":[0,0,0],"id":144,"left_children":[1,-1,-1],"loss_changes":[4.993437E-1,0E0,0E0],"parents":[2147483647,0,0],"right_children":[2,-1,-1],"split_conditions":[-8.403359E0,1.3193011E-2,-1.8685725E-2],"split_indices":[29,0,0],"split_type":[0,0,0],"sum_hessian":[3.0753458E0,1.9906657E0,1.0846801E0],"tree_param":{"num_deleted":"0","num_feature":"50","num_nodes":"3","size_leaf_vector":"1"}},{"base_weights":[-1.9502426E-2,-2.0124694E-2,1.4348879E-2],"categories":[],"categories_nodes":[],"categories_segments":[],"categories_sizes":[],"default_left":[0,0,0],"id":145,"left_children":[1,-1,-1],"loss_changes":[5.571998E-1,0E0,0E0],"parents":[2147483647,0,0],"right_children":[2,-1,-1],