{"learner":{"attributes":{"scikit_learn":"{\"_estimator_type\": \"classifier\"}"},"feature_names":[],"feature_types":[],"gradient_booster":{"model":{"cats":{"enc":[],"feature_segments":[],"sorted_idx":[]},"gbtree_model_param":{"num_parallel_tree":"1","num_trees":"200"},"iteration_indptr":[0,1,2,3,4,5,6,7,8,9,10,11,12,13,14,15,16,17,18,19,20,21,22,23,24,25,26,27,28,29,30,31,32,33,34,35,36,37,38,39,40,41,42,43,44,45,46,47,48,49,50,51,52,53,54,55,56,57,58,59,60,61,62,63,64,65,66,67,68,69,70,71,72,73,74,75,76,77,78,79,80,81,82,83,84,85,86,87,88,89,90,91,92,93,94,95,96,97,98,99,100,101,102,103,104,105,106,107,108,109,110,111,112,113,114,115,116,117,118,119,120,121,122,123,124,125,126,127,128,129,130,131,132,133,134,135,136,137,138,139,140,141,142,143,144,145,146,147,148,149,150,151,152,153,154,155,156,157,158,159,160,161,162,163,164,165,166,167,168,169,170,171,172,173,174,175,176,177,178,179,180,181,182,183,184,185,186,187,188,189,190,191,192,193,194,195,196,197,198,199,200],"tree_info":[0,0,0,0,0,0,0,0,0,0,0,0,0,0,0,0,0,0,0,0,0,0,0,0,0,0,0,0,0,0,0,0,0,0,0,0,0,0,0,0,0,0,0,0,0,0,0,0,0,0,0,0,0,0,0,0,0,0,0,0,0,0,0,0,0,0,0,0,0,0,0,0,0,0,0,0,0,0,0,0,0,0,0,0,0,0,0,0,0,0,0,0,0,0,0,0,0,0,0,0,0,0,0,0,0,0,0,0,0,0,0,0,0,0,0,0,0,0,0,0,0,0,0,0,0,0,0,0,0,0,0,0,0,0,0,0,0,0,0,0,0,0,0,0,0,0,0,0,0,0,0,0,0,0,0,0,0,0,0,0,0,0,0,0,0,0,0,0,0,0,0,0,0,0,0,0,0,0,0,0,0,0,0,0,0,0,0,0,0,0,0,0,0,0,0,0,0,0,0,0],"trees":[{"base_weights":[8.917195E-2,-1.0379747E0,9.7959185E-1,-1.3636365E-2,-6.363636E-2,7.2972976E-2,-1.3636365E-2],"categories":[],"categories_nodes":[],"categories_segments":[],"categories_sizes":[],"default_left":[0,0,0,0,0,0,0],"id":0,"left_children":[1,3,5,-1,-1,-1,-1],"loss_changes":[8.895317E0,3.624859E-1,3.342677E0,0E0,0E0,0E0,0E0],"parents":[2147483647,0,0,1,1,2,2],"right_children":[2,4,6,-1,-1,-1,-1],"split_conditions":[1.7805015E0,5.1277027E1,7.198135E1,-1.3636365E-2,-6.363636E-2,7.2972976E-2,-1.3636365E-2],"split_indices":[26,3,33,0,0,0,0],"split_type":[0,0,0,0,0,0,0],"sum_hessian":[6.85E0,2.95E0,3.8999999E0,1.2E0,1.75E0,2.6999998E0,1.2E0],"tree_param":{"num_deleted":"0","num_feature":"50","num_nodes":"7","size_leaf_vector":"1"}},{"base_weights":[1.8998389E-1,-7.6172507E-1,1.101079E0,6.983362E-3,-6.519915E-2,1.544893E-2,6.735533E-2],"categories":[],"categories_nodes":[],"categories_segments":[],"categories_sizes":[],"default_left":[0,0,0,0,0,0,0],"id":1,"left_children":[1,3,5,-1,-1,-1,-1],"loss_changes":[8.030488E0,2.4538622E0,4.8925018E-1,0E0,0E0,0E0,0E0],"parents":[2147483647,0,0,1,1,2,2],"right_children":[2,4,6,-1,-1,-1,-1],"split_conditions":[1.7805015E0,1.5042223E3,1.5439778E3,6.983362E-3,-6.519915E-2,1.544893E-2,6.735533E-2],"split_indices":[26,18,19,0,0,0,0],"split_type":[0,0,0,0,0,0,0],"sum_hessian":[7.294071E0,3.6477065E0,3.6463647E0,1.6490062E0,1.9987004E0,1.3987796E0,2.2475848E0],"tree_param":{"num_deleted":"0","num_feature":"50","num_nodes":"7","size_leaf_vector":"1"}},{"base_weights":[1.3136913E-1,-9.1717756E-1,8.9734775E-1,-5.802051E-2,-1.1161694E-2,6.516291E-2,3.0476197E-3],"categories":[],"categories_nodes":[],"categories_segments":[],"categories_sizes":[],"default_left":[0,0,0,0,0,0,0],"id":2,"left_children":[1,3,5,-1,-1,-1,-1],"loss_changes":[6.912215E0,3.646295E-1,1.5795476E0,0E0,0E0,0E0,0E0],"parents":[2147483647,0,0,1,1,2,2],"right_children":[2,4,6,-1,-1,-1,-1],"split_conditions":[1.4740373E0,8.87742E0,2E0,-5.802051E-2,-1.1161694E-2,6.516291E-2,3.0476197E-3],"split_indices":[26,7,30,0,0,0,0],"split_type":[0,0,0,0,0,0,0],"sum_hessian":[6.5814967E0,2.6949675E0,3.8865292E0,1.4977856E0,1.1971819E0,2.240843E0,1.6456863E0],"tree_param":{"num_deleted":"0","num_feature":"50","num_nodes":"7","size_leaf_vector":"1"}},{"base_weights":[4.3111622E-2,-7.8301233E-1,8.628714E-1,-4.980904E-4,-6.3444875E-2,6.3695066E-2,1.6606989E-3],"categories":[],"categories_nodes":[],"categories_segments":[],"categories_sizes":[],"default_left":[0,0,0,0,0,0,0],"id":3,"left_children":[1,3,5,-1,-1,-1,-1],"loss_changes":[6.6100845E0,1.8236506E0,1.6198368E0,0E0,0E0,0E0,0E0],"parents":[2147483647,0,0,1,1,2,2],"right_children":[2,4,6,-1,-1,-1,-1],"split_conditions":[1.7805015E0,2.9444027E1,6.5789406E1,-4.980904E-4,-6.3444875E-2,6.3695066E-2,1.6606989E-3],"split_indices":[26,0,33,0,0,0,0],"split_type":[0,0,0,0,0,0,0],"sum_hessian":[7.7629104E0,3.8887737E0,3.874137E0,1.8947312E0,1.9940425E0,2.2326035E0,1.6415334E0],"tree_param":{"num_deleted":"0","num_feature":"50","num_nodes":"7","size_leaf_vector":"1"}},{"base_weights":[-3.5094734E-2,-8.100596E-1,9.257711E-1,-6.3825466E-2,-4.5283753E-4,5.9088256E-2,1.1978592E-2],"categories":[],"categories_nodes":[],"categories_segments":[],"categories_sizes":[],"default_left":[0,0,0,0,0,0,0],"id":4,"left_children":[1,3,5,-1,-1,-1,-1],"loss_changes":[6.9308624E0,1.9044418E0,4.4983268E-1,0E0,0E0,0E0,0E0],"parents":[2147483647,0,0,1,1,2,2],"right_children":[2,4,6,-1,-1,-1,-1],"split_conditions":[1.7805015E0,1.6268014E8,9.597534E1,-6.3825466E-2,-4.5283753E-4,5.9088256E-2,1.1978592E-2],"split_indices":[26,4,2,0,0,0,0],"split_type":[0,0,0,0,0,0,0],"sum_hessian":[7.300595E0,4.128109E0,3.1724858E0,2.2337096E0,1.8943995E0,1.7845509E0,1.387935E0],"tree_param":{"num_deleted":"0","num_feature":"50","num_nodes":"7","size_leaf_vector":"1"}},{"base_weights":[1.3037866E-1,-7.313575E-1,8.985747E-1,-1.2410835E-4,-5.97282E-2,6.7138724E-2,-1.7009892E-2],"categories":[],"categories_nodes":[],"categories_segments":[],"categories_sizes":[],"default_left":[0,0,0,0,0,0,0],"id":5,"left_children":[1,3,5,-1,-1,-1,-1],"loss_changes":[6.719021E0,1.6402607E0,3.3677058E0,0E0,0E0,0E0,0E0],"parents":[2147483647,0,0,1,1,2,2],"right_children":[2,4,6,-1,-1,-1,-1],"split_conditions":[1.7805015E0,1.4754241E3,7.198135E1,-1.2410835E-4,-5.97282E-2,6.7138724E-2,-1.7009892E-2],"split_indices":[26,28,33,0,0,0,0],"split_type":[0,0,0,0,0,0,0],"sum_hessian":[8.1571045E0,3.8670897E0,4.2900147E0,1.8932843E0,1.9738054E0,3.0959218E0,1.1940932E0],"tree_param":{"num_deleted":"0","num_feature":"50","num_nodes":"7","size_leaf_vector":"1"}},{"base_weights":[-5.022583E-1,-9.8842037E-1,3.979159E-2,-7.447128E-2,2.9114142E-2],"categories":[],"categories_nodes":[],"categories_segments":[],"categories_sizes":[],"default_left":[0,0,0,0,0],"id":6,"left_children":[1,3,-1,-1,-1],"loss_changes":[5.465145E0,5.462585E0,0E0,0E0,0E0],"parents":[2147483647,0,0,1,1],"right_children":[2,4,-1,-1,-1],"split_conditions":[3.7680393E1,3.019018E1,3.979159E-2,-7.447128E-2,2.9114142E-2],"split_indices":[24,42,0,0,0],"split_type":[0,0,0,0,0],"sum_hessian":[6.4135017E0,4.839547E0,1.5739546E0,3.7084227E0,1.1311247E0],"tree_param":{"num_deleted":"0","num_feature":"50","num_nodes":"5","size_leaf_vector":"1"}},{"base_weights":[1.5767124E-1,6.849381E-1,-7.779382E-1,-1.736139E-2,5.539726E-2,-8.60073E-3,-5.107811E-2],"categories":[],"categories_nodes":[],"categories_segments":[],"categories_sizes":[],"default_left":[0,0,0,0,0,0,0],"id":7,"left_children":[1,3,5,-1,-1,-1,-1],"loss_changes":[4.562592E0,2.8979597E0,3.2801723E-1,0E0,0E0,0E0,0E0],"parents":[2147483647,0,0,1,1,2,2],"right_children":[2,4,6,-1,-1,-1,-1],"split_conditions":[7.198135E1,1.7805015E0,4.0333313E-1,-1.736139E-2,5.539726E-2,-8.60073E-3,-5.107811E-2],"split_indices":[33,26,26,0,0,0,0],"split_type":[0,0,0,0,0,0,0],"sum_hessian":[7.1687083E0,4.7562346E0,2.4124737E0,1.4346752E0,3.3215594E0,1.1810701E0,1.2314037E0],"tree_param":{"num_deleted":"0","num_feature":"50","num_nodes":"7","size_leaf_vector":"1"}},{"base_weights":[4.4967657E-1,-3.9701658E-1,1.0110811E0,-5.106085E-2,2.0582456E-2,1.058334E-2,6.278834E-2],"categories":[],"categories_nodes":[],"categories_segments":[],"categories_sizes":[],"default_left":[0,0,0,0,0,0,0],"id":8,"left_children":[1,3,5,-1,-1,-1,-1],"loss_changes":[4.126253E0,2.3598669E0,7.1102476E-1,0E0,0E0,0E0,0E0],"parents":[2147483647,0,0,1,1,2,2],"right_children":[2,4,6,-1,-1,-1,-1],"split_conditions":[1.4740373E0,1.1709221E1,3.700998E1,-5.106085E-2,2.0582456E-2,1.058334E-2,6.278834E-2],"split_indices":[26,7,3,0,0,0,0],"split_type":[0,0,0,0,0,0,0],"sum_hessian":[6.8361974E0,2.8423169E0,3.9938805E0,1.4557767E0,1.3865403E0,1.3730464E0,2.620834E0],"tree_param":{"num_deleted":"0","num_feature":"50","num_nodes":"7","size_leaf_vector":"1"}},{"base_weights":[3.47253E-2,-4.4297957E-1,5.30513E-2,3.081644E-2,-8.240653E-1,-6.660259E-2,2.2955855E-2],"categories":[],"categories_nodes":[],"categories_segments":[],"categories_sizes":[],"default_left":[0,0,0,0,0,0,0],"id":9,"left_children":[1,3,-1,-1,5,-1,-1],"loss_changes":[4.22932E0,2.904926E0,0E0,0E0,3.7369752E0,0E0,0E0],"parents":[2147483647,0,0,1,1,4,4],"right_children":[2,4,-1,-1,6,-1,-1],"split_conditions":[3.1830477E1,1E0,5.30513E-2,3.081644E-2,3.725992E1,-6.660259E-2,2.2955855E-2],"split_indices":[41,30,0,0,24,0,0],"split_type":[0,0,0,0,0,0,0],"sum_hessian":[6.6678486E0,4.93784E0,1.7300086E0,1.1430881E0,3.7947516E0,2.6912534E0,1.1034982E0],"tree_param":{"num_deleted":"0","num_feature":"50","num_nodes":"7","size_leaf_vector":"1"}},{"base_weights":[-4.6670195E-2,-6.9772637E-1,6.154285E-1,-3.9033282E-3,-5.5814862E-2,4.9484458E-2,-1.6234182E-2],"categories":[],"categories_nodes":[],"categories_segments":[],"categories_sizes":[],"default_left":[0,0,0,0,0,0,0],"id":10,"left_children":[1,3,5,-1,-1,-1,-1],"loss_changes":[4.3256297E0,1.2164533E0,2.085023E0,0E0,0E0,0E0,0E0],"parents":[2147483647,0,0,1,1,2,2],"right_children":[2,4,6,-1,-1,-1,-1],"split_conditions":[1.7805015E0,2.9444027E1,1.6269813E8,-3.9033282E-3,-5.5814862E-2,4.9484458E-2,-1.6234182E-2],"split_indices":[26,0,4,0,0,0,0],"split_type":[0,0,0,0,0,0,0],"sum_hessian":[8.038644E0,4.0259895E0,4.0126543E0,2.1014593E0,1.9245304E0,2.8323534E0,1.1803011E0],"tree_param":{"num_deleted":"0","num_feature":"50","num_nodes":"7","size_leaf_vector":"1"}},{"base_weights":[1.1775396E-1,7.2495204E-1,-5.2576524E-1,-1.3641849E-2,5.4802444E-2,-6.22061E-2,3.289935E-2],"categories":[],"categories_nodes":[],"categories_segments":[],"categories_sizes":[],"default_left":[0,0,0,0,0,0,0],"id":11,"left_children":[1,3,5,-1,-1,-1,-1],"loss_changes":[3.8736877E0,2.1575477E0,5.0014615E0,0E0,0E0,0E0,0E0],"parents":[2147483647,0,0,1,1,2,2],"right_children":[2,4,6,-1,-1,-1,-1],"split_conditions":[2E0,-5.224339E0,2.5935549E1,-1.3641849E-2,5.4802444E-2,-6.22061E-2,3.289935E-2],"split_indices":[30,22,41,0,0,0,0],"split_type":[0,0,0,0,0,0,0],"sum_hessian":[7.938171E0,4.0192394E0,3.9189312E0,1.1613728E0,2.8578668E0,2.4071562E0,1.511775E0],"tree_param":{"num_deleted":"0","num_feature":"50","num_nodes":"7","size_leaf_vector":"1"}},{"base_weights":[-1.0250553E-1,-7.2124815E-1,4.4457715E-2,-4.205213E-3,-5.6025695E-2],"categories":[],"categories_nodes":[],"categories_segments":[],"categories_sizes":[],"default_left":[0,0,0,0,0],"id":12,"left_children":[1,3,-1,-1,-1],"loss_changes":[5.29583E0,1.2345295E0,0E0,0E0,0E0],"parents":[2147483647,0,0,1,1],"right_children":[2,4,-1,-1,-1],"split_conditions":[1.7805015E0,2.9444027E1,4.4457715E-2,-4.205213E-3,-5.6025695E-2],"split_indices":[26,0,0,0,0],"split_type":[0,0,0,0,0],"sum_hessian":[6.585828E0,4.2233624E0,2.3624659E0,2.0933945E0,2.129968E0],"tree_param":{"num_deleted":"0","num_feature":"50","num_nodes":"5","size_leaf_vector":"1"}},{"base_weights":[-2.0488049E-1,3.8181114E-1,-9.207836E-1,-2.0712407E-2,4.457293E-2,-1.0609776E-2,-5.6676753E-2],"categories":[],"categories_nodes":[],"categories_segments":[],"categories_sizes":[],"default_left":[0,0,0,0,0,0,0],"id":13,"left_children":[1,3,5,-1,-1,-1,-1],"loss_changes":[3.6290023E0,2.3959994E0,3.3348823E-1,0E0,0E0,0E0,0E0],"parents":[2147483647,0,0,1,1,2,2],"right_children":[2,4,6,-1,-1,-1,-1],"split_conditions":[2E0,9.502798E-1,-5.72592E6,-2.0712407E-2,4.457293E-2,-1.0609776E-2,-5.6676753E-2],"split_indices":[30,26,4,0,0,0,0],"split_type":[0,0,0,0,0,0,0],"sum_hessian":[6.803156E0,3.9954808E0,2.8076751E0,1.6325918E0,2.362889E0,1.1095628E0,1.6981122E0],"tree_param":{"num_deleted":"0","num_feature":"50","num_nodes":"7","size_leaf_vector":"1"}},{"base_weights":[4.1494023E-2,-3.3445314E-1,4.876681E-2,-7.7371186E-1,3.5298485E-2,-6.225422E-2,9.165738E-3],"categories":[],"categories_nodes":[],"categories_segments":[],"categories_sizes":[],"default_left":[0,0,0,0,0,0,0],"id":14,"left_children":[1,3,-1,5,-1,-1,-1],"loss_changes":[3.2651107E0,3.614179E0,0E0,2.5728357E0,0E0,0E0,0E0],"parents":[2147483647,0,0,1,1,3,3],"right_children":[2,4,-1,6,-1,-1,-1],"split_conditions":[3.1206818E1,3.725992E1,4.876681E-2,8.4509865E1,3.5298485E-2,-6.225422E-2,9.165738E-3],"split_indices":[41,24,0,33,0,0,0],"split_type":[0,0,0,0,0,0,0],"sum_hessian":[7.371157E0,5.713046E0,1.6581113E0,4.197318E0,1.5157278E0,2.610536E0,1.5867822E0],"tree_param":{"num_deleted":"0","num_feature":"50","num_nodes":"7","size_leaf_vector":"1"}},{"base_weights":[2.887888E-2,6.6564643E-1,-4.937707E-1,-7.342569E-3,5.1249493E-2,-5.9319377E-2,1.9596476E-2],"categories":[],"categories_nodes":[],"categories_segments":[],"categories_sizes":[],"default_left":[0,0,0,0,0,0,0],"id":15,"left_children":[1,3,5,-1,-1,-1,-1],"loss_changes":[3.1083007E0,1.3741151E0,3.6311207E0,0E0,0E0,0E0,0E0],"parents":[2147483647,0,0,1,1,2,2],"right_children":[2,4,6,-1,-1,-1,-1],"split_conditions":[6.5789406E1,1.7805015E0,1.1709221E1,-7.342569E-3,5.1249493E-2,-5.9319377E-2,1.9596476E-2],"split_indices":[33,26,7,0,0,0,0],"split_type":[0,0,0,0,0,0,0],"sum_hessian":[7.3520775E0,3.1908822E0,4.1611958E0,1.1598109E0,2.0310712E0,2.1446164E0,2.0165792E0],"tree_param":{"num_deleted":"0","num_feature":"50","num_nodes":"7","size_leaf_vector":"1"}},{"base_weights":[2.765115E-2,5.689848E-1,-7.7128756E-1,4.8873268E-2,-9.277916E-3,-2.9549664E-3,-5.228859E-2],"categories":[],"categories_nodes":[],"categories_segments":[],"categories_sizes":[],"default_left":[0,0,0,0,0,0,0],"id":16,"left_children":[1,3,5,-1,-1,-1,-1],"loss_changes":[4.0136504E0,1.8773655E0,6.738E-1,0E0,0E0,0E0,0E0],"parents":[2147483647,0,0,1,1,2,2],"right_children":[2,4,6,-1,-1,-1,-1],"split_conditions":[7.198135E1,1.2576832E0,1.1385884E0,4.8873268E-2,-9.277916E-3,-2.9549664E-3,-5.228859E-2],"split_indices":[33,27,38,0,0,0,0],"split_type":[0,0,0,0,0,0,0],"sum_hessian":[7.265576E0,4.502595E0,2.762981E0,2.729506E0,1.773089E0,1.1067284E0,1.6562524E0],"tree_param":{"num_deleted":"0","num_feature":"50","num_nodes":"7","size_leaf_vector":"1"}},{"base_weights":[-5.447941E-2,4.8033077E-1,-7.7042055E-1,-1.8096222E-2,8.043552E-1,-4.3740766E-3,-5.0945546E-2,8.854988E-3,5.187741E-2],"categories":[],"categories_nodes":[],"categories_segments":[],"categories_sizes":[],"default_left":[0,0,0,0,0,0,0,0,0],"id":17,"left_children":[1,3,5,-1,7,-1,-1,-1,-1],"loss_changes":[3.3615055E0,1.6797044E0,5.429597E-1,0E0,3.991108E-1,0E0,0E0,0E0,0E0],"parents":[2147483647,0,0,1,1,2,2,4,4],"right_children":[2,4,6,-1,8,-1,-1,-1,-1],"split_conditions":[7.198135E1,2.027877E1,5.2107708E7,-1.8096222E-2,2.3390995E1,-4.3740766E-3,-5.0945546E-2,8.854988E-3,5.187741E-2],"split_indices":[33,42,4,0,0,0,0,0,0],"split_type":[0,0,0,0,0,0,0,0,0],"sum_hessian":[6.8127613E0,4.08806E0,2.7247014E0,1.1032785E0,2.9847817E0,1.087612E0,1.6370893E0,1.2857517E0,1.6990299E0],"tree_param":{"num_deleted":"0","num_feature":"50","num_nodes":"9","size_leaf_vector":"1"}},{"base_weights":[1.2484229E-1,-4.8364496E-1,7.6827794E-1,-5.2366495E-2,2.6619256E-2,4.8176028E-2,1.1531523E-2],"categories":[],"categories_nodes":[],"categories_segments":[],"categories_sizes":[],"default_left":[0,0,0,0,0,0,0],"id":18,"left_children":[1,3,5,-1,-1,-1,-1],"loss_changes":[2.8974872E0,2.8080816E0,1.4749646E-1,0E0,0E0,0E0,0E0],"parents":[2147483647,0,0,1,1,2,2],"right_children":[2,4,6,-1,-1,-1,-1],"split_conditions":[1.6531278E3,3.3179585E1,2.5459539E3,-5.2366495E-2,2.6619256E-2,4.8176028E-2,1.1531523E-2],"split_indices":[11,24,5,0,0,0,0],"split_type":[0,0,0,0,0,0,0],"sum_hessian":[5.4515166E0,2.929486E0,2.5220304E0,1.8643528E0,1.0651333E0,1.269072E0,1.2529583E0],"tree_param":{"num_deleted":"0","num_feature":"50","num_nodes":"7","size_leaf_vector":"1"}},{"base_weights":[-1.6816796E-1,-6.4808095E-1,4.8701685E-2,-1.0224761E0,2.721466E-2,-6.808924E-3,-6.127585E-2],"categories":[],"categories_nodes":[],"categories_segments":[],"categories_sizes":[],"default_left":[0,0,0,0,0,0,0],"id":19,"left_children":[1,3,-1,5,-1,-1,-1],"loss_changes":[4.7623835E0,3.1936023E0,0E0,7.0463085E-1,0E0,0E0,0E0],"parents":[2147483647,0,0,1,1,3,3],"right_children":[2,4,-1,6,-1,-1,-1],"split_conditions":[3.7680393E1,3.019018E1,4.8701685E-2,-2.6097776E1,2.721466E-2,-6.808924E-3,-6.127585E-2],"split_indices":[24,42,0,2,0,0,0],"split_type":[0,0,0,0,0,0,0],"sum_hessian":[6.536395E0,4.9071755E0,1.6292192E0,3.8429956E0,1.0641803E0,1.0276921E0,2.8153036E0],"tree_param":{"num_deleted":"0","num_feature":"50","num_nodes":"7","size_leaf_vector":"1"}},{"base_weights":[-7.36481E-2,-4.1973406E-1,4.5849852E-2,-5.796175E-2,2.82562E-1,5.11808E-2,-3.5129055E-1,-4.2391784E-2,1.7712949E-2],"categories":[],"categories_nodes":[],"categories_segments":[],"categories_sizes":[],"default_left":[0,0,0,0,0,0,0,0,0],"id":20,"left_children":[1,3,-1,-1,5,-1,7,-1,-1],"loss_changes":[3.4005902E0,4.069294E0,0E0,0E0,2.4730003E0,0E0,1.4107686E0,0E0,0E0],"parents":[2147483647,0,0,1,1,4,4,6,6],"right_children":[2,4,-1,-1,6,-1,8,-1,-1],"split_conditions":[3.1830477E1,1.1709221E1,4.5849852E-2,-5.796175E-2,1.5379164E1,5.11808E-2,3.017027E1,-4.2391784E-2,1.7712949E-2],"split_indices":[41,7,0,0,31,0,0,0,0],"split_type":[0,0,0,0,0,0,0,0,0],"sum_hessian":[7.796003E0,6.204676E0,1.591327E0,2.7053604E0,3.4993157E0,1.3297535E0,2.169562E0,1.1550233E0,1.0145388E0],"tree_param":{"num_deleted":"0","num_feature":"50","num_nodes":"9","size_leaf_vector":"1"}},{"base_weights":[5.6589454E-2,-5.3514504E-1,7.325858E-1,4.40364E-3,-4.8331194E-2,7.3440257E-3,4.7869854E-2],"categories":[],"categories_nodes":[],"categories_segments":[],"categories_sizes":[],"default_left":[0,0,0,0,0,0,0],"id":21,"left_children":[1,3,5,-1,-1,-1,-1],"loss_changes":[3.3471532E0,1.2998275E0,3.690064E-1,0E0,0E0,0E0,0E0],"parents":[2147483647,0,0,1,1,2,2],"right_children":[2,4,6,-1,-1,-1,-1],"split_conditions":[1.7805015E0,2.9444027E1,4.0424644E1,4.40364E-3,-4.8331194E-2,7.3440257E-3,4.7869854E-2],"split_indices":[26,0,3,0,0,0,0],"split_type":[0,0,0,0,0,0,0],"sum_hessian":[6.3875933E0,3.5171828E0,2.8704104E0,1.7644845E0,1.7526982E0,1.254746E0,1.6156645E0],"tree_param":{"num_deleted":"0","num_feature":"50","num_nodes":"7","size_leaf_vector":"1"}},{"base_weights":[1.0638443E-1,7.078185E-1,-4.4655368E-1,-5.3713373E-3,5.1915705E-2,2.597783E-2,-8.692154E-1,-1.35833565E-2,-5.0036002E-2],"categories":[],"categories_nodes":[],"categories_segments":[],"categories_sizes":[],"default_left":[0,0,0,0,0,0,0,0,0],"id":22,"left_children":[1,3,5,-1,-1,-1,7,-1,-1],"loss_changes":[2.8981185E0,1.2178051E0,2.3537943E0,0E0,0E0,0E0,1.2185335E-2,0E0,0E0],"parents":[2147483647,0,0,1,1,2,2,6,6],"right_children":[2,4,6,-1,-1,-1,8,-1,-1],"split_conditions":[1.4825813E3,2.4751223E1,-7.758116E6,-5.3713373E-3,5.1915705E-2,2.597783E-2,1.3719893E1,-1.35833565E-2,-5.0036002E-2],"split_indices":[28,1,4,0,0,0,25,0,0],"split_type":[0,0,0,0,0,0,0,0,0],"sum_hessian":[6.7642293E0,3.1058612E0,3.6583679E0,1.0905977E0,2.0152636E0,1.043625E0,2.614743E0,1.0246481E0,1.5900949E0],"tree_param":{"num_deleted":"0","num_feature":"50","num_nodes":"9","size_leaf_vector":"1"}},{"base_weights":[1.5601544E-1,-4.1977492E-1,5.837283E-1,-4.1390248E-2,3.3121721E-3,5.0440997E-2,-6.411589E-3],"categories":[],"categories_nodes":[],"categories_segments":[],"categories_sizes":[],"default_left":[0,0,0,0,0,0,0],"id":23,"left_children":[1,3,5,-1,-1,-1,-1],"loss_changes":[2.2479134E0,8.576024E-1,1.6682466E0,0E0,0E0,0E0,0E0],"parents":[2147483647,0,0,1,1,2,2],"right_children":[2,4,6,-1,-1,-1,-1],"split_conditions":[1.4740373E0,1.1709221E1,1E2,-4.1390248E-2,3.3121721E-3,5.0440997E-2,-6.411589E-3],"split_indices":[26,7,34,0,0,0,0],"split_type":[0,0,0,0,0,0,0],"sum_hessian":[7.13276E0,3.0480332E0,4.084727E0,1.2746665E0,1.7733667E0,2.2965555E0,1.7881713E0],"tree_param":{"num_deleted":"0","num_feature":"50","num_nodes":"7","size_leaf_vector":"1"}},{"base_weights":[-5.714099E-2,-5.154072E-2,5.6841916E-1,4.4153642E-2,-1.4724259E-2],"categories":[],"categories_nodes":[],"categories_segments":[],"categories_sizes":[],"default_left":[0,0,0,0,0],"id":24,"left_children":[1,-1,3,-1,-1],"loss_changes":[4.9832387E0,0E0,1.6285032E0,0E0,0E0],"parents":[2147483647,0,0,2,2],"right_children":[2,-1,4,-1,-1],"split_conditions":[1.7805015E0,-5.154072E-2,1.6269813E8,4.4153642E-2,-1.4724259E-2],"split_indices":[26,0,4,0,0],"split_type":[0,0,0,0,0],"sum_hessian":[6.2194495E0,2.17941E0,4.0400395E0,2.943379E0,1.0966609E0],"tree_param":{"num_deleted":"0","num_feature":"50","num_nodes":"5","size_leaf_vector":"1"}},{"base_weights":[6.2053997E-2,-4.744989E-1,5.8920467E-1,6.943438E-3,-4.60616E-2,-1.6452596E-2,5.0147004E-2],"categories":[],"categories_nodes":[],"categories_segments":[],"categories_sizes":[],"default_left":[0,0,0,0,0,0,0],"id":25,"left_children":[1,3,5,-1,-1,-1,-1],"loss_changes":[2.4790208E0,1.3356733E0,1.9896916E0,0E0,0E0,0E0,0E0],"parents":[2147483647,0,0,1,1,2,2],"right_children":[2,4,6,-1,-1,-1,-1],"split_conditions":[1.7805015E0,1.5042223E3,-4.093651E6,6.943438E-3,-4.60616E-2,-1.6452596E-2,5.0147004E-2],"split_indices":[26,18,44,0,0,0,0],"split_type":[0,0,0,0,0,0,0],"sum_hessian":[6.776167E0,3.4076343E0,3.368533E0,1.7264087E0,1.6812255E0,1.1098902E0,2.2586427E0],"tree_param":{"num_deleted":"0","num_feature":"50","num_nodes":"7","size_leaf_vector":"1"}},{"base_weights":[6.754417E-2,-4.007211E-2,3.6738643E-1,7.1565485E-1,-1.4609078E-2,2.1824855E-3,5.1480997E-2],"categories":[],"categories_nodes":[],"categories_segments":[],"categories_sizes":[],"default_left":[0,0,0,0,0,0,0],"id":26,"left_children":[1,-1,3,5,-1,-1,-1],"loss_changes":[2.2495153E0,0E0,1.6480329E0,8.811724E-1,0E0,0E0,0E0],"parents":[2147483647,0,0,2,2,3,3],"right_children":[2,-1,4,6,-1,-1,-1],"split_conditions":[1.9993446E1,-4.007211E-2,-8.403359E0,-4.7626007E1,-1.4609078E-2,2.1824855E-3,5.1480997E-2],"split_indices":[41,0,29,29,0,0,0],"split_type":[0,0,0,0,0,0,0],"sum_hessian":[6.503397E0,1.2391835E0,5.2642136E0,3.3894584E0,1.8747549E0,1.4420178E0,1.9474407E0],"tree_param":{"num_deleted":"0","num_feature":"50","num_nodes":"7","size_leaf_vector":"1"}},{"base_weights":[6.1106652E-2,-4.807014E-1,4.0950604E-2,-4.731396E-2,5.284847E-2,2.3517288E-2,-1.7146548E-2],"categories":[],"categories_nodes":[],"categories_segments":[],"categories_sizes":[],"default_left":[0,0,0,0,0,0,0],"id":27,"left_children":[1,3,-1,-1,5,-1,-1],"loss_changes":[3.4618034E0,1.2888352E0,0E0,0E0,7.017839E-1,0E0,0E0],"parents":[2147483647,0,0,1,1,4,4],"right_children":[2,4,-1,-1,6,-1,-1],"split_conditions":[4.691018E1,1.1709221E1,4.0950604E-2,-4.731396E-2,5.3898968E1,2.3517288E-2,-1.7146548E-2],"split_indices":[1,7,0,0,3,0,0],"split_type":[0,0,0,0,0,0,0],"sum_hessian":[6.4715295E0,3.9870415E0,2.4844882E0,1.7160529E0,2.2709885E0,1.0134854E0,1.257503E0],"tree_param":{"num_deleted":"0","num_feature":"50","num_nodes":"7","size_leaf_vector":"1"}},{"base_weights":[-1.3581954E-1,-7.240539E-1,4.867971E-1,-4.65735E-2,-4.688257E-3,4.272488E-2,-4.144771E-3],"categories":[],"categories_nodes":[],"categories_segments":[],"categories_sizes":[],"default_left":[0,0,0,0,0,0,0],"id":28,"left_children":[1,3,5,-1,-1,-1,-1],"loss_changes":[2.8523426E0,4.240563E-1,8.907055E-1,0E0,0E0,0E0,0E0],"parents":[2147483647,0,0,1,1,2,2],"right_children":[2,4,6,-1,-1,-1,-1],"split_conditions":[1.7805015E0,6.512225E1,2E0,-4.65735E-2,-4.688257E-3,4.272488E-2,-4.144771E-3],"split_indices":[26,3,30,0,0,0,0],"split_type":[0,0,0,0,0,0,0],"sum_hessian":[5.8257003E0,2.9117873E0,2.9139128E0,1.8312962E0,1.0804911E0,1.4670787E0,1.4468342E0],"tree_param":{"num_deleted":"0","num_feature":"50","num_nodes":"7","size_leaf_vector":"1"}},{"base_weights":[1.8641105E-2,-3.217331E-1,4.390569E-2,3.9437863E-1,-5.3267658E-2,4.7535058E-2,-1.8860817E-2],"categories":[],"categories_nodes":[],"categories_segments":[],"categories_sizes":[],"default_left":[0,0,0,0,0,0,0],"id":29,"left_children":[1,3,-1,5,-1,-1,-1],"loss_changes":[2.5629876E0,3.7834156E0,0E0,2.0529957E0,0E0,0E0,0E0],"parents":[2147483647,0,0,1,1,3,3],"right_children":[2,4,-1,6,-1,-1,-1],"split_conditions":[3.7680393E1,-3.20215E0,4.390569E-2,1E0,-5.3267658E-2,4.7535058E-2,-1.8860817E-2],"split_indices":[24,49,0,30,0,0,0],"split_type":[0,0,0,0,0,0,0],"sum_hessian":[6.795348E0,5.315808E0,1.4795401E0,2.947242E0,2.3685658E0,1.5776365E0,1.3696057E0],"tree_param":{"num_deleted":"0","num_feature":"50","num_nodes":"7","size_leaf_vector":"1"}},{"base_weights":[-5.5056646E-2,4.5986578E-1,-6.7865E-1,4.3342333E-2,-1.6949525E-3,-4.274675E-2,-5.791671E-3],"categories":[],"categories_nodes":[],"categories_segments":[],"categories_sizes":[],"default_left":[0,0,0,0,0,0,0],"id":30,"left_children":[1,3,5,-1,-1,-1,-1],"loss_changes":[2.569317E0,9.2289907E-1,2.5648558E-1,0E0,0E0,0E0,0E0],"parents":[2147483647,0,0,1,1,2,2],"right_children":[2,4,6,-1,-1,-1,-1],"split_conditions":[6.96905E1,1.427813E3,1.5754307E3,4.3342333E-2,-1.6949525E-3,-4.274675E-2,-5.791671E-3],"split_indices":[33,5,15,0,0,0,0],"split_type":[0,0,0,0,0,0,0],"sum_hessian":[6.0296283E0,3.446385E0,2.5832434E0,1.4750242E0,1.9713607E0,1.571873E0,1.0113703E0],"tree_param":{"num_deleted":"0","num_feature":"50","num_nodes":"7","size_leaf_vector":"1"}},{"base_weights":[-2.1540802E-2,-7.332172E-1,6.077979E-1,-4.678657E-2,-4.069086E-3,-3.3261993E-3,4.725891E-2],"categories":[],"categories_nodes":[],"categories_segments":[],"categories_sizes":[],"default_left":[0,0,0,0,0,0,0],"id":31,"left_children":[1,3,5,-1,-1,-1,-1],"loss_changes":[3.8453758E0,4.539206E-1,1.1037264E0,0E0,0E0,0E0,0E0],"parents":[2147483647,0,0,1,1,2,2],"right_children":[2,4,6,-1,-1,-1,-1],"split_conditions":[1.7805015E0,3.0995123E8,-4.093651E6,-4.678657E-2,-4.069086E-3,-3.3261993E-3,4.725891E-2],"split_indices":[26,4,44,0,0,0,0],"split_type":[0,0,0,0,0,0,0],"sum_hessian":[6.5906186E0,3.0155163E0,3.5751023E0,1.9684267E0,1.0470896E0,1.4599409E0,2.1151614E0],"tree_param":{"num_deleted":"0","num_feature":"50","num_nodes":"7","size_leaf_vector":"1"}},{"base_weights":[-8.152507E-2,-6.6641915E-1,4.2817438E-1,-4.355276E-2,-3.2928658E-3,4.334372E-2,-8.481219E-3],"categories":[],"categories_nodes":[],"categories_segments":[],"categories_sizes":[],"default_left":[0,0,0,0,0,0,0],"id":32,"left_children":[1,3,5,-1,-1,-1,-1],"loss_changes":[2.430108E0,4.0241635E-1,1.3148843E0,0E0,0E0,0E0,0E0],"parents":[2147483647,0,0,1,1,2,2],"right_children":[2,4,6,-1,-1,-1,-1],"split_conditions":[1.7805015E0,5.77072E0,1E2,-4.355276E-2,-3.2928658E-3,4.334372E-2,-8.481219E-3],"split_indices":[26,47,34,0,0,0,0],"split_type":[0,0,0,0,0,0,0],"sum_hessian":[6.1942945E0,2.741208E0,3.4530861E0,1.7086132E0,1.0325949E0,1.7319605E0,1.7211256E0],"tree_param":{"num_deleted":"0","num_feature":"50","num_nodes":"7","size_leaf_vector":"1"}},{"base_weights":[1.6762393E-2,-3.8599432E-1,5.687854E-1,-4.647462E-2,1.3654527E-2,3.9756175E-2,2.972287E-3],"categories":[],"categories_nodes":[],"categories_segments":[],"categories_sizes":[],"default_left":[0,0,0,0,0,0,0],"id":33,"left_children":[1,3,5,-1,-1,-1,-1],"loss_changes":[1.8897924E0,2.023101E0,3.6466897E-1,0E0,0E0,0E0,0E0],"parents":[2147483647,0,0,1,1,2,2],"right_children":[2,4,6,-1,-1,-1,-1],"split_conditions":[4.691018E1,1.1709221E1,-9.44643E0,-4.647462E-2,1.3654527E-2,3.9756175E-2,2.972287E-3],"split_indices":[1,7,2,0,0,0,0],"split_type":[0,0,0,0,0,0,0],"sum_hessian":[6.5124235E0,3.9391668E0,2.5732567E0,1.9340351E0,2.0051317E0,1.3931074E0,1.1801493E0],"tree_param":{"num_deleted":"0","num_feature":"50","num_nodes":"7","size_leaf_vector":"1"}},{"base_weights":[7.2029084E-2,-3.62317E-2,4.0787306E-1,7.555113E-1,-1.6808977E-2,4.775424E-2,7.029459E-3],"categories":[],"categories_nodes":[],"categories_segments":[],"categories_sizes":[],"default_left":[0,0,0,0,0,0,0],"id":34,"left_children":[1,-1,3,5,-1,-1,-1],"loss_changes":[1.8799434E0,0E0,1.4969819E0,3.0546045E-1,0E0,0E0,0E0],"parents":[2147483647,0,0,2,2,3,3],"right_children":[2,-1,4,6,-1,-1,-1],"split_conditions":[1.9993446E1,-3.62317E-2,2.458395E0,4.2738068E1,-1.6808977E-2,4.775424E-2,7.029459E-3],"split_indices":[41,0,21,0,0,0,0],"split_type":[0,0,0,0,0,0,0],"sum_hessian":[4.921727E0,1.1162336E0,3.8054938E0,2.5831754E0,1.2223183E0,1.5325913E0,1.0505841E0],"tree_param":{"num_deleted":"0","num_feature":"50","num_nodes":"7","size_leaf_vector":"1"}},{"base_weights":[-8.193423E-3,-3.332432E-1,3.732912E-2,9.403904E-2,-4.395568E-2,-1.7343814E-2,2.7039964E-2],"categories":[],"categories_nodes":[],"categories_segments":[],"categories_sizes":[],"default_left":[0,0,0,0,0,0,0],"id":35,"left_children":[1,3,-1,5,-1,-1,-1],"loss_changes":[1.8765454E0,1.3255875E0,0E0,9.543495E-1,0E0,0E0,0E0],"parents":[2147483647,0,0,1,1,3,3],"right_children":[2,4,-1,6,-1,-1,-1],"split_conditions":[3.1830477E1,2E0,3.732912E-2,1.6531278E3,-4.395568E-2,-1.7343814E-2,2.7039964E-2],"split_indices":[41,30,0,11,0,0,0],"split_type":[0,0,0,0,0,0,0],"sum_hessian":[5.6346865E0,4.3289003E0,1.3057859E0,2.8925061E0,1.4363945E0,1.5682989E0,1.3242071E0],"tree_param":{"num_deleted":"0","num_feature":"50","num_nodes":"7","size_leaf_vector":"1"}},{"base_weights":[-7.967836E-3,-5.8512115E-1,4.9656692E-1,8.51802E-5,-4.124316E-2,-6.9614737E-3,4.3262366E-2],"categories":[],"categories_nodes":[],"categories_segments":[],"categories_sizes":[],"default_left":[0,0,0,0,0,0,0],"id":36,"left_children":[1,3,5,-1,-1,-1,-1],"loss_changes":[2.2017078E0,4.9667037E-1,1.0681295E0,0E0,0E0,0E0,0E0],"parents":[2147483647,0,0,1,1,2,2],"right_children":[2,4,6,-1,-1,-1,-1],"split_conditions":[1.7805015E0,1E0,-1.8220922E1,8.51802E-5,-4.124316E-2,-6.9614737E-3,4.3262366E-2],"split_indices":[26,30,7,0,0,0,0],"split_type":[0,0,0,0,0,0,0],"sum_hessian":[5.563173E0,2.5203454E0,3.0428274E0,1.0189993E0,1.5013461E0,1.3452592E0,1.697568E0],"tree_param":{"num_deleted":"0","num_feature":"50","num_nodes":"7","size_leaf_vector":"1"}},{"base_weights":[6.0411185E-2,6.0402405E-1,-4.1538036E-1,-9.18974E-4,4.5930665E-2,-4.8513494E-2,2.6192743E-2],"categories":[],"categories_nodes":[],"categories_segments":[],"categories_sizes":[],"default_left":[0,0,0,0,0,0,0],"id":37,"left_children":[1,3,5,-1,-1,-1,-1],"loss_changes":[2.115709E0,7.555593E-1,2.8208783E0,0E0,0E0,0E0,0E0],"parents":[2147483647,0,0,1,1,2,2],"right_children":[2,4,6,-1,-1,-1,-1],"split_conditions":[-3.20215E0,3.700998E1,3.725992E1,-9.18974E-4,4.5930665E-2,-4.8513494E-2,2.6192743E-2],"split_indices":[47,3,24,0,0,0,0],"split_type":[0,0,0,0,0,0,0],"sum_hessian":[6.20988E0,2.7725756E0,3.4373043E0,1.2470021E0,1.5255734E0,2.1399837E0,1.2973205E0],"tree_param":{"num_deleted":"0","num_feature":"50","num_nodes":"7","size_leaf_vector":"1"}},{"base_weights":[4.1741863E-2,-6.1003566E-1,4.803268E-1,-8.959144E-3,-3.6449023E-2,-3.7499124E-4,4.180359E-2],"categories":[],"categories_nodes":[],"categories_segments":[],"categories_sizes":[],"default_left":[0,0,0,0,0,0,0],"id":38,"left_children":[1,3,5,-1,-1,-1,-1],"loss_changes":[2.198112E0,2.933383E-2,7.94711E-1,0E0,0E0,0E0,0E0],"parents":[2147483647,0,0,1,1,2,2],"right_children":[2,4,6,-1,-1,-1,-1],"split_conditions":[2.5561869E1,-6.781895E6,1.7805015E0,-8.959144E-3,-3.6449023E-2,-3.7499124E-4,4.180359E-2],"split_indices":[24,44,26,0,0,0,0],"split_type":[0,0,0,0,0,0,0],"sum_hessian":[5.6644397E0,2.1212094E0,3.5432303E0,1.0011584E0,1.1200511E0,1.907048E0,1.6361823E0],"tree_param":{"num_deleted":"0","num_feature":"50","num_nodes":"7","size_leaf_vector":"1"}},{"base_weights":[1.5479144E-1,-3.6528257E-1,6.4299124E-1,-3.942147E-2,9.159937E-3,2.7248783E-3,4.3332838E-2],"categories":[],"categories_nodes":[],"categories_segments":[],"categories_sizes":[],"default_left":[0,0,0,0,0,0,0],"id":39,"left_children":[1,3,5,-1,-1,-1,-1],"loss_changes":[2.072564E0,1.1058029E0,4.9185717E-1,0E0,0E0,0E0,0E0],"parents":[2147483647,0,0,1,1,2,2],"right_children":[2,4,6,-1,-1,-1,-1],"split_conditions":[1.4740373E0,1.1709221E1,-4.093651E6,-3.942147E-2,9.159937E-3,2.7248783E-3,4.3332838E-2],"split_indices":[26,7,44,0,0,0,0],"split_type":[0,0,0,0,0,0,0],"sum_hessian":[6.237849E0,3.1422355E0,3.0956137E0,1.5268284E0,1.6154072E0,1.1950183E0,1.9005954E0],"tree_param":{"num_deleted":"0","num_feature":"50","num_nodes":"7","size_leaf_vector":"1"}},{"base_weights":[6.296255E-2,5.9764314E-1,-3.3417302E-1,4.167166E-3,4.1691992E-2,-4.8467238E-2,2.8654827E-2],"categories":[],"categories_nodes":[],"categories_segments":[],"categories_sizes":[],"default_left":[0,0,0,0,0,0,0],"id":40,"left_children":[1,3,5,-1,-1,-1,-1],"loss_changes":[1.6872474E0,3.367561E-1,3.2415924E0,0E0,0E0,0E0,0E0],"parents":[2147483647,0,0,1,1,2,2],"right_children":[2,4,6,-1,-1,-1,-1],"split_conditions":[-3.20215E0,4.0424644E1,3.7680393E1,4.167166E-3,4.1691992E-2,-4.8467238E-2,2.8654827E-2],"split_indices":[49,3,24,0,0,0,0],"split_type":[0,0,0,0,0,0,0],"sum_hessian":[6.0053983E0,2.3442926E0,3.6611056E0,1.1635685E0,1.180724E0,2.113231E0,1.5478748E0],"tree_param":{"num_deleted":"0","num_feature":"50","num_nodes":"7","size_leaf_vector":"1"}},{"base_weights":[-3.6653783E-2,5.198891E-1,-4.968144E-1,-2.4468144E-3,3.926019E-2,-4.6752673E-2,1.7247917E-2],"categories":[],"categories_nodes":[],"categories_segments":[],"categories_sizes":[],"default_left":[0,0,0,0,0,0,0],"id":41,"left_children":[1,3,5,-1,-1,-1,-1],"loss_changes":[1.9000721E0,5.5005956E-1,1.8057375E0,0E0,0E0,0E0,0E0],"parents":[2147483647,0,0,1,1,2,2],"right_children":[2,4,6,-1,-1,-1,-1],"split_conditions":[-3.20215E0,4.3579002E1,3.7680393E1,-2.4468144E-3,3.926019E-2,-4.6752673E-2,1.7247917E-2],"split_indices":[47,1,24,0,0,0,0],"split_type":[0,0,0,0,0,0,0],"sum_hessian":[5.410736E0,2.390155E0,3.0205808E0,1.019639E0,1.3705161E0,1.9135463E0,1.1070344E0],"tree_param":{"num_deleted":"0","num_feature":"50","num_nodes":"7","size_leaf_vector":"1"}},{"base_weights":[-2.5053637E-2,-3.1936428E-1,3.4720145E-2,1.0702361E-1,-4.0726427E-2,-1.8183878E-2,2.45999E-2],"categories":[],"categories_nodes":[],"categories_segments":[],"categories_sizes":[],"default_left":[0,0,0,0,0,0,0],"id":42,"left_children":[1,3,-1,5,-1,-1,-1],"loss_changes":[1.5936693E0,1.2026007E0,0E0,8.534832E-1,0E0,0E0,0E0],"parents":[2147483647,0,0,1,1,3,3],"right_children":[2,4,-1,6,-1,-1,-1],"split_conditions":[3.1830477E1,2E0,3.4720145E-2,1.1709221E1,-4.0726427E-2,-1.8183878E-2,2.45999E-2],"split_indices":[41,30,0,7,0,0,0],"split_type":[0,0,0,0,0,0,0],"sum_hessian":[5.479068E0,4.2830772E0,1.1959903E0,2.7225454E0,1.5605321E0,1.249781E0,1.4727643E0],"tree_param":{"num_deleted":"0","num_feature":"50","num_nodes":"7","size_leaf_vector":"1"}},{"base_weights":[9.2158966E-2,5.3228647E-1,-4.474954E-1,4.2659353E-2,-8.7798137E-4,-3.9163098E-2,5.4434836E-3],"categories":[],"categories_nodes":[],"categories_segments":[],"categories_sizes":[],"default_left":[0,0,0,0,0,0,0],"id":43,"left_children":[1,3,5,-1,-1,-1,-1],"loss_changes":[1.6851566E0,6.8762255E-1,6.9798255E-1,0E0,0E0,0E0,0E0],"parents":[2147483647,0,0,1,1,2,2],"right_children":[2,4,6,-1,-1,-1,-1],"split_conditions":[2E0,-3.20215E0,2.0295738E1,4.2659353E-2,-8.7798137E-4,-3.9163098E-2,5.4434836E-3],"split_indices":[30,49,42,0,0,0,0],"split_type":[0,0,0,0,0,0,0],"sum_hessian":[5.092037E0,2.8121648E0,2.2798727E0,1.427415E0,1.3847497E0,1.1674786E0,1.112394E0],"tree_param":{"num_deleted":"0","num_feature":"50","num_nodes":"7","size_leaf_vector":"1"}},{"base_weights":[-1.5317953E-1,-4.435385E-2,4.6708357E-1,4.1730423E-2,-1.3782412E-2],"categories":[],"categories_nodes":[],"categories_segments":[],"categories_sizes":[],"default_left":[0,0,0,0,0],"id":44,"left_children":[1,-1,3,-1,-1],"loss_changes":[3.092772E0,0E0,1.2793449E0,0E0,0E0],"parents":[2147483647,0,0,2,2],"right_children":[2,-1,4,-1,-1],"split_conditions":[1.7805015E0,-4.435385E-2,1.6269813E8,4.1730423E-2,-1.3782412E-2],"split_indices":[26,0,4,0,0],"split_type":[0,0,0,0,0],"sum_hessian":[4.883957E0,2.0400271E0,2.8439295E0,1.8197597E0,1.0241698E0],"tree_param":{"num_deleted":"0","num_feature":"50","num_nodes":"5","size_leaf_vector":"1"}},{"base_weights":[8.937342E-2,5.3265005E-1,-5.2505505E-1,-2.3425792E-3,4.4217292E-2,-3.816567E-2,-1.1351237E-3],"categories":[],"categories_nodes":[],"categories_segments":[],"categories_sizes":[],"default_left":[0,0,0,0,0,0,0],"id":45,"left_children":[1,3,5,-1,-1,-1,-1],"loss_changes":[2.0263913E0,9.0189207E-1,3.646406E-1,0E0,0E0,0E0,0E0],"parents":[2147483647,0,0,1,1,2,2],"right_children":[2,4,6,-1,-1,-1,-1],"split_conditions":[2E0,1.6531278E3,2.0295738E1,-2.3425792E-3,4.4217292E-2,-3.816567E-2,-1.1351237E-3],"split_indices":[30,11,42,0,0,0,0],"split_type":[0,0,0,0,0,0,0],"sum_hessian":[5.413237E0,3.221905E0,2.191332E0,1.544221E0,1.6776841E0,1.1340103E0,1.0573218E0],"tree_param":{"num_deleted":"0","num_feature":"50","num_nodes":"7","size_leaf_vector":"1"}},{"base_weights":[7.0080936E-2,4.998334E-1,-4.4489184E-1,4.289141E-2,2.8744747E-4,-3.8525097E-2,5.716863E-3],"categories":[],"categories_nodes":[],"categories_segments":[],"categories_sizes":[],"default_left":[0,0,0,0,0,0,0],"id":46,"left_children":[1,3,5,-1,-1,-1,-1],"loss_changes":[1.5829976E0,6.7114383E-1,6.936937E-1,0E0,0E0,0E0,0E0],"parents":[2147483647,0,0,1,1,2,2],"right_children":[2,4,6,-1,-1,-1,-1],"split_conditions":[2E0,2.9444027E1,2.0295738E1,4.289141E-2,2.8744747E-4,-3.8525097E-2,5.716863E-3],"split_indices":[30,0,42,0,0,0,0],"split_type":[0,0,0,0,0,0,0],"sum_hessian":[5.148031E0,2.8222334E0,2.3257976E0,1.2096033E0,1.6126301E0,1.2311625E0,1.094635E0],"tree_param":{"num_deleted":"0","num_feature":"50","num_nodes":"7","size_leaf_vector":"1"}},{"base_weights":[-1.0325123E-1,-5.8798283E-1,3.830592E-1,-3.802952E-2,-3.8941682E-3,3.958684E-2,-1.7002104E-2],"categories":[],"categories_nodes":[],"categories_segments":[],"categories_sizes":[],"default_left":[0,0,0,0,0,0,0],"id":47,"left_children":[1,3,5,-1,-1,-1,-1],"loss_changes":[1.7078983E0,2.5283957E-1,1.3760002E0,0E0,0E0,0E0,0E0],"parents":[2147483647,0,0,1,1,2,2],"right_children":[2,4,6,-1,-1,-1,-1],"split_conditions":[1.7805015E0,6.86935E1,1E2,-3.802952E-2,-3.8941682E-3,3.958684E-2,-1.7002104E-2],"split_indices":[26,10,34,0,0,0,0],"split_type":[0,0,0,0,0,0,0],"sum_hessian":[5.289677E0,2.5444345E0,2.7452428E0,1.5342214E0,1.0102131E0,1.6933107E0,1.051932E0],"tree_param":{"num_deleted":"0","num_feature":"50","num_nodes":"7","size_leaf_vector":"1"}},{"base_weights":[2.6313788E-1,-1.46274185E-2,5.2506846E-1,-6.6172513E-3,4.0199287E-2],"categories":[],"categories_nodes":[],"categories_segments":[],"categories_sizes":[],"default_left":[0,0,0,0,0],"id":48,"left_children":[1,-1,3,-1,-1],"loss_changes":[1.0568043E0,0E0,9.4533384E-1,0E0,0E0],"parents":[2147483647,0,0,2,2],"right_children":[2,-1,4,-1,-1],"split_conditions":[9.502798E-1,-1.46274185E-2,2.2716757E1,-6.6172513E-3,4.0199287E-2],"split_indices":[26,0,41,0,0],"split_type":[0,0,0,0,0],"sum_hessian":[5.2053504E0,1.6301314E0,3.575219E0,1.2215368E0,2.3536823E0],"tree_param":{"num_deleted":"0","num_feature":"50","num_nodes":"5","size_leaf_vector":"1"}},{"base_weights":[-1.3716511E-1,-3.5506085E-2,3.120538E-1,4.2284884E-2,-9.690623E-3],"categories":[],"categories_nodes":[],"categories_segments":[],"categories_sizes":[],"default_left":[0,0,0,0,0],"id":49,"left_children":[1,-1,3,-1,-1],"loss_changes":[1.8014629E0,0E0,1.2802513E0,0E0,0E0],"parents":[2147483647,0,0,2,2],"right_children":[2,-1,4,-1,-1],"split_conditions":[1.1709221E1,-3.5506085E-2,1.5379164E1,4.2284884E-2,-9.690623E-3],"split_indices":[7,0,31,0,0],"split_type":[0,0,0,0,0],"sum_hessian":[5.1381955E0,2.0028574E0,3.135338E0,1.1988631E0,1.936475E0],"tree_param":{"num_deleted":"0","num_feature":"50","num_nodes":"5","size_leaf_vector":"1"}},{"base_weights":[-1.2293908E-2,3.3257383E-1,-4.757784E-1,-1.0938132E-1,3.756981E-2,-3.8675927E-2,5.42958E-3,2.547936E-2,-3.4316693E-2],"categories":[],"categories_nodes":[],"categories_segments":[],"categories_sizes":[],"default_left":[0,0,0,0,0,0,0,0,0],"id":50,"left_children":[1,3,5,7,-1,-1,-1,-1,-1],"loss_changes":[1.2540653E0,9.1874623E-1,6.644828E-1,1.4467822E0,0E0,0E0,0E0,0E0,0E0],"parents":[2147483647,0,0,1,1,2,2,3,3],"right_children":[2,4,6,8,-1,-1,-1,-1,-1],"split_conditions":[2E0,4.4812458E1,2.3182842E1,2.9444027E1,3.756981E-2,-3.8675927E-2,5.42958E-3,2.547936E-2,-3.4316693E-2],"split_indices":[30,1,41,0,0,0,0,0,0],"split_type":[0,0,0,0,0,0,0,0,0],"sum_hessian":[5.85578E0,3.519473E0,2.336307E0,2.071935E0,1.4475381E0,1.3333021E0,1.0030049E0,1.0559003E0,1.0160346E0],"tree_param":{"num_deleted":"0","num_feature":"50","num_nodes":"9","size_leaf_vector":"1"}},{"base_weights":[1.6133991E-1,3.290611E-2,-2.5789788E-1,-3.5234E-2,2.0661188E-2],"categories":[],"categories_nodes":[],"categories_segments":[],"categories_sizes":[],"default_left":[0,0,0,0,0],"id":51,"left_children":[1,-1,3,-1,-1],"loss_changes":[1.5240697E0,0E0,1.5640666E0,0E0,0E0],"parents":[2147483647,0,0,2,2],"right_children":[2,-1,4,-1,-1],"split_conditions":[-3.20215E0,3.290611E-2,7.731052E7,-3.5234E-2,2.0661188E-2],"split_indices":[49,0,44,0,0],"split_type":[0,0,0,0,0],"sum_hessian":[5.502818E0,2.2577069E0,3.2451112E0,1.918149E0,1.3269622E0],"tree_param":{"num_deleted":"0","num_feature":"50","num_nodes":"5","size_leaf_vector":"1"}},{"base_weights":[2.1309201E-1,-2.3608607E-1,5.8482057E-1,1.699286E-2,-3.5703417E-2,2.0478654E-3,3.887397E-2],"categories":[],"categories_nodes":[],"categories_segments":[],"categories_sizes":[],"default_left":[0,0,0,0,0,0,0],"id":52,"left_children":[1,3,5,-1,-1,-1,-1],"loss_changes":[1.1714718E0,1.2103243E0,3.5312748E-1,0E0,0E0,0E0,0E0],"parents":[2147483647,0,0,1,1,2,2],"right_children":[2,4,6,-1,-1,-1,-1],"split_conditions":[1.7805015E0,2.9444027E1,4.3579002E1,1.699286E-2,-3.5703417E-2,2.0478654E-3,3.887397E-2],"split_indices":[26,0,1,0,0,0,0],"split_type":[0,0,0,0,0,0,0],"sum_hessian":[5.1890726E0,2.5149863E0,2.6740866E0,1.2716686E0,1.2433177E0,1.0166737E0,1.6574128E0],"tree_param":{"num_deleted":"0","num_feature":"50","num_nodes":"7","size_leaf_vector":"1"}},{"base_weights":[-9.6112646E-2,-4.9859846E-1,2.627039E-2,7.763238E-3,-4.1420124E-2],"categories":[],"categories_nodes":[],"categories_segments":[],"categories_sizes":[],"default_left":[0,0,0,0,0],"id":53,"left_children":[1,3,-1,-1,-1],"loss_changes":[1.4926453E0,8.831913E-1,0E0,0E0,0E0],"parents":[2147483647,0,0,1,1],"right_children":[2,4,-1,-1,-1],"split_conditions":[3.7680393E1,-1.0790966E0,2.627039E-2,7.763238E-3,-4.1420124E-2],"split_indices":[24,47,0,0,0],"split_type":[0,0,0,0,0],"sum_hessian":[3.919697E0,2.4991E0,1.4205972E0,1.0153358E0,1.4837642E0],"tree_param":{"num_deleted":"0","num_feature":"50","num_nodes":"5","size_leaf_vector":"1"}},{"base_weights":[-1.4695717E-2,4.2359242E-1,-5.2046347E-1,-9.685219E-3,3.835082E-2,-1.2054796E-3,-3.7278827E-2],"categories":[],"categories_nodes":[],"categories_segments":[],"categories_sizes":[],"default_left":[0,0,0,0,0,0,0],"id":54,"left_children":[1,3,5,-1,-1,-1,-1],"loss_changes":[1.5498176E0,9.465434E-1,3.4324783E-1,0E0,0E0,0E0,0E0],"parents":[2147483647,0,0,1,1,2,2],"right_children":[2,4,6,-1,-1,-1,-1],"split_conditions":[7.198135E1,1.7805015E0,1.1385884E0,-9.685219E-3,3.835082E-2,-1.2054796E-3,-3.7278827E-2],"split_indices":[33,26,38,0,0,0,0],"split_type":[0,0,0,0,0,0,0],"sum_hessian":[4.9969378E0,2.7641006E0,2.2328372E0,1.1439099E0,1.6201905E0,1.0421314E0,1.1907058E0],"tree_param":{"num_deleted":"0","num_feature":"50","num_nodes":"7","size_leaf_vector":"1"}},{"base_weights":[-2.943833E-2,-4.0732554E-1,3.5683442E-2,-4.0067445E-2,1.07875075E-2],"categories":[],"categories_nodes":[],"categories_segments":[],"categories_sizes":[],"default_left":[0,0,0,0,0],"id":55,"left_children":[1,3,-1,-1,-1],"loss_changes":[1.7920579E0,1.1993171E0,0E0,0E0,0E0],"parents":[2147483647,0,0,1,1],"right_children":[2,4,-1,-1,-1],"split_conditions":[3.7680393E1,2.735095E1,3.5683442E-2,-4.0067445E-2,1.07875075E-2],"split_indices":[24,42,0,0,0],"split_type":[0,0,0,0,0],"sum_hessian":[4.346529E0,3.1808531E0,1.1656758E0,1.7733169E0,1.4075361E0],"tree_param":{"num_deleted":"0","num_feature":"50","num_nodes":"5","size_leaf_vector":"1"}},{"base_weights":[1.03390835E-1,5.8811843E-1,-3.1329416E-2,2.8950057E-3,4.091641E-2],"categories":[],"categories_nodes":[],"categories_segments":[],"categories_sizes":[],"default_left":[0,0,0,0,0],"id":56,"left_children":[1,3,-1,-1,-1],"loss_changes":[2.270993E0,4.0997648E-1,0E0,0E0,0E0],"parents":[2147483647,0,0,1,1],"right_children":[2,4,-1,-1,-1],"split_conditions":[2E0,1.6300632E3,-3.1329416E-2,2.8950057E-3,4.091641E-2],"split_indices":[30,11,0,0,0],"split_type":[0,0,0,0,0],"sum_hessian":[4.3766656E0,2.746947E0,1.6297185E0,1.2104812E0,1.5364659E0],"tree_param":{"num_deleted":"0","num_feature":"50","num_nodes":"5","size_leaf_vector":"1"}},{"base_weights":[-1.6716225E-1,2.150153E-2,-5.341424E-1,1.3601453E-3,-4.0698964E-2],"categories":[],"categories_nodes":[],"categories_segments":[],"categories_sizes":[],"default_left":[0,0,0,0,0],"id":57,"left_children":[1,-1,3,-1,-1],"loss_changes":[1.4636358E0,0E0,6.4001536E-1,0E0,0E0],"parents":[2147483647,0,0,2,2],"right_children":[2,-1,4,-1,-1],"split_conditions":[1E0,2.150153E-2,5.7347527E1,1.3601453E-3,-4.0698964E-2],"split_indices":[30,0,33,0,0],"split_type":[0,0,0,0,0],"sum_hessian":[4.630361E0,1.6969986E0,2.9333627E0,1.2761766E0,1.6571862E0],"tree_param":{"num_deleted":"0","num_feature":"50","num_nodes":"5","size_leaf_vector":"1"}},{"base_weights":[2.2443242E-2,-4.9616358E-1,4.539453E-1,-1.0097537E-3,-3.5432257E-2,-4.767369E-3,3.7367836E-2],"categories":[],"categories_nodes":[],"categories_segments":[],"categories_sizes":[],"default_left":[0,0,0,0,0,0,0],"id":58,"left_children":[1,3,5,-1,-1,-1,-1],"loss_changes":[1.5493661E0,3.0579066E-1,6.7596686E-1,0E0,0E0,0E0,0E0],"parents":[2147483647,0,0,1,1,2,2],"right_children":[2,4,6,-1,-1,-1,-1],"split_conditions":[1.7805015E0,6.642032E1,4.3579002E1,-1.0097537E-3,-3.5432257E-2,-4.767369E-3,3.7367836E-2],"split_indices":[26,9,1,0,0,0,0],"split_type":[0,0,0,0,0,0,0],"sum_hessian":[4.9171305E0,2.16511E0,2.7520201E0,1.0062059E0,1.1589042E0,1.193228E0,1.5587921E0],"tree_param":{"num_deleted":"0","num_feature":"50","num_nodes":"7","size_leaf_vector":"1"}},{"base_weights":[-1.136975E-1,2.4648855E-2,-3.445894E-2],"categories":[],"categories_nodes":[],"categories_segments":[],"categories_sizes":[],"default_left":[0,0,0],"id":59,"left_children":[1,-1,-1],"loss_changes":[1.9559379E0,0E0,0E0],"parents":[2147483647,0,0],"right_children":[2,-1,-1],"split_conditions":[-5.7868066E0,2.4648855E-2,-3.445894E-2],"split_indices":[49,0,0],"split_type":[0,0,0],"sum_hessian":[3.62919E0,1.836505E0,1.792685E0],"tree_param":{"num_deleted":"0","num_feature":"50","num_nodes":"3","size_leaf_vector":"1"}},{"base_weights":[3.3107124E-2,-3.7527606E-1,3.8183492E-1,1.0847862E-2,-3.766216E-2,3.9210238E-2,-4.3713036E-3],"categories":[],"categories_nodes":[],"categories_segments":[],"categories_sizes":[],"default_left":[0,0,0,0,0,0,0],"id":60,"left_children":[1,3,5,-1,-1,-1,-1],"loss_changes":[1.0129919E0,9.059477E-1,7.841101E-1,0E0,0E0,0E0,0E0],"parents":[2147483647,0,0,1,1,2,2],"right_children":[2,4,6,-1,-1,-1,-1],"split_conditions":[1.1709221E1,6.6666664E1,1.7526978E1,1.0847862E-2,-3.766216E-2,3.9210238E-2,-4.3713036E-3],"split_indices":[7,33,7,0,0,0,0],"split_type":[0,0,0,0,0,0,0],"sum_hessian":[5.1068077E0,2.3171473E0,2.7896605E0,1.0686612E0,1.2484862E0,1.1405463E0,1.6491143E0],"tree_param":{"num_deleted":"0","num_feature":"50","num_nodes":"7","size_leaf_vector":"1"}},{"base_weights":[7.9625584E-2,5.148723E-1,-3.4197944E-1,5.983954E-3,3.2614127E-2,-3.5475485E-2,9.243181E-3],"categories":[],"categories_nodes":[],"categories_segments":[],"categories_sizes":[],"default_left":[0,0,0,0,0,0,0],"id":61,"left_children":[1,3,5,-1,-1,-1,-1],"loss_changes":[1.2000268E0,9.270483E-2,7.9634833E-1,0E0,0E0,0E0,0E0],"parents":[2147483647,0,0,1,1,2,2],"right_children":[2,4,6,-1,-1,-1,-1],"split_conditions":[-3.20215E0,4.80136E1,1.0421107E0,5.983954E-3,3.2614127E-2,-3.5475485E-2,9.243181E-3],"split_indices":[47,1,43,0,0,0,0],"split_type":[0,0,0,0,0,0,0],"sum_hessian":[4.5800476E0,2.144716E0,2.4353316E0,1.0360339E0,1.1086822E0,1.2303262E0,1.2050053E0],"tree_param":{"num_deleted":"0","num_feature":"50","num_nodes":"7","size_leaf_vector":"1"}},{"base_weights":[-1.3092113E-2,-3.9288965E-1,2.6247162E-2,-3.5973266E-2,3.4929712E-3],"categories":[],"categories_nodes":[],"categories_segments":[],"categories_sizes":[],"default_left":[0,0,0,0,0],"id":62,"left_children":[1,3,-1,-1,-1],"loss_changes":[1.2829363E0,6.034662E-1,0E0,0E0,0E0],"parents":[2147483647,0,0,1,1],"right_children":[2,4,-1,-1,-1],"split_conditions":[2.564699E1,3.017027E1,2.6247162E-2,-3.5973266E-2,3.4929712E-3],"split_indices":[42,0,0,0,0],"split_type":[0,0,0,0,0],"sum_hessian":[4.2690015E0,2.6606364E0,1.6083652E0,1.2345879E0,1.4260484E0],"tree_param":{"num_deleted":"0","num_feature":"50","num_nodes":"5","size_leaf_vector":"1"}},{"base_weights":[3.9369974E-4,4.5488635E-1,-3.5932075E-2,-9.468502E-4,3.463332E-2],"categories":[],"categories_nodes":[],"categories_segments":[],"categories_sizes":[],"default_left":[0,0,0,0,0],"id":63,"left_children":[1,3,-1,-1,-1],"loss_changes":[1.848711E0,4.0357482E-1,0E0,0E0,0E0],"parents":[2147483647,0,0,1,1],"right_children":[2,4,-1,-1,-1],"split_conditions":[2.458395E0,5.691511E-1,-3.5932075E-2,-9.468502E-4,3.463332E-2],"split_indices":[21,21,0,0,0],"split_type":[0,0,0,0,0],"sum_hessian":[3.656758E0,2.465631E0,1.1911271E0,1.1314179E0,1.334213E0],"tree_param":{"num_deleted":"0","num_feature":"50","num_nodes":"5","size_leaf_vector":"1"}},{"base_weights":[4.6439182E-2,3.1975824E-2,-3.021458E-1,-3.386176E-2,1.9816758E-2],"categories":[],"categories_nodes":[],"categories_segments":[],"categories_sizes":[],"default_left":[0,0,0,0,0],"id":64,"left_children":[1,-1,3,-1,-1],"loss_changes":[1.2974985E0,0E0,1.327717E0,0E0,0E0],"parents":[2147483647,0,0,2,2],"right_children":[2,-1,4,-1,-1],"split_conditions":[1E0,3.1975824E-2,3.725992E1,-3.386176E-2,1.9816758E-2],"split_indices":[30,0,24,0,0],"split_type":[0,0,0,0,0],"sum_hessian":[4.3414087E0,1.2981495E0,3.0432594E0,1.9997799E0,1.0434793E0],"tree_param":{"num_deleted":"0","num_feature":"50","num_nodes":"5","size_leaf_vector":"1"}},{"base_weights":[1.3104814E-1,-2.7027676E-2,4.6616077E-1,3.7864212E-2,-8.181822E-3],"categories":[],"categories_nodes":[],"categories_segments":[],"categories_sizes":[],"default_left":[0,0,0,0,0],"id":65,"left_children":[1,-1,3,-1,-1],"loss_changes":[1.5005134E0,0E0,9.0091425E-1,0E0,0E0],"parents":[2147483647,0,0,2,2],"right_children":[2,-1,4,-1,-1],"split_conditions":[2.0295738E1,-2.7027676E-2,6.286668E1,3.7864212E-2,-8.181822E-3],"split_indices":[42,0,3,0,0],"split_type":[0,0,0,0,0],"sum_hessian":[4.547482E0,1.3096842E0,3.237798E0,2.0758238E0,1.1619741E0],"tree_param":{"num_deleted":"0","num_feature":"50","num_nodes":"5","size_leaf_vector":"1"}},{"base_weights":[-1.8591273E-1,-3.0817686E-2,1.52009595E-2],"categories":[],"categories_nodes":[],"categories_segments":[],"categories_sizes":[],"default_left":[0,0,0],"id":66,"left_children":[1,-1,-1],"loss_changes":[1.1053245E0,0E0,0E0],"parents":[2147483647,0,0],"right_children":[2,-1,-1],"split_conditions":[1.0758941E1,-3.0817686E-2,1.52009595E-2],"split_indices":[31,0,0],"split_type":[0,0,0],"sum_hessian":[3.3527684E0,1.6473827E0,1.7053856E0],"tree_param":{"num_deleted":"0","num_feature":"50","num_nodes":"3","size_leaf_vector":"1"}},{"base_weights":[5.1493584E-3,2.8834066E-1,-2.0596525E-2,2.932789E-2,-1.16957E-2],"categories":[],"categories_nodes":[],"categories_segments":[],"categories_sizes":[],"default_left":[0,0,0,0,0],"id":67,"left_children":[1,3,-1,-1,-1],"loss_changes":[8.2171476E-1,7.808801E-1,0E0,0E0,0E0],"parents":[2147483647,0,0,1,1],"right_children":[2,4,-1,-1,-1],"split_conditions":[2E0,2.7191704E1,-2.0596525E-2,2.932789E-2,-1.16957E-2],"split_indices":[30,41,0,0,0],"split_type":[0,0,0,0,0],"sum_hessian":[4.951387E0,3.1328766E0,1.8185107E0,1.9157956E0,1.217081E0],"tree_param":{"num_deleted":"0","num_feature":"50","num_nodes":"5","size_leaf_vector":"1"}},{"base_weights":[-8.716253E-2,3.3876088E-1,-4.7437376E-1,-9.377311E-3,3.545311E-2,-3.673646E-2,2.8582625E-3],"categories":[],"categories_nodes":[],"categories_segments":[],"categories_sizes":[],"default_left":[0,0,0,0,0,0,0],"id":68,"left_children":[1,3,5,-1,-1,-1,-1],"loss_changes":[1.131455E0,7.9295385E-1,5.263344E-1,0E0,0E0,0E0,0E0],"parents":[2147483647,0,0,1,1,2,2],"right_children":[2,4,6,-1,-1,-1,-1],"split_conditions":[-3.20215E0,4.0399033E1,1.0570106E2,-9.377311E-3,3.545311E-2,-3.673646E-2,2.8582625E-3],"split_indices":[47,3,2,0,0,0,0],"split_type":[0,0,0,0,0,0,0],"sum_hessian":[4.8861384E0,2.3863428E0,2.4997957E0,1.1893945E0,1.1969484E0,1.4213369E0,1.0784588E0],"tree_param":{"num_deleted":"0","num_feature":"50","num_nodes":"7","size_leaf_vector":"1"}},{"base_weights":[2.530606E-1,5.4088753E-1,-1.6189933E-2,3.8628608E-2,1.7713936E-3],"categories":[],"categories_nodes":[],"categories_segments":[],"categories_sizes":[],"default_left":[0,0,0,0,0],"id":69,"left_children":[1,3,-1,-1,-1],"loss_changes":[9.862749E-1,3.98152E-1,0E0,0E0,0E0],"parents":[2147483647,0,0,1,1],"right_children":[2,4,-1,-1,-1],"split_conditions":[7.198135E1,1.4259846E3,-1.6189933E-2,3.8628608E-2,1.7713936E-3],"split_indices":[33,12,0,0,0],"split_type":[0,0,0,0,0],"sum_hessian":[3.885314E0,2.6336155E0,1.2516983E0,1.4435083E0,1.1901072E0],"tree_param":{"num_deleted":"0","num_feature":"50","num_nodes":"5","size_leaf_vector":"1"}},{"base_weights":[-8.682764E-2,2.5493398E-2,-3.0456712E-2],"categories":[],"categories_nodes":[],"categories_segments":[],"categories_sizes":[],"default_left":[0,0,0],"id":70,"left_children":[1,-1,-1],"loss_changes":[1.8226459E0,0E0,0E0],"parents":[2147483647,0,0],"right_children":[2,-1,-1],"split_conditions":[6.5789406E1,2.5493398E-2,-3.0456712E-2],"split_indices":[33,0,0],"split_type":[0,0,0],"sum_hessian":[3.8516881E0,1.8089337E0,2.0427544E0],"tree_param":{"num_deleted":"0","num_feature":"50","num_nodes":"3","size_leaf_vector":"1"}},{"base_weights":[2.3855489E-2,-2.3146065E-2,4.1179526E-1,3.534065E-2,-4.7554853E-3],"categories":[],"categories_nodes":[],"categories_segments":[],"categories_sizes":[],"default_left":[0,0,0,0,0],"id":71,"left_children":[1,-1,3,-1,-1],"loss_changes":[1.2425816E0,0E0,6.099638E-1,0E0,0E0],"parents":[2147483647,0,0,2,2],"right_children":[2,-1,4,-1,-1],"split_conditions":[1.7805015E0,-2.3146065E-2,1E2,3.534065E-2,-4.7554853E-3],"split_indices":[26,0,34,0,0],"split_type":[0,0,0,0,0],"sum_hessian":[4.570602E0,1.9413565E0,2.6292453E0,1.4126916E0,1.2165537E0],"tree_param":{"num_deleted":"0","num_feature":"50","num_nodes":"5","size_leaf_vector":"1"}},{"base_weights":[9.479678E-2,3.8199455E-1,-2.4235012E-2,-1.7485445E-2,3.6741655E-2],"categories":[],"categories_nodes":[],"categories_segments":[],"categories_sizes":[],"default_left":[0,0,0,0,0],"id":72,"left_children":[1,3,-1,-1,-1],"loss_changes":[1.0855709E0,1.3352778E0,0E0,0E0,0E0],"parents":[2147483647,0,0,1,1],"right_children":[2,4,-1,-1,-1],"split_conditions":[-8.403359E0,-7.270545E-2,-2.4235012E-2,-1.7485445E-2,3.6741655E-2],"split_indices":[29,27,0,0,0],"split_type":[0,0,0,0,0],"sum_hessian":[4.4101825E0,3.1766548E0,1.2335279E0,1.0363599E0,2.1402948E0],"tree_param":{"num_deleted":"0","num_feature":"50","num_nodes":"5","size_leaf_vector":"1"}},{"base_weights":[6.290049E-2,-2.495682E-2,4.6051925E-1,3.9151784E-2,-5.769001E-3],"categories":[],"categories_nodes":[],"categories_segments":[],"categories_sizes":[],"default_left":[0,0,0,0,0],"id":73,"left_children":[1,-1,3,-1,-1],"loss_changes":[1.3409566E0,0E0,7.277902E-1,0E0,0E0],"parents":[2147483647,0,0,2,2],"right_children":[2,-1,4,-1,-1],"split_conditions":[1.1709221E1,-2.495682E-2,2.9523119E1,3.9151784E-2,-5.769001E-3],"split_indices":[7,0,1,0,0],"split_type":[0,0,0,0,0],"sum_hessian":[3.9718652E0,1.5398966E0,2.4319687E0,1.3283745E0,1.1035941E0],"tree_param":{"num_deleted":"0","num_feature":"50","num_nodes":"5","size_leaf_vector":"1"}},{"base_weights":[6.726056E-2,1.7019564E-2,-1.5121825E-2],"categories":[],"categories_nodes":[],"categories_segments":[],"categories_sizes":[],"default_left":[0,0,0],"id":74,"left_children":[1,-1,-1],"loss_changes":[5.379417E-1,0E0,0E0],"parents":[2147483647,0,0],"right_children":[2,-1,-1],"split_conditions":[2E0,1.7019564E-2,-1.5121825E-2],"split_indices":[30,0,0],"split_type":[0,0,0],"sum_hessian":[3.30792E0,1.9480088E0,1.3599113E0],"tree_param":{"num_deleted":"0","num_feature":"50","num_nodes":"3","size_leaf_vector":"1"}},{"base_weights":[7.672776E-2,2.6830954E-2,-3.1059256E-1,-3.845094E-2,2.0805141E-2],"categories":[],"categories_nodes":[],"categories_segments":[],"categories_sizes":[],"default_left":[0,0,0,0,0],"id":75,"left_children":[1,-1,3,-1,-1],"loss_changes":[1.1769199E0,0E0,1.5566224E0,0E0,0E0],"parents":[2147483647,0,0,2,2],"right_children":[2,-1,4,-1,-1],"split_conditions":[-3.20215E0,2.6830954E-2,3.7680393E1,-3.845094E-2,2.0805141E-2],"split_indices":[47,0,24,0,0],"split_type":[0,0,0,0,0],"sum_hessian":[4.6715713E0,1.9594817E0,2.7120893E0,1.6272924E0,1.084797E0],"tree_param":{"num_deleted":"0","num_feature":"50","num_nodes":"5","size_leaf_vector":"1"}},{"base_weights":[-2.3810675E-2,2.0012995E-2,-2.2473818E-2],"categories":[],"categories_nodes":[],"categories_segments":[],"categories_sizes":[],"default_left":[0,0,0],"id":76,"left_children":[1,-1,-1],"loss_changes":[9.6991646E-1,0E0,0E0],"parents":[2147483647,0,0],"right_children":[2,-1,-1],"split_conditions":[-3.20215E0,2.0012995E-2,-2.2473818E-2],"split_indices":[47,0,0],"split_type":[0,0,0],"sum_hessian":[3.3764832E0,1.7213092E0,1.655174E0],"tree_param":{"num_deleted":"0","num_feature":"50","num_nodes":"3","size_leaf_vector":"1"}},{"base_weights":[-7.44301E-3,1.9395981E-2,-2.7262762E-1,-3.1244114E-2,1.5834803E-2],"categories":[],"categories_nodes":[],"categories_segments":[],"categories_sizes":[],"default_left":[0,0,0,0,0],"id":77,"left_children":[1,-1,3,-1,-1],"loss_changes":[6.4208394E-1,0E0,9.554156E-1,0E0,0E0],"parents":[2147483647,0,0,2,2],"right_children":[2,-1,4,-1,-1],"split_conditions":[1E0,1.9395981E-2,1.1863758E2,-3.1244114E-2,1.5834803E-2],"split_indices":[30,0,2,0,0],"split_type":[0,0,0,0,0],"sum_hessian":[4.115466E0,1.4663951E0,2.6490707E0,1.6202598E0,1.0288111E0],"tree_param":{"num_deleted":"0","num_feature":"50","num_nodes":"5","size_leaf_vector":"1"}},{"base_weights":[6.5441793E-3,-2.3418788E-2,3.488242E-1,3.4777015E-2,-6.3265264E-3],"categories":[],"categories_nodes":[],"categories_segments":[],"categories_sizes":[],"default_left":[0,0,0,0,0],"id":78,"left_children":[1,-1,3,-1,-1],"loss_changes":[9.138242E-1,0E0,6.246501E-1,0E0,0E0],"parents":[2147483647,0,0,2,2],"right_children":[2,-1,4,-1,-1],"split_conditions":[8.87742E0,-2.3418788E-2,1.5379164E1,3.4777015E-2,-6.3265264E-3],"split_indices":[7,0,31,0,0],"split_type":[0,0,0,0,0],"sum_hessian":[3.616534E0,1.3604647E0,2.2560694E0,1.0367084E0,1.2193611E0],"tree_param":{"num_deleted":"0","num_feature":"50","num_nodes":"5","size_leaf_vector":"1"}},{"base_weights":[2.4159534E-2,-2.9971784E-1,2.3890037E-2,-3.3926435E-2,6.4458395E-3],"categories":[],"categories_nodes":[],"categories_segments":[],"categories_sizes":[],"default_left":[0,0,0,0,0],"id":79,"left_children":[1,3,-1,-1,-1],"loss_changes":[9.380388E-1,6.997548E-1,0E0,0E0,0E0],"parents":[2147483647,0,0,1,1],"right_children":[2,4,-1,-1,-1],"split_conditions":[4.691018E1,1.0758941E1,2.3890037E-2,-3.3926435E-2,6.4458395E-3],"split_indices":[1,31,0,0,0],"split_type":[0,0,0,0,0],"sum_hessian":[4.409823E0,2.770867E0,1.6389557E0,1.1614351E0,1.6094319E0],"tree_param":{"num_deleted":"0","num_feature":"50","num_nodes":"5","size_leaf_vector":"1"}},{"base_weights":[6.3976444E-2,-3.2006672E-1,3.939635E-1,9.651234E-3,-3.3362187E-2,3.400076E-2,-5.4464396E-4],"categories":[],"categories_nodes":[],"categories_segments":[],"categories_sizes":[],"default_left":[0,0,0,0,0,0,0],"id":80,"left_children":[1,3,5,-1,-1,-1,-1],"loss_changes":[8.237967E-1,6.803094E-1,4.0224677E-1,0E0,0E0,0E0,0E0],"parents":[2147483647,0,0,1,1,2,2],"right_children":[2,4,6,-1,-1,-1,-1],"split_conditions":[1.1709221E1,-7.344689E0,1.7526978E1,9.651234E-3,-3.3362187E-2,3.400076E-2,-5.4464396E-4],"split_indices":[7,47,7,0,0,0,0],"split_type":[0,0,0,0,0,0,0],"sum_hessian":[4.5054536E0,2.0960758E0,2.4093776E0,1.0251006E0,1.0709753E0,1.0135834E0,1.3957942E0],"tree_param":{"num_deleted":"0","num_feature":"50","num_nodes":"7","size_leaf_vector":"1"}},{"base_weights":[1.8327314E-1,2.8624738E-2,-3.0641878E-1,-3.17634E-2,8.275645E-3],"categories":[],"categories_nodes":[],"categories_segments":[],"categories_sizes":[],"default_left":[0,0,0,0,0],"id":81,"left_children":[1,-1,3,-1,-1],"loss_changes":[1.2128079E0,0E0,5.802982E-1,0E0,0E0],"parents":[2147483647,0,0,2,2],"right_children":[2,-1,4,-1,-1],"split_conditions":[7.198135E1,2.8624738E-2,8.4509865E1,-3.17634E-2,8.275645E-3],"split_indices":[33,0,33,0,0],"split_type":[0,0,0,0,0],"sum_hessian":[4.44277E0,2.3811052E0,2.0616646E0,1.0110487E0,1.0506159E0],"tree_param":{"num_deleted":"0","num_feature":"50","num_nodes":"5","size_leaf_vector":"1"}},{"base_weights":[9.514361E-4,3.3451855E-1,-2.2290325E-2,-1.0946295E-2,3.5583112E-2],"categories":[],"categories_nodes":[],"categories_segments":[],"categories_sizes":[],"default_left":[0,0,0,0,0],"id":82,"left_children":[1,3,-1,-1,-1],"loss_changes":[9.080047E-1,8.8359326E-1,0E0,0E0,0E0],"parents":[2147483647,0,0,1,1],"right_children":[2,4,-1,-1,-1],"split_conditions":[1.4825813E3,2.5844717E1,-2.2290325E-2,-1.0946295E-2,3.5583112E-2],"split_indices":[28,1,0,0,0],"split_type":[0,0,0,0,0],"sum_hessian":[4.092303E0,2.4867947E0,1.6055082E0,1.1778537E0,1.308941E0],"tree_param":{"num_deleted":"0","num_feature":"50","num_nodes":"5","size_leaf_vector":"1"}},{"base_weights":[2.5281481E-2,-2.0688918E-1,2.32066E-2,-3.558345E-2,1.4233852E-2],"categories":[],"categories_nodes":[],"categories_segments":[],"categories_sizes":[],"default_left":[0,0,0,0,0],"id":83,"left_children":[1,3,-1,-1,-1],"loss_changes":[6.716079E-1,1.2909703E0,0E0,0E0,0E0],"parents":[2147483647,0,0,1,1],"right_children":[2,4,-1,-1,-1],"split_conditions":[3.7680393E1,1.6531278E3,2.32066E-2,-3.558345E-2,1.4233852E-2],"split_indices":[24,11,0,0,0],"split_type":[0,0,0,0,0],"sum_hessian":[4.6491714E0,3.3862605E0,1.2629107E0,1.4497658E0,1.9364946E0],"tree_param":{"num_deleted":"0","num_feature":"50","num_nodes":"5","size_leaf_vector":"1"}},{"base_weights":[5.2085023E-2,-1.3458373E-2,3.2498014E-1,3.385513E-2,-8.953122E-3],"categories":[],"categories_nodes":[],"categories_segments":[],"categories_sizes":[],"default_left":[0,0,0,0,0],"id":84,"left_children":[1,-1,3,-1,-1],"loss_changes":[5.950416E-1,0E0,7.572527E-1,0E0,0E0],"parents":[2147483647,0,0,2,2],"right_children":[2,-1,4,-1,-1],"split_conditions":[1.7805015E0,-1.3458373E-2,1E2,3.385513E-2,-8.953122E-3],"split_indices":[26,0,34,0,0],"split_type":[0,0,0,0,0],"sum_hessian":[4.78964E0,2.2061808E0,2.5834591E0,1.3188035E0,1.2646555E0],"tree_param":{"num_deleted":"0","num_feature":"50","num_nodes":"5","size_leaf_vector":"1"}},{"base_weights":[2.2394377E-1,4.4396263E-1,-1.4142199E-2,6.995268E-4,3.138552E-2],"categories":[],"categories_nodes":[],"categories_segments":[],"categories_sizes":[],"default_left":[0,0,0,0,0],"id":85,"left_children":[1,3,-1,-1,-1],"loss_changes":[6.9147515E-1,3.015564E-1,0E0,0E0,0E0],"parents":[2147483647,0,0,1,1],"right_children":[2,4,-1,-1,-1],"split_conditions":[3E0,2.5052422E1,-1.4142199E-2,6.995268E-4,3.138552E-2],"split_indices":[30,24,0,0,0],"split_type":[0,0,0,0,0],"sum_hessian":[4.075232E0,2.9280179E0,1.147214E0,1.1988447E0,1.7291733E0],"tree_param":{"num_deleted":"0","num_feature":"50","num_nodes":"5","size_leaf_vector":"1"}},{"base_weights":[4.6810023E-2,-3.551018E-1,4.1373754E-1,-3.051483E-2,3.859377E-3,-6.2353804E-4,3.369245E-2],"categories":[],"categories_nodes":[],"categories_segments":[],"categories_sizes":[],"default_left":[0,0,0,0,0,0,0],"id":86,"left_children":[1,3,5,-1,-1,-1,-1],"loss_changes":[9.2372596E-1,3.8380072E-1,3.6487293E-1,0E0,0E0,0E0,0E0],"parents":[2147483647,0,0,1,1,2,2],"right_children":[2,4,6,-1,-1,-1,-1],"split_conditions":[1.0758941E1,2.9558403E1,1.700616E8,-3.051483E-2,3.859377E-3,-6.2353804E-4,3.369245E-2],"split_indices":[31,25,4,0,0,0,0],"split_type":[0,0,0,0,0,0,0],"sum_hessian":[4.2674704E0,2.0520256E0,2.2154448E0,1.0313859E0,1.0206395E0,1.2004657E0,1.0149791E0],"tree_param":{"num_deleted":"0","num_feature":"50","num_nodes":"7","size_leaf_vector":"1"}},{"base_weights":[7.826539E-2,-2.688814E-1,3.7840676E-1,9.124229E-3,-3.0471653E-2,3.3037804E-2,-5.2448544E-3],"categories":[],"categories_nodes":[],"categories_segments":[],"categories_sizes":[],"default_left":[0,0,0,0,0,0,0],"id":87,"left_children":[1,3,5,-1,-1,-1,-1],"loss_changes":[6.7751396E-1,5.949391E-1,5.304146E-1,0E0,0E0,0E0,0E0],"parents":[2147483647,0,0,1,1,2,2],"right_children":[2,4,6,-1,-1,-1,-1],"split_conditions":[1.7805015E0,2.9444027E1,1E2,9.124229E-3,-3.0471653E-2,3.3037804E-2,-5.2448544E-3],"split_indices":[26,0,34,0,0,0,0],"split_type":[0,0,0,0,0,0,0],"sum_hessian":[4.525964E0,2.1469405E0,2.3790236E0,1.1228582E0,1.0240823E0,1.2699473E0,1.1090763E0],"tree_param":{"num_deleted":"0","num_feature":"50","num_nodes":"7","size_leaf_vector":"1"}},{"base_weights":[-1.7734127E-2,1.5493251E-2,-1.6846923E-2],"categories":[],"categories_nodes":[],"categories_segments":[],"categories_sizes":[],"default_left":[0,0,0],"id":88,"left_children":[1,-1,-1],"loss_changes":[6.066855E-1,0E0,0E0],"parents":[2147483647,0,0],"right_children":[2,-1,-1],"split_conditions":[2.3181194E1,1.5493251E-2,-1.6846923E-2],"split_indices":[42,0,0],"split_type":[0,0,0],"sum_hessian":[3.803242E0,1.891379E0,1.911863E0],"tree_param":{"num_deleted":"0","num_feature":"50","num_nodes":"3","size_leaf_vector":"1"}},{"base_weights":[4.8663627E-2,-2.1917071E-2,3.398968E-1,-5.0100717E-3,3.0442923E-2],"categories":[],"categories_nodes":[],"categories_segments":[],"categories_sizes":[],"default_left":[0,0,0,0,0],"id":89,"left_children":[1,-1,3,-1,-1],"loss_changes":[7.809117E-1,0E0,4.5770684E-1,0E0,0E0],"parents":[2147483647,0,0,2,2],"right_children":[2,-1,4,-1,-1],"split_conditions":[2.6898659E1,-2.1917071E-2,1.1709221E1,-5.0100717E-3,3.0442923E-2],"split_indices":[0,0,7,0,0],"split_type":[0,0,0,0,0],"sum_hessian":[3.4554174E0,1.1040629E0,2.3513546E0,1.1299249E0,1.2214297E0],"tree_param":{"num_deleted":"0","num_feature":"50","num_nodes":"5","size_leaf_vector":"1"}},{"base_weights":[-2.543985E-1,1.0093883E-2,-3.3990845E-2],"categories":[],"categories_nodes":[],"categories_segments":[],"categories_sizes":[],"default_left":[0,0,0],"id":90,"left_children":[1,-1,-1],"loss_changes":[8.971535E-1,0E0,0E0],"parents":[2147483647,0,0],"right_children":[2,-1,-1],"split_conditions":[7.198135E1,1.0093883E-2,-3.3990845E-2],"split_indices":[33,0,0],"split_type":[0,0,0],"sum_hessian":[2.9148962E0,1.6599753E0,1.2549208E0],"tree_param":{"num_deleted":"0","num_feature":"50","num_nodes":"3","size_leaf_vector":"1"}},{"base_weights":[1.8108383E-1,4.9566624E-1,-1.1354963E-2,8.052125E-3,3.018868E-2],"categories":[],"categories_nodes":[],"categories_segments":[],"categories_sizes":[],"default_left":[0,0,0,0,0],"id":91,"left_children":[1,3,-1,-1,-1],"loss_changes":[7.685234E-1,1.8498719E-2,0E0,0E0,0E0],"parents":[2147483647,0,0,1,1],"right_children":[2,4,-1,-1,-1],"split_conditions":[2E0,3.4517883E1,-1.1354963E-2,8.052125E-3,3.018868E-2],"split_indices":[30,1,0,0,0],"split_type":[0,0,0,0,0],"sum_hessian":[4.1084194E0,2.1991978E0,1.9092216E0,1.1449373E0,1.0542605E0],"tree_param":{"num_deleted":"0","num_feature":"50","num_nodes":"5","size_leaf_vector":"1"}},{"base_weights":[-6.323058E-2,1.7878506E-2,-2.3003317E-2],"categories":[],"categories_nodes":[],"categories_segments":[],"categories_sizes":[],"default_left":[0,0,0],"id":92,"left_children":[1,-1,-1],"loss_changes":[8.6934084E-1,0E0,0E0],"parents":[2147483647,0,0],"right_children":[2,-1,-1],"split_conditions":[-3.20215E0,1.7878506E-2,-2.3003317E-2],"split_indices":[47,0,0],"split_type":[0,0,0],"sum_hessian":[3.2208517E0,1.6112477E0,1.609604E0],"tree_param":{"num_deleted":"0","num_feature":"50","num_nodes":"3","size_leaf_vector":"1"}},{"base_weights":[2.795373E-1,-8.187413E-3,2.8446285E-2],"categories":[],"categories_nodes":[],"categories_segments":[],"categories_sizes":[],"default_left":[0,0,0],"id":93,"left_children":[1,-1,-1],"loss_changes":[6.553135E-1,0E0,0E0],"parents":[2147483647,0,0],"right_children":[2,-1,-1],"split_conditions":[1.1709221E1,-8.187413E-3,2.8446285E-2],"split_indices":[7,0,0],"split_type":[0,0,0],"sum_hessian":[3.382176E0,1.5073588E0,1.8748173E0],"tree_param":{"num_deleted":"0","num_feature":"50","num_nodes":"3","size_leaf_vector":"1"}},{"base_weights":[-1.4315666E-1,1.5462826E-2,-2.6823571E-2],"categories":[],"categories_nodes":[],"categories_segments":[],"categories_sizes":[],"default_left":[0,0,0],"id":94,"left_children":[1,-1,-1],"loss_changes":[9.990311E-1,0E0,0E0],"parents":[2147483647,0,0],"right_children":[2,-1,-1],"split_conditions":[1.4825813E3,1.5462826E-2,-2.6823571E-2],"split_indices":[28,0,0],"split_type":[0,0,0],"sum_hessian":[3.6820283E0,1.811758E0,1.8702703E0],"tree_param":{"num_deleted":"0","num_feature":"50","num_nodes":"3","size_leaf_vector":"1"}},{"base_weights":[-1.4061528E-2,3.1721133E-1,-2.1851411E-2,-1.0128488E-2,3.3157725E-2],"categories":[],"categories_nodes":[],"categories_segments":[],"categories_sizes":[],"default_left":[0,0,0,0,0],"id":95,"left_children":[1,3,-1,-1,-1],"loss_changes":[8.1054294E-1,7.220768E-1,0E0,0E0,0E0],"parents":[2147483647,0,0,1,1],"right_children":[2,4,-1,-1,-1],"split_conditions":[1.4825813E3,2.5844717E1,-2.1851411E-2,-1.0128488E-2,3.3157725E-2],"split_indices":[28,1,0,0,0],"split_type":[0,0,0,0,0],"sum_hessian":[3.7953563E0,2.2685957E0,1.5267606E0,1.0721412E0,1.1964545E0],"tree_param":{"num_deleted":"0","num_feature":"50","num_nodes":"5","size_leaf_vector":"1"}},{"base_weights":[1.4907495E-2,2.2096967E-2,-2.9594055E-1,-3.586507E-2,1.3270517E-2],"categories":[],"categories_nodes":[],"categories_segments":[],"categories_sizes":[],"default_left":[0,0,0,0,0],"id":96,"left_children":[1,-1,3,-1,-1],"loss_changes":[7.9012394E-1,0E0,1.0119711E0,0E0,0E0],"parents":[2147483647,0,0,2,2],"right_children":[2,-1,4,-1,-1],"split_conditions":[1.3557852E3,2.2096967E-2,2.4336958E3,-3.586507E-2,1.3270517E-2],"split_indices":[8,0,11,0,0],"split_type":[0,0,0,0,0],"sum_hessian":[3.9670494E0,1.493547E0,2.4735024E0,1.254236E0,1.2192664E0],"tree_param":{"num_deleted":"0","num_feature":"50","num_nodes":"5","size_leaf_vector":"1"}},{"base_weights":[2.681527E-2,1.9328572E-2,-1.5115949E-2],"categories":[],"categories_nodes":[],"categories_segments":[],"categories_sizes":[],"default_left":[0,0,0],"id":97,"left_children":[1,-1,-1],"loss_changes":[6.5947896E-1,0E0,0E0],"parents":[2147483647,0,0],"right_children":[2,-1,-1],"split_conditions":[6.5789406E1,1.9328572E-2,-1.5115949E-2],"split_indices":[33,0,0],"split_type":[0,0,0],"sum_hessian":[3.5825508E0,1.6282748E0,1.9542758E0],"tree_param":{"num_deleted":"0","num_feature":"50","num_nodes":"3","size_leaf_vector":"1"}},{"base_weights":[3.7198443E-2,2.2090157E-2,-2.2221308E-2],"categories":[],"categories_nodes":[],"categories_segments":[],"categories_sizes":[],"default_left":[0,0,0],"id":98,"left_children":[1,-1,-1],"loss_changes":[1.0799142E0,0E0,0E0],"parents":[2147483647,0,0],"right_children":[2,-1,-1],"split_conditions":[1.4825813E3,2.2090157E-2,-2.2221308E-2],"split_indices":[28,0,0],"split_type":[0,0,0],"sum_hessian":[3.5341842E0,1.9655992E0,1.568585E0],"tree_param":{"num_deleted":"0","num_feature":"50","num_nodes":"3","size_leaf_vector":"1"}},{"base_weights":[1.5299477E-1,-9.926009E-3,2.2475004E-2],"categories":[],"categories_nodes":[],"categories_segments":[],"categories_sizes":[],"default_left":[0,0,0],"id":99,"left_children":[1,-1,-1],"loss_changes":[5.7266116E-1,0E0,0E0],"parents":[2147483647,0,0],"right_children":[2,-1,-1],"split_conditions":[1.7805015E0,-9.926009E-3,2.2475004E-2],"split_indices":[26,0,0],"split_type":[0,0,0],"sum_hessian":[3.638249E0,1.8159081E0,1.822341E0],"tree_param":{"num_deleted":"0","num_feature":"50","num_nodes":"3","size_leaf_vector":"1"}},{"base_weights":[1.21180914E-1,2.5191847E-2,-1.3552241E-2],"categories":[],"categories_nodes":[],"categories_segments":[],"categories_sizes":[],"default_left":[0,0,0],"id":100,"left_children":[1,-1,-1],"loss_changes":[8.302144E-1,0E0,0E0],"parents":[2147483647,0,0],"right_children":[2,-1,-1],"split_conditions":[-3.20215E0,2.5191847E-2,-1.3552241E-2],"split_indices":[47,0,0],"split_type":[0,0,0],"sum_hessian":[3.6216495E0,1.6891518E0,1.9324976E0],"tree_param":{"num_deleted":"0","num_feature":"50","num_nodes":"3","size_leaf_vector":"1"}},{"base_weights":[-6.3446365E-2,2.9424807E-1,-2.3849612E-2,-1.0284292E-2,3.2017943E-2],"categories":[],"categories_nodes":[],"categories_segments":[],"categories_sizes":[],"default_left":[0,0,0,0,0],"id":101,"left_children":[1,3,-1,-1,-1],"loss_changes":[8.511627E-1,6.845684E-1,0E0,0E0,0E0],"parents":[2147483647,0,0,1,1],"right_children":[2,4,-1,-1,-1],"split_conditions":[1.4825813E3,2.5844717E1,-2.3849612E-2,-1.0284292E-2,3.2017943E-2],"split_indices":[28,1,0,0,0],"split_type":[0,0,0,0,0],"sum_hessian":[3.8052592E0,2.1950967E0,1.6101625E0,1.0639765E0,1.1311202E0],"tree_param":{"num_deleted":"0","num_feature":"50","num_nodes":"5","size_leaf_vector":"1"}},{"base_weights":[6.554945E-2,2.2944098E-2,-1.4735775E-1,2.1612202E-1,-3.12237E-2,1.543198E-2,9.1109856E-4],"categories":[],"categories_nodes":[],"categories_segments":[],"categories_sizes":[],"default_left":[0,0,0,0,0,0,0],"id":102,"left_children":[1,-1,3,5,-1,-1,-1],"loss_changes":[5.0921905E-1,0E0,8.595636E-1,5.1398963E-2,0E0,0E0,0E0],"parents":[2147483647,0,0,2,2,3,3],"right_children":[2,-1,4,6,-1,-1,-1],"split_conditions":[1E0,2.2944098E-2,7.198135E1,2.404854E3,-3.12237E-2,1.543198E-2,9.1109856E-4],"split_indices":[30,0,33,5,0,0,0],"split_type":[0,0,0,0,0,0,0],"sum_hessian":[4.2732472E0,1.0949965E0,3.1782506E0,2.1144392E0,1.0638113E0,1.0595367E0,1.0549027E0],"tree_param":{"num_deleted":"0","num_feature":"50","num_nodes":"7","size_leaf_vector":"1"}},{"base_weights":[1.0217686E-2,-1.8192105E-2,1.8180778E-2],"categories":[],"categories_nodes":[],"categories_segments":[],"categories_sizes":[],"default_left":[0,0,0],"id":103,"left_children":[1,-1,-1],"loss_changes":[6.913038E-1,0E0,0E0],"parents":[2147483647,0,0],"right_children":[2,-1,-1],"split_conditions":[1.0758941E1,-1.8192105E-2,1.8180778E-2],"split_indices":[31,0,0],"split_type":[0,0,0],"sum_hessian":[3.2287385E0,1.5541594E0,1.6745791E0],"tree_param":{"num_deleted":"0","num_feature":"50","num_nodes":"3","size_leaf_vector":"1"}},{"base_weights":[-4.8717443E-2,1.9147389E-2,-2.7638424E-2],"categories":[],"categories_nodes":[],"categories_segments":[],"categories_sizes":[],"default_left":[0,0,0],"id":104,"left_children":[1,-1,-1],"loss_changes":[1.1047847E0,0E0,0E0],"parents":[2147483647,0,0],"right_children":[2,-1,-1],"split_conditions":[-3.20215E0,1.9147389E-2,-2.7638424E-2],"split_indices":[47,0,0],"split_type":[0,0,0],"sum_hessian":[3.1046877E0,1.8018543E0,1.3028334E0],"tree_param":{"num_deleted":"0","num_feature":"50","num_nodes":"3","size_leaf_vector":"1"}},{"base_weights":[9.46859E-3,2.2136187E-2,-2.075228E-2],"categories":[],"categories_nodes":[],"categories_segments":[],"categories_sizes":[],"default_left":[0,0,0],"id":105,"left_children":[1,-1,-1],"loss_changes":[1.0091652E0,0E0,0E0],"parents":[2147483647,0,0],"right_children":[2,-1,-1],"split_conditions":[-3.20215E0,2.2136187E-2,-2.075228E-2],"split_indices":[49,0,0],"split_type":[0,0,0],"sum_hessian":[3.487829E0,1.7049143E0,1.7829148E0],"tree_param":{"num_deleted":"0","num_feature":"50","num_nodes":"3","size_leaf_vector":"1"}},{"base_weights":[-5.4457184E-2,1.5764132E-2,-2.0091886E-2],"categories":[],"categories_nodes":[],"categories_segments":[],"categories_sizes":[],"default_left":[0,0,0],"id":106,"left_children":[1,-1,-1],"loss_changes":[7.2279036E-1,0E0,0E0],"parents":[2147483647,0,0],"right_children":[2,-1,-1],"split_conditions":[1.1662796E0,1.5764132E-2,-2.0091886E-2],"split_indices":[38,0,0],"split_type":[0,0,0],"sum_hessian":[3.641047E0,1.8085202E0,1.8325267E0],"tree_param":{"num_deleted":"0","num_feature":"50","num_nodes":"3","size_leaf_vector":"1"}},{"base_weights":[8.030594E-2,-1.897709E-2,2.2484833E-2],"categories":[],"categories_nodes":[],"categories_segments":[],"categories_sizes":[],"default_left":[0,0,0],"id":107,"left_children":[1,-1,-1],"loss_changes":[8.728787E-1,0E0,0E0],"parents":[2147483647,0,0],"right_children":[2,-1,-1],"split_conditions":[1.7805015E0,-1.897709E-2,2.2484833E-2],"split_indices":[26,0,0],"split_type":[0,0,0],"sum_hessian":[3.1339073E0,1.3837818E0,1.7501254E0],"tree_param":{"num_deleted":"0","num_feature":"50","num_nodes":"3","size_leaf_vector":"1"}},{"base_weights":[1.05058104E-1,-1.4796156E-1,2.0981325E-2,-3.1134918E-2,1.9354196E-2],"categories":[],"categories_nodes":[],"categories_segments":[],"categories_sizes":[],"default_left":[0,0,0,0,0],"id":108,"left_children":[1,3,-1,-1,-1],"loss_changes":[3.949779E-1,1.0176107E0,0E0,0E0,0E0],"parents":[2147483647,0,0,1,1],"right_children":[2,4,-1,-1,-1],"split_conditions":[3.7680393E1,4.691018E1,2.0981325E-2,-3.1134918E-2,1.9354196E-2],"split_indices":[24,1,0,0,0],"split_type":[0,0,0,0,0],"sum_hessian":[3.1824474E0,2.0573092E0,1.125138E0,1.0032867E0,1.0540226E0],"tree_param":{"num_deleted":"0","num_feature":"50","num_nodes":"5","size_leaf_vector":"1"}},{"base_weights":[2.1311635E-1,-8.890383E-3,2.5830625E-2],"categories":[],"categories_nodes":[],"categories_segments":[],"categories_sizes":[],"default_left":[0,0,0],"id":109,"left_children":[1,-1,-1],"loss_changes":[6.405556E-1,0E0,0E0],"parents":[2147483647,0,0],"right_children":[2,-1,-1],"split_conditions":[1.7805015E0,-8.890383E-3,2.5830625E-2],"split_indices":[26,0,0],"split_type":[0,0,0],"sum_hessian":[3.624745E0,1.7651916E0,1.8595533E0],"tree_param":{"num_deleted":"0","num_feature":"50","num_nodes":"3","size_leaf_vector":"1"}},{"base_weights":[-2.737631E-1,-3.2973614E-2,6.8305023E-3],"categories":[],"categories_nodes":[],"categories_segments":[],"categories_sizes":[],"default_left":[0,0,0],"id":110,"left_children":[1,-1,-1],"loss_changes":[7.391083E-1,0E0,0E0],"parents":[2147483647,0,0],"right_children":[2,-1,-1],"split_conditions":[1.7805015E0,-3.2973614E-2,6.8305023E-3],"split_indices":[26,0,0],"split_type":[0,0,0],"sum_hessian":[3.1003203E0,1.2852806E0,1.8150396E0],"tree_param":{"num_deleted":"0","num_feature":"50","num_nodes":"3","size_leaf_vector":"1"}},{"base_weights":[6.0939815E-2,-1.7498074E-2,3.6033309E-1,2.8270978E-2,-9.882926E-4],"categories":[],"categories_nodes":[],"categories_segments":[],"categories_sizes":[],"default_left":[0,0,0,0,0],"id":111,"left_children":[1,-1,3,-1,-1],"loss_changes":[6.690728E-1,0E0,2.4861819E-1,0E0,0E0],"parents":[2147483647,0,0,2,2],"right_children":[2,-1,4,-1,-1],"split_conditions":[1.7805015E0,-1.7498074E-2,6.96905E1,2.8270978E-2,-9.882926E-4],"split_indices":[26,0,33,0,0],"split_type":[0,0,0,0,0],"sum_hessian":[3.4136348E0,1.3676735E0,2.0459611E0,1.0122381E0,1.033723E0],"tree_param":{"num_deleted":"0","num_feature":"50","num_nodes":"5","size_leaf_vector":"1"}},{"base_weights":[5.593582E-2,2.0356538E-2,-1.6188126E-2],"categories":[],"categories_nodes":[],"categories_segments":[],"categories_sizes":[],"default_left":[0,0,0],"id":112,"left_children":[1,-1,-1],"loss_changes":[7.566539E-1,0E0,0E0],"parents":[2147483647,0,0],"right_children":[2,-1,-1],"split_conditions":[1.4825813E3,2.0356538E-2,-1.6188126E-2],"split_indices":[28,0,0],"split_type":[0,0,0],"sum_hessian":[3.685782E0,1.8772273E0,1.8085545E0],"tree_param":{"num_deleted":"0","num_feature":"50","num_nodes":"3","size_leaf_vector":"1"}},{"base_weights":[-2.0595174E-2,-1.9120252E-2,1.5066263E-2],"categories":[],"categories_nodes":[],"categories_segments":[],"categories_sizes":[],"default_left":[0,0,0],"id":113,"left_children":[1,-1,-1],"loss_changes":[6.1503726E-1,0E0,0E0],"parents":[2147483647,0,0],"right_children":[2,-1,-1],"split_conditions":[1.7805015E0,-1.9120252E-2,1.5066263E-2],"split_indices":[26,0,0],"split_type":[0,0,0],"sum_hessian":[3.291164E0,1.4611146E0,1.8300493E0],"tree_param":{"num_deleted":"0","num_feature":"50","num_nodes":"3","size_leaf_vector":"1"}},{"base_weights":[1.7479551E-3,-2.3202994E-1,2.0722656E-2,9.364927E-3,-3.1527173E-2],"categories":[],"categories_nodes":[],"categories_segments":[],"categories_sizes":[],"default_left":[0,0,0,0,0],"id":114,"left_children":[1,3,-1,-1,-1],"loss_changes":[5.566798E-1,7.344209E-1,0E0,0E0,0E0],"parents":[2147483647,0,0,1,1],"right_children":[2,4,-1,-1,-1],"split_conditions":[3.7680393E1,4.78776E1,2.0722656E-2,9.364927E-3,-3.1527173E-2],"split_indices":[24,3,0,0,0],"split_type":[0,0,0,0,0],"sum_hessian":[3.773091E0,2.6881592E0,1.084932E0,1.56813E0,1.1200292E0],"tree_param":{"num_deleted":"0","num_feature":"50","num_nodes":"5","size_leaf_vector":"1"}},{"base_weights":[4.542817E-2,-1.6104117E-2,1.758216E-2],"categories":[],"categories_nodes":[],"categories_segments":[],"categories_sizes":[],"default_left":[0,0,0],"id":115,"left_children":[1,-1,-1],"loss_changes":[6.4265656E-1,0E0,0E0],"parents":[2147483647,0,0],"right_children":[2,-1,-1],"split_conditions":[1.1709221E1,-1.6104117E-2,1.758216E-2],"split_indices":[7,0,0],"split_type":[0,0,0],"sum_hessian":[3.7042084E0,1.6600482E0,2.0441601E0],"tree_param":{"num_deleted":"0","num_feature":"50","num_nodes":"3","size_leaf_vector":"1"}},{"base_weights":[3.193455E-2,3.2757193E-1,-2.0200055E-2,-2.4660977E-3,2.8771041E-2],"categories":[],"categories_nodes":[],"categories_segments":[],"categories_sizes":[],"default_left":[0,0,0,0,0],"id":116,"left_children":[1,3,-1,-1,-1],"loss_changes":[7.110731E-1,3.2992518E-1,0E0,0E0,0E0],"parents":[2147483647,0,0,1,1],"right_children":[2,4,-1,-1,-1],"split_conditions":[7.198135E1,1.7888868E0,-2.0200055E-2,-2.4660977E-3,2.8771041E-2],"split_indices":[33,26,0,0,0],"split_type":[0,0,0,0,0],"sum_hessian":[3.490524E0,2.2280858E0,1.262438E0,1.2017034E0,1.0263824E0],"tree_param":{"num_deleted":"0","num_feature":"50","num_nodes":"5","size_leaf_vector":"1"}},{"base_weights":[-1.3337174E-1,-4.2725402E-1,1.9676408E-2,-3.2693785E-2,1.4719194E-3],"categories":[],"categories_nodes":[],"categories_segments":[],"categories_sizes":[],"default_left":[0,0,0,0,0],"id":117,"left_children":[1,3,-1,-1,-1],"loss_changes":[8.319577E-1,3.5369366E-1,0E0,0E0,0E0],"parents":[2147483647,0,0,1,1],"right_children":[2,4,-1,-1,-1],"split_conditions":[3.7680393E1,4.3579002E1,1.9676408E-2,-3.2693785E-2,1.4719194E-3],"split_indices":[24,1,0,0,0],"split_type":[0,0,0,0,0],"sum_hessian":[3.2869616E0,2.2314637E0,1.0554979E0,1.202828E0,1.0286356E0],"tree_param":{"num_deleted":"0","num_feature":"50","num_nodes":"5","size_leaf_vector":"1"}},{"base_weights":[9.0514995E-2,1.8053723E-2,-9.571347E-3],"categories":[],"categories_nodes":[],"categories_segments":[],"categories_sizes":[],"default_left":[0,0,0],"id":118,"left_children":[1,-1,-1],"loss_changes":[4.2265198E-1,0E0,0E0],"parents":[2147483647,0,0],"right_children":[2,-1,-1],"split_conditions":[1.4825813E3,1.8053723E-2,-9.571347E-3],"split_indices":[28,0,0],"split_type":[0,0,0],"sum_hessian":[3.634544E0,1.7114849E0,1.9230591E0],"tree_param":{"num_deleted":"0","num_feature":"50","num_nodes":"3","size_leaf_vector":"1"}},{"base_weights":[-4.1093126E-2,-2.2700122E-2,1.7309992E-2],"categories":[],"categories_nodes":[],"categories_segments":[],"categories_sizes":[],"default_left":[0,0,0],"id":119,"left_children":[1,-1,-1],"loss_changes":[7.860756E-1,0E0,0E0],"parents":[2147483647,0,0],"right_children":[2,-1,-1],"split_conditions":[1.0766071E0,-2.2700122E-2,1.7309992E-2],"split_indices":[27,0,0],"split_type":[0,0,0],"sum_hessian":[2.9326684E0,1.3360276E0,1.5966408E0],"tree_param":{"num_deleted":"0","num_feature":"50","num_nodes":"3","size_leaf_vector":"1"}},{"base_weights":[-1.215356E-1,-3.894162E-1,1.8799584E-2,4.420575E-3,-3.3569902E-2],"categories":[],"categories_nodes":[],"categories_segments":[],"categories_sizes":[],"default_left":[0,0,0,0,0],"id":120,"left_children":[1,3,-1,-1,-1],"loss_changes":[7.2734493E-1,5.0729823E-1,0E0,0E0,0E0],"parents":[2147483647,0,0,1,1],"right_children":[2,4,-1,-1,-1],"split_conditions":[3.7680393E1,9.356868E-1,1.8799584E-2,4.420575E-3,-3.3569902E-2],"split_indices":[24,38,0,0,0],"split_type":[0,0,0,0,0],"sum_hessian":[3.3587697E0,2.3245E0,1.0342696E0,1.1174343E0,1.2070658E0],"tree_param":{"num_deleted":"0","num_feature":"50","num_nodes":"5","size_leaf_vector":"1"}},{"base_weights":[2.0851316E-2,1.9247081E-2,-1.4406134E-2],"categories":[],"categories_nodes":[],"categories_segments":[],"categories_sizes":[],"default_left":[0,0,0],"id":121,"left_children":[1,-1,-1],"loss_changes":[5.675932E-1,0E0,0E0],"parents":[2147483647,0,0],"right_children":[2,-1,-1],"split_conditions":[1.3557852E3,1.9247081E-2,-1.4406134E-2],"split_indices":[8,0,0],"split_type":[0,0,0],"sum_hessian":[3.0596035E0,1.2916602E0,1.7679433E0],"tree_param":{"num_deleted":"0","num_feature":"50","num_nodes":"3","size_leaf_vector":"1"}},{"base_weights":[1.5690748E-2,-1.5490079E-2,2.1499433E-2],"categories":[],"categories_nodes":[],"categories_segments":[],"categories_sizes":[],"default_left":[0,0,0],"id":122,"left_children":[1,-1,-1],"loss_changes":[6.999566E-1,0E0,0E0],"parents":[2147483647,0,0],"right_children":[2,-1,-1],"split_conditions":[4.691018E1,-1.5490079E-2,2.1499433E-2],"split_indices":[1,0,0],"split_type":[0,0,0],"sum_hessian":[3.2027597E0,1.9348633E0,1.2678964E0],"tree_param":{"num_deleted":"0","num_feature":"50","num_nodes":"3","size_leaf_vector":"1"}},{"base_weights":[1.1761525E-2,-2.3212332E-2,1.8304797E-2],"categories":[],"categories_nodes":[],"categories_segments":[],"categories_sizes":[],"default_left":[0,0,0],"id":123,"left_children":[1,-1,-1],"loss_changes":[8.086165E-1,0E0,0E0],"parents":[2147483647,0,0],"right_children":[2,-1,-1],"split_conditions":[2.3182842E1,-2.3212332E-2,1.8304797E-2],"split_indices":[41,0,0],"split_type":[0,0,0],"sum_hessian":[2.7865214E0,1.0567304E0,1.7297912E0],"tree_param":{"num_deleted":"0","num_feature":"50","num_nodes":"3","size_leaf_vector":"1"}},{"base_weights":[2.3235005E-1,-5.987222E-2,2.9338343E-2,-1.4425203E-2,1.10046705E-2],"categories":[],"categories_nodes":[],"categories_segments":[],"categories_sizes":[],"default_left":[0,0,0,0,0],"id":124,"left_children":[1,3,-1,-1,-1],"loss_changes":[4.8511946E-1,2.7400926E-1,0E0,0E0,0E0],"parents":[2147483647,0,0,1,1],"right_children":[2,4,-1,-1,-1],"split_conditions":[4.691018E1,7.0860054E1,2.9338343E-2,-1.4425203E-2,1.10046705E-2],"split_indices":[1,9,0,0,0],"split_type":[0,0,0,0,0],"sum_hessian":[3.3448386E0,2.2887754E0,1.0560633E0,1.2431049E0,1.0456705E0],"tree_param":{"num_deleted":"0","num_feature":"50","num_nodes":"5","size_leaf_vector":"1"}},{"base_weights":[-8.0862455E-2,1.950198E-2,-1.950689E-2],"categories":[],"categories_nodes":[],"categories_segments":[],"categories_sizes":[],"default_left":[0,0,0],"id":125,"left_children":[1,-1,-1],"loss_changes":[7.160669E-1,0E0,0E0],"parents":[2147483647,0,0],"right_children":[2,-1,-1],"split_conditions":[1.427813E3,1.950198E-2,-1.950689E-2],"split_indices":[5,0,0],"split_type":[0,0,0],"sum_hessian":[2.8719025E0,1.0349498E0,1.8369528E0],"tree_param":{"num_deleted":"0","num_feature":"50","num_nodes":"3","size_leaf_vector":"1"}},{"base_weights":[9.57352E-2,2.090851E-2,-1.5625307E-2],"categories":[],"categories_nodes":[],"categories_segments":[],"categories_sizes":[],"default_left":[0,0,0],"id":126,"left_children":[1,-1,-1],"loss_changes":[6.305467E-1,0E0,0E0],"parents":[2147483647,0,0],"right_children":[2,-1,-1],"split_conditions":[1.1662796E0,2.090851E-2,-1.5625307E-2],"split_indices":[38,0,0],"split_type":[0,0,0],"sum_hessian":[2.7974703E0,1.5494059E0,1.2480645E0],"tree_param":{"num_deleted":"0","num_feature":"50","num_nodes":"3","size_leaf_vector":"1"}},{"base_weights":[8.268231E-2,1.6327273E-2,-1.3717065E-2],"categories":[],"categories_nodes":[],"categories_segments":[],"categories_sizes":[],"default_left":[0,0,0],"id":127,"left_children":[1,-1,-1],"loss_changes":[4.4952092E-1,0E0,0E0],"parents":[2147483647,0,0],"right_children":[2,-1,-1],"split_conditions":[2.458395E0,1.6327273E-2,-1.3717065E-2],"split_indices":[21,0,0],"split_type":[0,0,0],"sum_hessian":[3.134112E0,1.9128897E0,1.2212222E0],"tree_param":{"num_deleted":"0","num_feature":"50","num_nodes":"3","size_leaf_vector":"1"}},{"base_weights":[-3.1496696E-2,1.8360255E-2,-1.8842692E-2],"categories":[],"categories_nodes":[],"categories_segments":[],"categories_sizes":[],"default_left":[0,0,0],"id":128,"left_children":[1,-1,-1],"loss_changes":[6.8680537E-1,0E0,0E0],"parents":[2147483647,0,0],"right_children":[2,-1,-1],"split_conditions":[6.5789406E1,1.8360255E-2,-1.8842692E-2],"split_indices":[33,0,0],"split_type":[0,0,0],"sum_hessian":[2.9828947E0,1.3551562E0,1.6277385E0],"tree_param":{"num_deleted":"0","num_feature":"50","num_nodes":"3","size_leaf_vector":"1"}},{"base_weights":[-1.0673498E-1,1.2736353E-2,-2.5315378E-2],"categories":[],"categories_nodes":[],"categories_segments":[],"categories_sizes":[],"default_left":[0,0,0],"id":129,"left_children":[1,-1,-1],"loss_changes":[6.934221E-1,0E0,0E0],"parents":[2147483647,0,0],"right_children":[2,-1,-1],"split_conditions":[2E0,1.2736353E-2,-2.5315378E-2],"split_indices":[30,0,0],"split_type":[0,0,0],"sum_hessian":[2.9081259E0,1.7172053E0,1.1909205E0],"tree_param":{"num_deleted":"0","num_feature":"50","num_nodes":"3","size_leaf_vector":"1"}},{"base_weights":[7.2705E-2,-1.0009482E-2,2.8527007E-1,2.3997664E-2,-2.5611352E-3],"categories":[],"categories_nodes":[],"categories_segments":[],"categories_sizes":[],"default_left":[0,0,0,0,0],"id":130,"left_children":[1,-1,3,-1,-1],"loss_changes":[3.3422315E-1,0E0,2.2752038E-1,0E0,0E0],"parents":[2147483647,0,0,2,2],"right_children":[2,-1,4,-1,-1],"split_conditions":[1.1709221E1,-1.0009482E-2,6.6492966E1,2.3997664E-2,-2.5611352E-3],"split_indices":[7,0,16,0,0],"split_type":[0,0,0,0,0],"sum_hessian":[3.7771978E0,1.679389E0,2.0978088E0,1.0588523E0,1.0389564E0],"tree_param":{"num_deleted":"0","num_feature":"50","num_nodes":"5","size_leaf_vector":"1"}},{"base_weights":[5.2315705E-2,1.4984322E-2,-1.0453225E-2],"categories":[],"categories_nodes":[],"categories_segments":[],"categories_sizes":[],"default_left":[0,0,0],"id":131,"left_children":[1,-1,-1],"loss_changes":[3.760002E-1,0E0,0E0],"parents":[2147483647,0,0],"right_children":[2,-1,-1],"split_conditions":[1.4825813E3,1.4984322E-2,-1.0453225E-2],"split_indices":[28,0,0],"split_type":[0,0,0],"sum_hessian":[3.8462262E0,1.9007752E0,1.945451E0],"tree_param":{"num_deleted":"0","num_feature":"50","num_nodes":"3","size_leaf_vector":"1"}},{"base_weights":[4.6600815E-2,1.6380576E-2,-1.0854679E-2],"categories":[],"categories_nodes":[],"categories_segments":[],"categories_sizes":[],"default_left":[0,0,0],"id":132,"left_children":[1,-1,-1],"loss_changes":[3.4878352E-1,0E0,0E0],"parents":[2147483647,0,0],"right_children":[2,-1,-1],"split_conditions":[1.0726998E0,1.6380576E-2,-1.0854679E-2],"split_indices":[38,0,0],"split_type":[0,0,0],"sum_hessian":[2.7470665E0,1.2125257E0,1.5345408E0],"tree_param":{"num_deleted":"0","num_feature":"50","num_nodes":"3","size_leaf_vector":"1"}},{"base_weights":[3.0843811E-2,-2.3375345E-2,2.2052635E-2],"categories":[],"categories_nodes":[],"categories_segments":[],"categories_sizes":[],"default_left":[0,0,0],"id":133,"left_children":[1,-1,-1],"loss_changes":[9.577367E-1,0E0,0E0],"parents":[2147483647,0,0],"right_children":[2,-1,-1],"split_conditions":[1.6531278E3,-2.3375345E-2,2.2052635E-2],"split_indices":[11,0,0],"split_type":[0,0,0],"sum_hessian":[2.6763158E0,1.1452748E0,1.531041E0],"tree_param":{"num_deleted":"0","num_feature":"50","num_nodes":"3","size_leaf_vector":"1"}},{"base_weights":[1.3104317E-1,-1.5185023E-2,2.3740178E-2],"categories":[],"categories_nodes":[],"categories_segments":[],"categories_sizes":[],"default_left":[0,0,0],"id":134,"left_children":[1,-1,-1],"loss_changes":[7.731868E-1,0E0,0E0],"parents":[2147483647,0,0],"right_children":[2,-1,-1],"split_conditions":[1.1709221E1,-1.5185023E-2,2.3740178E-2],"split_indices":[7,0,0],"split_type":[0,0,0],"sum_hessian":[3.2087564E0,1.4683334E0,1.7404232E0],"tree_param":{"num_deleted":"0","num_feature":"50","num_nodes":"3","size_leaf_vector":"1"}},{"base_weights":[-6.251342E-2,1.8139798E-2,-3.1808624E-1,-2.0393624E-3,-2.2847494E-2],"categories":[],"categories_nodes":[],"categories_segments":[],"categories_sizes":[],"default_left":[0,0,0,0,0],"id":135,"left_children":[1,-1,3,-1,-1],"loss_changes":[5.744268E-1,0E0,1.0345513E-1,0E0,0E0],"parents":[2147483647,0,0,2,2],"right_children":[2,-1,4,-1,-1],"split_conditions":[1E0,1.8139798E-2,1.2932364E0,-2.0393624E-3,-2.2847494E-2],"split_indices":[30,0,38,0,0],"split_type":[0,0,0,0,0],"sum_hessian":[3.22297E0,1.0522825E0,2.1706877E0,1.1559916E0,1.0146961E0],"tree_param":{"num_deleted":"0","num_feature":"50","num_nodes":"5","size_leaf_vector":"1"}},{"base_weights":[5.1975776E-2,-1.8031714E-2,1.9714512E-2],"categories":[],"categories_nodes":[],"categories_segments":[],"categories_sizes":[],"default_left":[0,0,0],"id":136,"left_children":[1,-1,-1],"loss_changes":[7.295942E-1,0E0,0E0],"parents":[2147483647,0,0],"right_children":[2,-1,-1],"split_conditions":[1.7805015E0,-1.8031714E-2,1.9714512E-2],"split_indices":[26,0,0],"split_type":[0,0,0],"sum_hessian":[3.1588051E0,1.4080677E0,1.7507375E0],"tree_param":{"num_deleted":"0","num_feature":"50","num_nodes":"3","size_leaf_vector":"1"}},{"base_weights":[8.358072E-2,-1.8891755E-2,2.3243088E-2],"categories":[],"categories_nodes":[],"categories_segments":[],"categories_sizes":[],"default_left":[0,0,0],"id":137,"left_children":[1,-1,-1],"loss_changes":[9.0468466E-1,0E0,0E0],"parents":[2147483647,0,0],"right_children":[2,-1,-1],"split_conditions":[1.1709221E1,-1.8891755E-2,2.3243088E-2],"split_indices":[7,0,0],"split_type":[0,0,0],"sum_hessian":[3.1439621E0,1.4265854E0,1.7173767E0],"tree_param":{"num_deleted":"0","num_feature":"50","num_nodes":"3","size_leaf_vector":"1"}},{"base_weights":[4.3245256E-2,-1.320401E-2,2.0069016E-2],"categories":[],"categories_nodes":[],"categories_segments":[],"categories_sizes":[],"default_left":[0,0,0],"id":138,"left_children":[1,-1,-1],"loss_changes":[5.3070587E-1,0E0,0E0],"parents":[2147483647,0,0],"right_children":[2,-1,-1],"split_conditions":[2.5935549E1,-1.320401E-2,2.0069016E-2],"split_indices":[41,0,0],"split_type":[0,0,0],"sum_hessian":[2.8587477E0,1.6798482E0,1.1788995E0],"tree_param":{"num_deleted":"0","num_feature":"50","num_nodes":"3","size_leaf_vector":"1"}},{"base_weights":[1.2636231E-1,-8.852462E-2,1.9570477E-2,9.281072E-3,-1.6918486E-2],"categories":[],"categories_nodes":[],"categories_segments":[],"categories_sizes":[],"default_left":[0,0,0,0,0],"id":139,"left_children":[1,3,-1,-1,-1],"loss_changes":[2.8753614E-1,2.866217E-1,0E0,0E0,0E0],"parents":[2147483647,0,0,1,1],"right_children":[2,4,-1,-1,-1],"split_conditions":[4.691018E1,2.9444027E1,1.9570477E-2,9.281072E-3,-1.6918486E-2],"split_indices":[1,0,0,0,0],"split_type":[0,0,0,0,0],"sum_hessian":[3.4401014E0,2.2676275E0,1.1724738E0,1.2037977E0,1.0638299E0],"tree_param":{"num_deleted":"0","num_feature":"50","num_nodes":"5","size_leaf_vector":"1"}},{"base_weights":[5.069459E-2,-1.7226469E-2,1.6494919E-2],"categories":[],"categories_nodes":[],"categories_segments":[],"categories_sizes":[],"default_left":[0,0,0],"id":140,"left_children":[1,-1,-1],"loss_changes":[5.6032264E-1,0E0,0E0],"parents":[2147483647,0,0],"right_children":[2,-1,-1],"split_conditions":[1.1709221E1,-1.7226469E-2,1.6494919E-2],"split_indices":[7,0,0],"split_type":[0,0,0],"sum_hessian":[3.047766E0,1.1648723E0,1.8828937E0],"tree_param":{"num_deleted":"0","num_feature":"50","num_nodes":"3","size_leaf_vector":"1"}},{"base_weights":[-5.4267492E-2,1.1225572E-2,-1.455479E-2],"categories":[],"categories_nodes":[],"categories_segments":[],"categories_sizes":[],"default_left":[0,0,0],"id":141,"left_children":[1,-1,-1],"loss_changes":[3.387526E-1,0E0,0E0],"parents":[2147483647,0,0],"right_children":[2,-1,-1],"split_conditions":[1.5062373E3,1.1225572E-2,-1.455479E-2],"split_indices":[18,0,0],"split_type":[0,0,0],"sum_hessian":[3.1409712E0,1.4665965E0,1.6743747E0],"tree_param":{"num_deleted":"0","num_feature":"50","num_nodes":"3","size_leaf_vector":"1"}},{"base_weights":[8.2222946E-2,-1.1996184E-2,1.6009303E-2],"categories":[],"categories_nodes":[],"categories_segments":[],"categories_sizes":[],"default_left":[0,0,0],"id":142,"left_children":[1,-1,-1],"loss_changes":[4.0203652E-1,0E0,0E0],"parents":[2147483647,0,0],"right_children":[2,-1,-1],"split_conditions":[1.1709221E1,-1.1996184E-2,1.6009303E-2],"split_indices":[7,0,0],"split_type":[0,0,0],"sum_hessian":[3.242376E0,1.374026E0,1.86835E0],"tree_param":{"num_deleted":"0","num_feature":"50","num_nodes":"3","size_leaf_vector":"1"}},{"base_weights":[-1.19131915E-2,-1.1749504E-2,1.473363E-2],"categories":[],"categories_nodes":[],"categories_segments":[],"categories_sizes":[],"default_left":[0,0,0],"id":143,"left_children":[1,-1,-1],"loss_changes":[3.267001E-1,0E0,0E0],"parents":[2147483647,0,0],"right_children":[2,-1,-1],"split_conditions":[3.3389057E1,-1.1749504E-2,1.473363E-2],"split_indices":[24,0,0],"split_type":[0,0,0],"sum_hessian":[2.7643907E0,1.7352904E0,1.0291002E0],"tree_param":{"num_deleted":"0","num_feature":"50","num_nodes":"3","size_leaf_vector":"1"}},{"base_weights":[-3.4787785E-2,1.2178028E-2,-1.7229548E-2],"categories":[],"categories_nodes":[],"categories_segments":[],"categories_sizes":[],"default_left":[0,0,0],"id":144,"left_children":[1,-1,-1],"loss_changes":[4.3159232E-1,0E0,0E0],"parents":[2147483647,0,0],"right_children":[2,-1,-1],"split_conditions":[1.1662796E0,1.2178028E-2,-1.7229548E-2],"split_indices":[38,0,0],"split_type":[0,0,0],"sum_hessian":[3.031668E0,1.7095305E0,1.3221375E0],"tree_param":{"num_deleted":"0","num_feature":"50","num_nodes":"3","size_leaf_vector":"1"}},{"base_weights":[-3.685519E-2,1.7264409E-2,-2.0571213E-2],"categories":[],"categories_nodes":[],"categories_segments":[],"categories_sizes":[],"default_left":[0,0,0],"id":145,"left_children":[1,-1,-1],"loss_changes":[6.519506E-1,0E0,0E0],"parents":[2147483647,0,0],"right_children":[2,-1,-1],"split_conditions":[6.5789406E1,1.7264409E-2,-2.0571213E-2],"split_indices":[33,0,0],"split_type":[0,0,0],"sum_hessian":[2.5622048E0,1.3069739E0,1.2552308E0],"tree_param":{"num_deleted":"0","num_feature":"50","num_nodes":"3","size_leaf_vector":"1"}},{"base_weights":[7.6003395E-2,1.9306596E-2,-1.2744598E-2],"categories":[],"categories_nodes":[],"categories_segments":[],"categories_sizes":[],"default_left":[0,0,0],"id":146,"left_children":[1,-1,-1],"loss_changes":[5.168392E-1,0E0,0E0],"parents":[2147483647,0,0],"right_children":[2,-1,-1],"split_conditions":[1.4825813E3,1.9306596E-2,-1.2744598E-2],"split_indices":[28,0,0],"split_type":[0,0,0],"sum_hessian":[3.0773423E0,1.5023491E0,1.574993E0],"tree_param":{"num_deleted":"0","num_feature":"50","num_nodes":"3","size_leaf_vector":"1"}},{"base_weights":[3.5620328E-2,-1.2460479E-2,1.2872072E-2],"categories":[],"categories_nodes":[],"categories_segments":[],"categories_sizes":[],"default_left":[0,0,0],"id":147,"left_children":[1,-1,-1],"loss_changes":[3.4009826E-1,0E0,0E0],"parents":[2147483647,0,0],"right_children":[2,-1,-1],"split_conditions":[1.0758941E1,-1.2460479E-2,1.2872072E-2],"split_indices":[31,0,0],"split_type":[0,0,0],"sum_hessian":[3.367455E0,1.4202758E0,1.9471792E0],"tree_param":{"num_deleted":"0","num_feature":"50","num_nodes":"3","size_leaf_vector":"1"}},{"base_weights":[1.2509453E-1,3.1403497E-1,-1.1112287E-2,-8.445776E-3,3.1694893E-2],"categories":[],"categories_nodes":[],"categories_segments":[],"categories_sizes":[],"default_left":[0,0,0,0,0],"id":148,"left_children":[1,3,-1,-1,-1],"loss_changes":[3.474918E-1,5.944675E-1,0E0,0E0,0E0],"parents":[2147483647,0,0,1,1],"right_children":[2,4,-1,-1,-1],"split_conditions":[-8.403359E0,2.5561869E1,-1.1112287E-2,-8.445776E-3,3.1694893E-2],"split_indices":[29,24,0,0,0],"split_type":[0,0,0,0,0],"sum_hessian":[3.231498E0,2.155093E0,1.0764052E0,